tree
version=v3
num_class=1
num_tree_per_iteration=1
label_index=0
max_feature_idx=7
objective=tweedie
feature_names=distance sx sy dx dy length estimated_duration time
feature_infos=[296:99842] [5683552:5774648] [4216119:4277787] [5599225:5824280] [4179458:4320386] [247736:984481] [601:10107] [840:1077]
tree_sizes=3477 3623 3623 3609 3621 3616 3622 3617 3596 3616 3613 3624 3605 3608 3632 3627 3611 3628 3620 3608 3635 3638 3638 3651 3644 3652 3672 3639 3644 3670 3646 3650 3677 3652 3656 3674 3680 3691 3699 3688 3678 3687 3674 3693 3689 3684 3697 3695 3694 3683 3703 3668 3687 3694 3681 3649 3669 3702 3673 3680 3665 3673 3685 3675 3648 3660 3661 3679 3682 3633 3699 3667 3655 3637 3656 3689 3675 3685 3631 3655 3679 3667 3641 3658 3668 3645 3681 3619 3672 3654 3648 3656 3573 3663 3590 3650 3651 3587 3616 3690 3643 3582 3654 3620 3567 3641 3678 3601 3584 3663 3553 3559 3649 3653 3611 3569 3566 3562 3627 3556 3628 3611 3624 3665 3561 3582 3606 3626 3597 3650 3581 3624 3606 3633 3653 3537 3616 3627 3626 3579 3643 3534 3616 3590 3600 3656 3503 3561 3535 3520 3582 3640 3532 3602 3605 3621 3553 3562 3640 3539 3636 3629 3571 3563 3626 3520 3563 3613 3571 3549 3607 3558 3490 3497 3600 3544 3598 3585 3589 3537 3547 3512 3527 3479 3645 3541 3601 3582 3588 3464 3578 3464 3515 3599 3584 3568 3544 3525 3611 3578 3629 3528 3601 3626 3542 3482 3483 3603 3536 3547 3505 3544 3540 3572 3579 3496 3515 3501 3543 3501 3545 3488 3577 3568 3464 3542 3613 3559 3599 3512 3630 3511 3564 3572 3491 3583 3506 3431 3551 3490 3515 3522 3480 3543 3530 3630 3508 3531 3450 3581 3424 3621 3568 3581 3611 3524 3545 3538 3576 3464 3628 3527 3515 3534 3505 3486 3506 3556 3533 3531 3506 3440 3457 3541 3491 3503 3520 3597 3490 3492 3496 3515 3443 3410 3496 3472 3443 3588 3464 3581 3491 3576 3471 3481 3621 3421 3423 3606 3473 3602 3553 3492 3459 3555 3467 3501 3450 3567 3511 3433 3481 3496 3485 3527 3577 3423 3459 3468 3433 3588 3495 3546 3571 3556 3574 3520 3517 3431 3476 3434 3556 3521 3582 3520 3537 3560 3562 3530 3501 3557 3565 3546 3432 3619 3480 3549 3449 3539 3527 3471 3486 3509 3423 3524 3503 3495 3432 3518 3499 3542 3577 3485 3504 3547 3492 3534 3428 3467 3500 3557 3438 3561 3530 3488 3426 3455 3430 3585 3507 3490 3609 3502 3465 3411 3510 3497 3649 3549 3551 3435 3457 3439 3515 3440 3437 3543 3532 3438 3508 3556

Tree=0
num_leaves=31
num_cat=0
split_feature=6 6 6 6 6 6 6 6 6 6 6 6 6 6 6 6 6 6 6 6 6 6 6 6 6 6 6 6 6 6
split_gain=9.9272e+06 1.45876e+06 1.35195e+06 234629 192164 169522 167748 38662.1 33786.6 25077.7 23803.3 22435.5 21533.2 20627.8 19986.7 5922.4 5821.59 4589.17 4116.88 3441.75 3119.87 3091.35 3066.22 2929.71 2865.92 2865.35 2837.36 2711.47 2683.5 2148.12
threshold=1593.5000000000002 2594.5000000000005 1004.5000000000001 3592.5000000000005 2028.5000000000002 788.50000000000011 1271.5000000000002 4658.5000000000009 3026.5000000000005 1804.5000000000002 2285.5000000000005 689.50000000000011 1132.5000000000002 1430.5000000000002 897.50000000000011 5516.5000000000009 3953.5000000000005 2803.5000000000005 3266.5000000000005 1694.5000000000002 2405.5000000000005 1066.5000000000002 839.50000000000011 1345.5000000000002 1911.5000000000002 748.50000000000011 648.50000000000011 2157.5000000000005 1196.5000000000002 1523.5000000000002
decision_type=2 2 2 2 2 2 2 2 2 2 2 2 2 2 2 2 2 2 2 2 2 2 2 2 2 2 2 2 2 2
left_child=2 4 5 8 9 11 12 16 17 19 27 26 21 23 22 -9 -5 -3 -10 -2 -12 -4 -7 -8 -11 -13 -1 -6 -14 -15
right_child=1 3 6 7 10 14 13 15 18 24 20 25 28 29 -16 -17 -18 -19 -20 -21 -22 -23 -24 -25 -26 -27 -28 -29 -30 -31
leaf_value=7.3631549373726637 7.4377921107753062 7.4780009633976272 7.4003862906901965 7.5027462625679586 7.4576229407268668 7.3820626742117001 7.4191645859921875 7.5204337731662294 7.4899130073011984 7.4478153951822055 7.4668363073931934 7.3730088222635422 7.4098109320716157 7.4290736357610356 7.3938877857722023 7.5323796073458569 7.5107254460898991 7.4841444353860496 7.4962003810520166 7.4428747287011374 7.4720476237497211 7.4053990839187742 7.3870446237044263 7.4239669955737959 7.4526371768337967 7.377947955562127 7.3680349653666459 7.4623794118866913 7.4144929201063912 7.4334189933527925
leaf_weight=1694156.943611145 1692156.0536766052 1659463.1569137573 1559663.2072620392 1092625.3345947266 1619533.2337760925 1518850.3225212097 1550069.7271633148 679772.58660888672 1298820.8663978577 1563617.4466972351 1262506.4516105652 1909017.9061756134 1487707.1826896667 1754702.1182632446 2852249.1955432892 435951.45890808105 1260096.9369621277 1465358.4656562805 1369088.2300720215 1718761.3900299072 1760417.4548454285 1590039.8429374695 1649105.3745269775 1709718.2724075317 1592293.6556739807 1240001.10105896 1386610.3584480286 1457174.1516685486 1655070.8179569244 1244475.7378292084
leaf_count=59193 39927 29014 45668 14994 33332 48703 40963 7501 20357 34512 24216 63841 41430 43728 86333 4019 15764 24252 20150 39227 32372 45346 51631 43934 33978 40537 47419 28937 44913 30191
internal_value=7.43303 7.47225 7.39836 7.49638 7.45461 7.37946 7.41682 7.51284 7.48653 7.44511 7.46483 7.37021 7.40759 7.42609 7.38903 7.5251 7.50702 7.48088 7.49314 7.44035 7.46987 7.40292 7.38466 7.42168 7.45025 7.37495 7.36535 7.45988 7.41228 7.43088
internal_weight=0 2.19276e+07 2.48014e+07 9.26118e+06 1.26665e+07 1.225e+07 1.25514e+07 3.46845e+06 5.79273e+06 6.56683e+06 6.09963e+06 6.22979e+06 6.29248e+06 6.25897e+06 6.0202e+06 1.11572e+06 2.35272e+06 3.12482e+06 2.66791e+06 3.41092e+06 3.02292e+06 3.1497e+06 3.16796e+06 3.25979e+06 3.15591e+06 3.14902e+06 3.08077e+06 3.07671e+06 3.14278e+06 2.99918e+06
internal_count=1136382 402552 733830 136051 266501 397657 336173 42278 93773 147644 118857 210990 177357 158816 186667 11520 30758 53266 40507 79154 56588 91014 100334 84897 68490 104378 106612 62269 86343 73919
is_linear=0
shrinkage=1


Tree=1
num_leaves=31
num_cat=0
split_feature=6 6 6 6 6 6 6 6 6 6 6 6 6 6 6 6 6 6 6 6 6 6 6 6 6 6 6 6 6 6
split_gain=8.4587e+06 1.22577e+06 1.22019e+06 193017 169053 155868 150090 31925.8 28807.3 23053.2 21577.3 21434.5 19043.9 18474.2 16093.2 5750.46 4294.89 4145.16 3083.82 3029.93 2974.83 2920.39 2869.03 2614.57 2605.25 2594.45 2513.75 2346.6 2308.14 2092.32
threshold=1615.5000000000002 2649.5000000000005 1010.5000000000001 3668.5000000000005 2058.5000000000005 798.50000000000011 1279.5000000000002 4658.5000000000009 3113.5000000000005 694.50000000000011 2343.5000000000005 1830.5000000000002 1430.5000000000002 1139.5000000000002 908.50000000000011 5516.5000000000009 2874.5000000000005 4073.5000000000005 2210.5000000000005 648.50000000000011 1717.5000000000002 748.50000000000011 3383.5000000000005 1066.5000000000002 1523.5000000000002 849.50000000000011 1968.5000000000002 2496.5000000000005 1210.5000000000002 1353.5000000000002
decision_type=2 2 2 2 2 2 2 2 2 2 2 2 2 2 2 2 2 2 2 2 2 2 2 2 2 2 2 2 2 2
left_child=2 4 5 8 11 9 13 17 16 19 18 20 29 23 25 -9 -3 -5 -6 -1 -2 -11 -10 -4 -14 -7 -13 -12 -15 -8
right_child=1 3 6 7 10 14 12 15 22 21 27 26 24 28 -16 -17 -18 -19 -20 -21 -22 -23 -24 -25 -26 -27 -28 -29 -30 -31
leaf_value=-0.0652869181298774 0.0054145850001022199 0.043316214043345284 -0.029914057140777457 0.066724498509648109 0.024083806565554439 -0.046364353364967539 -0.012287778662726508 0.082377359566687972 0.055202021201388778 -0.055622125924158647 0.033579601712318635 0.015196841998133417 -0.0036437698048070412 -0.020757081643810227 -0.035518483452513287 0.094310805880533213 0.049259232936977621 0.073929406417412941 0.02900769671224852 -0.060359234947562124 0.010128479927968987 -0.05082040705670636 0.060750337376794389 -0.025278168476156077 0.00080464067046802758 -0.041766766788702683 0.01986329677450193 0.038181164706903227 -0.016420679645131841 -0.0081223162927103552
leaf_weight=1669333.6171302795 1684051.5930023193 1688578.9155845642 1403328.6639022827 1101061.5453948975 1855809.7782516479 1493879.2969360352 1541020.815530777 664189.76830673218 1331791.1183738708 1726388.9015083313 1507110.3656959534 1956087.9874954224 1754619.5507965088 1638117.9335441589 2686067.3891143799 423038.12138748169 1443578.1096496582 953709.10427093506 1450173.0756187439 1531023.5031223297 1744223.8151741028 1528228.4602127075 1080327.9228286743 1748965.2245159149 1621048.8531570435 1656670.4753913879 1187198.2022628784 1339786.5328483582 1509409.1807422638 1546019.446855545
leaf_count=59193 39452 29255 41174 15060 37839 48043 40624 7501 20593 58302 28431 42693 43728 45510 81385 4019 23662 12001 28425 52958 39515 50316 15778 49927 39196 51954 25020 24303 40840 39685
internal_value=0 0.0369256 -0.0315521 0.0600932 0.0211103 -0.0495419 -0.014226 0.0759345 0.0511158 -0.0581083 0.0306399 0.0121878 -0.00566048 -0.023013 -0.040068 0.0870206 0.0460553 0.0700686 0.0262437 -0.0629296 0.0078129 -0.0533674 0.057687 -0.027342 -0.00150757 -0.0439468 0.0169593 0.0357452 -0.0186775 -0.0102017
internal_weight=0 2.14107e+07 2.50541e+07 8.68627e+06 1.27244e+07 1.22916e+07 1.27625e+07 3.142e+06 5.54428e+06 6.45497e+06 6.15288e+06 6.57156e+06 6.46271e+06 6.29982e+06 5.83662e+06 1.08723e+06 3.13216e+06 2.05477e+06 3.30598e+06 3.20036e+06 3.42828e+06 3.25462e+06 2.41212e+06 3.15229e+06 3.37567e+06 3.15055e+06 3.14329e+06 2.8469e+06 3.14753e+06 3.08704e+06
internal_count=1136382 393547 742835 127869 265678 402151 340684 38581 89288 220769 118998 146680 163233 177451 181382 11520 52917 27061 66264 112151 78967 108618 36371 91101 82924 99997 67713 52734 86350 80309
is_linear=0
shrinkage=0.08


Tree=2
num_leaves=31
num_cat=0
split_feature=6 6 6 6 6 6 6 6 6 6 6 6 6 6 6 6 6 6 6 6 6 6 6 6 6 6 6 6 6 6
split_gain=7.20066e+06 1.08831e+06 1.0301e+06 169800 156552 146389 113123 26314.9 24104.1 21749.8 21560.8 19974.2 16566.3 15077.2 13512.4 5090.23 3439.01 3012.29 2935.61 2930.96 2793.54 2743.74 2674.22 2460.64 2298.14 2179.04 2160.51 1778.74 1757.13 1589.44
threshold=1604.5000000000002 2709.5000000000005 980.50000000000011 2074.5000000000005 3754.5000000000005 1248.5000000000002 768.50000000000011 4976.5000000000009 3163.5000000000005 1844.5000000000002 2364.5000000000005 1404.5000000000002 1091.5000000000002 864.50000000000011 681.50000000000011 4231.0000000000009 1717.5000000000002 2912.5000000000005 1494.5000000000002 1175.5000000000002 2228.5000000000005 3450.5000000000005 2545.5000000000005 5516.5000000000009 932.50000000000011 1320.5000000000002 1968.5000000000002 636.50000000000011 818.50000000000011 721.50000000000011
decision_type=2 2 2 2 2 2 2 2 2 2 2 2 2 2 2 2 2 2 2 2 2 2 2 2 2 2 2 2 2 2
left_child=2 3 6 9 8 12 14 15 17 16 20 25 -4 28 27 -6 -2 -3 -13 -14 -5 -10 -12 -9 -15 -7 -11 -1 -8 -16
right_child=1 4 5 10 7 11 13 23 21 26 22 18 19 24 29 -17 -18 -19 -20 -21 -22 -23 -24 -25 -26 -27 -28 -29 -30 -31
leaf_value=-0.061524192938120469 0.0047240218039442247 0.041416553324085593 -0.02766854706663037 0.022717275719873083 0.064003626415396198 -0.013028132778028528 -0.04551509630232236 0.080039982380541039 0.052438760098586168 0.014290768783260814 0.031970696510229067 -0.0046428067030093619 -0.021535089485135783 -0.037338922027916589 -0.05339586882948371 0.071975212879002437 0.0095281435233632809 0.046580112229922026 -0.00012593584376953046 -0.016956209614835464 0.027398252164672576 0.057894906847454949 0.036697901148423924 0.089250443499255191 -0.032918040024650819 -0.0088748625496238905 0.018513648140227868 -0.057429244363005331 -0.041501478212890658 -0.049542920662417389
leaf_weight=1244039.3728580475 1873416.7810668945 1445758.7790374756 2785589.2951831818 1852754.3141746521 1134598.2469902039 1534236.3595027924 1491178.7388362885 338048.06789398193 1331546.9351844788 1756019.3019866943 1734556.5808448792 1730151.4960899353 1970956.8230934143 1867583.6440162659 1291420.2716236115 935237.65219497681 1942400.4451141357 1446507.925201416 1968763.3900547028 1638428.4639129639 1458082.2118835449 1058981.73072052 1371467.1255569458 411745.67686843872 1260468.3234634399 1709068.4457454681 1388490.5866546631 1494381.4332427979 1312567.5179004669 1459812.8781757355
leaf_count=44815 43978 24881 82021 37680 15416 40948 49009 3774 20532 38270 32552 43523 55725 58366 44437 11565 43938 23668 47935 44923 28496 15411 24657 4019 38365 44315 29236 52650 42117 49160
internal_value=0 0.0338978 -0.0294017 0.0198832 0.0570359 -0.0143011 -0.0470352 0.0722571 0.0489118 0.0112291 0.0292703 -0.00625689 -0.0230336 -0.039376 -0.0553112 0.0676055 0.00716951 0.043999 -0.00223868 -0.0194566 0.0247788 0.0548558 0.034058 0.0850979 -0.0355575 -0.0108396 0.0161554 -0.0592895 -0.0436361 -0.0513515
internal_weight=0 2.14796e+07 2.47586e+07 1.33772e+07 8.10243e+06 1.33372e+07 1.14215e+07 2.81963e+06 5.2828e+06 6.96033e+06 6.41686e+06 6.94222e+06 6.39497e+06 5.9318e+06 5.48965e+06 2.06984e+06 3.81582e+06 2.89227e+06 3.69891e+06 3.60939e+06 3.31084e+06 2.39053e+06 3.10602e+06 749794 3.12805e+06 3.2433e+06 3.14451e+06 2.73842e+06 2.80375e+06 2.75123e+06
internal_count=1136382 398073 738309 278807 119266 359390 378919 34774 84492 155422 123385 176721 182669 187857 191062 26981 87916 48549 91458 100648 66176 35943 57209 7793 96731 85263 67506 97465 91126 93597
is_linear=0
shrinkage=0.08


Tree=3
num_leaves=31
num_cat=0
split_feature=6 6 6 6 6 6 6 6 6 6 6 6 6 6 6 6 6 6 6 6 6 6 6 6 6 6 6 6 6 6
split_gain=6.12571e+06 923136 908755 142205 133225 121065 111817 22329.3 21118.5 18667.5 17524.9 16785.1 14157.5 13972.8 13864.8 3255.32 2813.55 2780.42 2554.53 2548.62 2333.28 2304.79 2171.77 2166.65 1940 1839.89 1838.86 1722.58 1690.55 1630.47
threshold=1626.5000000000002 998.50000000000011 2741.5000000000005 2107.5000000000005 3842.5000000000005 1287.5000000000002 778.50000000000011 3215.5000000000005 4976.5000000000009 1857.5000000000002 2405.5000000000005 1119.5000000000002 881.50000000000011 681.50000000000011 1448.5000000000002 4231.0000000000009 1189.5000000000002 2987.5000000000005 1742.5000000000002 3521.5000000000005 5516.5000000000009 2246.5000000000005 1982.5000000000002 944.50000000000011 729.50000000000011 828.50000000000011 2545.5000000000005 1370.5000000000002 1048.5000000000002 1543.5000000000002
decision_type=2 2 2 2 2 2 2 2 2 2 2 2 2 2 2 2 2 2 2 2 2 2 2 2 2 2 2 2 2 2
left_child=1 6 3 9 7 11 13 17 15 18 21 28 25 -1 27 -6 -13 -4 -2 -9 -10 -5 -11 -14 -15 -8 -12 -7 -3 -16
right_child=2 5 4 10 8 14 12 19 20 22 26 16 23 24 29 -17 -18 -19 -20 -21 -22 -23 -24 -25 -26 -27 -28 -29 -30 -31
leaf_value=-0.055154246278599571 0.0052723986695584358 -0.026409962193598046 0.039482038656249573 0.021775641135218331 0.060482797520840778 -0.0098075173027381245 -0.041368874628381368 0.049792083536283685 0.075143775584379041 0.013626118716063614 0.030198672399971361 -0.018669204354238585 -0.033555129801863232 -0.049253383966812628 -0.0022919928586369689 0.067308863090363241 -0.014258860888299158 0.04448553351937478 0.0095215768230234501 0.055103583878592953 0.084209960906152945 0.025999439583645711 0.017693416784389408 -0.029312834369070125 -0.045203624638587084 -0.03738127196022125 0.034237140472621518 -0.0061237231774294186 -0.022553506085623166 0.0013280610339662174
leaf_weight=2709503.6072616577 1896402.4063301086 1262150.5768318176 1661752.3743057251 1630404.4470748901 869292.09463500977 1721628.6081466675 1472965.9270496368 1324351.1047096252 331549.28504180908 1756412.7296028137 1309520.2281646729 1624564.9822807312 1703400.5710697174 1527636.5323963165 1774307.204334259 920699.64584732056 2152077.6748104095 1242073.0194206238 1732895.9220695496 1026139.9239959717 401902.88718414307 1677499.625667572 1610686.057346344 1406831.1741886139 1500792.580078125 1489287.4566440582 1607272.2627105713 1538278.1881713867 1717393.702003479 1444571.4438705444
leaf_count=97465 44178 37451 28409 32974 11848 45206 48465 20346 3774 38151 24500 45614 53098 52912 43946 11565 58462 20177 38978 14869 4019 32631 33745 42680 50669 47700 28916 39262 49614 34758
internal_value=0 -0.0267139 0.0318721 0.0191075 0.0535702 -0.0122052 -0.0429727 0.0463143 0.0686786 0.0112815 0.0279036 -0.0196978 -0.035406 -0.0509806 -0.00439174 0.0639939 -0.016156 0.0416222 0.00730127 0.0521109 0.0801117 0.0239176 0.0155718 -0.0316362 -0.0472465 -0.0393641 0.032424 -0.00806922 -0.0241871 -0.000667382
internal_weight=0 2.50454e+07 2.09989e+07 1.32211e+07 7.77776e+06 1.3235e+07 1.18104e+07 5.25432e+06 2.52344e+06 6.9964e+06 6.2247e+06 6.75619e+06 6.07249e+06 5.73793e+06 6.47879e+06 1.78999e+06 3.77664e+06 2.90383e+06 3.6293e+06 2.35049e+06 733452 3.3079e+06 3.3671e+06 3.11023e+06 3.02843e+06 2.96225e+06 2.91679e+06 3.25991e+06 2.97954e+06 3.21888e+06
internal_count=1136382 747302 389080 274073 115007 354313 392989 83801 31206 155052 119021 191141 191943 201046 163172 23413 104076 48586 83156 35215 7793 65605 71896 95778 103581 96165 53416 84468 87065 78704
is_linear=0
shrinkage=0.08


Tree=4
num_leaves=31
num_cat=0
split_feature=6 6 6 6 6 6 6 6 6 6 6 6 6 6 6 6 6 6 6 6 6 6 6 6 6 6 6 0 5 0
split_gain=5.20706e+06 807720 771469 118791 116254 112385 92628.8 19566.6 19385.6 16186.5 16115.6 13618.5 13430.4 12107.8 9907.46 2999.04 2728.66 2529.22 2448.59 2252.79 2184.03 1916.12 1910.11 1748.7 1626.39 1623.79 1610.37 1552.2 1549.19 1448.49
threshold=1637.5000000000002 1022.5000000000001 2741.5000000000005 3842.5000000000005 2124.5000000000005 798.50000000000011 1311.5000000000002 3215.5000000000005 4976.5000000000009 699.50000000000011 1884.5000000000002 2405.5000000000005 1154.5000000000002 914.50000000000011 1457.5000000000002 4424.5000000000009 648.50000000000011 1766.5000000000002 2948.5000000000005 3521.5000000000005 5516.5000000000009 1234.5000000000002 859.50000000000011 753.50000000000011 2594.5000000000005 1085.5000000000002 2285.5000000000005 7837.5000000000009 397634.00000000006 6960.5000000000009
decision_type=2 2 2 2 2 2 2 2 2 2 2 2 2 2 2 2 2 2 2 2 2 2 2 2 2 2 2 2 2 2
left_child=1 5 4 7 10 9 12 18 15 16 17 26 25 22 29 -5 -1 -2 -4 -9 -10 -14 -7 -11 -13 -3 -6 -16 -12 -8
right_child=2 6 3 8 11 13 14 19 20 23 28 24 21 -15 27 -17 -18 -19 -20 -21 -22 -23 -24 -25 -26 -27 -28 -29 -30 -31
leaf_value=-0.052793589368037026 0.0054485103730714307 -0.022542827802399516 0.036134039243864623 0.057278834777069638 0.020798950216725814 -0.036403490518512271 -0.0030559808994029968 0.046167153169567508 0.070376348325234026 -0.044056157760294305 0.01306639038033512 0.028373326206602077 -0.015280688427610378 -0.027432322451706046 0.0033666237775514881 0.064236639312796606 -0.048165791423447075 0.0095718275921389939 0.040792992896124911 0.051181942893947473 0.079231913760087494 -0.011517258032094893 -0.032523235227067397 -0.040184808573588832 0.032230191663368359 -0.018921259476720031 0.024520064958095333 -0.0011023001636680733 0.016618272442277315 -0.0075537639464614914
leaf_weight=1614445.7417221069 2076841.4168052673 1548829.671754837 1420395.1266098022 1167609.1560325623 1842615.5514144897 1745574.5288887024 568869.5936164856 1314499.8674964905 325931.57080078125 1674893.5260257721 1414774.4640884399 1734737.6998023987 1817829.1195526123 2806332.2520828247 614061.94309616089 600324.9947052002 1647563.8167762756 1757983.2752227783 1468283.9084358215 1016791.3873710632 393350.24507141113 1653311.3754138947 1518007.8261585236 1347527.8882369995 1172819.6362762451 1622276.1500644684 1248748.017780304 2618601.3648223877 1768047.3409385681 2356499.1715316772
leaf_count=59193 48128 45437 24487 15892 37054 56938 14339 20346 3774 57796 30450 32372 50280 85513 14636 7521 58571 39260 24099 14869 4019 44359 48068 45209 21044 46224 24216 64152 37129 61007
internal_value=0 -0.0244574 0.0296987 0.049758 0.0178215 -0.0390492 -0.0103738 0.0429022 0.0641464 -0.0465481 0.0108314 0.0259987 -0.0169265 -0.0312854 -0.00330594 0.0596414 -0.0504562 0.00733875 0.0385021 0.0483544 0.0752191 -0.0134882 -0.0345986 -0.0423301 0.0299291 -0.0206901 0.0223021 -0.000253404 0.0150394 -0.00667912
internal_weight=0 2.51546e+07 2.07238e+07 7.70719e+06 1.30166e+07 1.23543e+07 1.28003e+07 5.21997e+06 2.48722e+06 6.28443e+06 7.01765e+06 5.99892e+06 6.64225e+06 6.06991e+06 6.15803e+06 1.76793e+06 3.26201e+06 3.83482e+06 2.88868e+06 2.33129e+06 719282 3.47114e+06 3.26358e+06 3.02242e+06 2.90756e+06 3.17111e+06 3.09136e+06 3.23266e+06 3.18282e+06 2.92537e+06
internal_count=1136382 751722 384660 115007 269653 411288 340434 83801 31206 220769 154967 114686 186300 190519 154134 23413 117764 87388 48586 35215 7793 94639 105006 103005 53416 91661 61270 78788 67579 75346
is_linear=0
shrinkage=0.08


Tree=5
num_leaves=31
num_cat=0
split_feature=6 6 6 6 6 6 6 6 6 6 6 6 6 6 6 6 6 6 6 6 6 6 6 0 6 6 6 0 6 6
split_gain=4.4259e+06 727323 626418 112958 110806 85327.5 72239.7 19133.4 17616 15873.6 12865.5 11123.7 10098.8 9495.29 8750.43 2748.68 2666.86 2126.82 2086.19 2056.94 2020.07 1921.73 1701.32 1661.04 1454.38 1385.58 1344.51 1322.74 1233.03 1178.69
threshold=1583.5000000000002 2709.5000000000005 974.50000000000011 2043.5000000000002 3842.5000000000005 1241.5000000000002 763.50000000000011 3163.5000000000005 4976.5000000000009 2343.5000000000005 1779.5000000000002 1404.5000000000002 1085.5000000000002 864.50000000000011 668.50000000000011 4231.0000000000009 3450.5000000000005 2496.5000000000005 1911.5000000000002 2874.5000000000005 5516.5000000000009 2191.5000000000005 1154.5000000000002 8562.5000000000018 1320.5000000000002 712.50000000000011 818.50000000000011 6791.5000000000009 1485.5000000000002 932.50000000000011
decision_type=2 2 2 2 2 2 2 2 2 2 2 2 2 2 2 2 2 2 2 2 2 2 2 2 2 2 2 2 2 2
left_child=2 3 6 10 7 12 14 19 15 21 23 24 -4 26 -1 -6 -9 -11 -12 -3 -10 -5 -14 -2 -7 -16 -8 -13 -29 -15
right_child=1 4 5 9 8 11 13 16 20 17 18 27 22 29 25 -17 -18 -19 -20 -21 -22 -23 -24 -25 -26 -27 -28 28 -30 -31
leaf_value=-0.048136513762399052 0.0080492951114088957 0.032241375735070188 -0.021932475279382673 0.016977415811363791 0.052234021125702822 -0.010282262970780467 -0.036201461248095285 0.04176192688537371 0.065766043367815302 0.024292361073646521 0.0093932047578309842 0.0018694447865479588 -0.01742710057216303 -0.029453566791871565 -0.04334876244250669 0.058579106826093082 0.046904703083132146 0.028377807428997072 0.013185249575137661 0.036606030140976097 0.07435458528955427 0.020744795318757312 -0.013926993013744463 0.0034036788225081664 -0.0069711588402691553 -0.039880704175972642 -0.032742607319416958 -0.0045574677692166565 -0.0012340781665827016 -0.026141754933096808
leaf_weight=2249678.9051685333 608263.92140579224 1178893.5912742615 2777217.1368236542 1817220.4569320679 851439.55982971191 1688110.3919334412 1617688.4596633911 1303155.0213775635 321087.69884109497 1490802.5684432983 1941993.8929290771 459871.70053291321 1620533.7302455902 1847572.6487102509 1395652.3260421753 897567.93315505981 1278420.662021637 1800368.9577598572 1779166.8174591064 1669877.8331222534 385940.26687240601 1656420.0011825562 1968384.4743671417 2589895.7872238159 1708034.1962337494 1562969.2266998291 1295044.074836731 1314412.0939102173 1565398.4393730164 1095647.3568058014
leaf_count=82630 13861 20652 82498 37416 11848 45175 54100 20532 3774 28431 43127 11119 46224 58366 49456 11565 18979 32906 38049 27897 4019 32818 54412 60804 44315 53885 42117 33287 38447 33673
internal_value=0 0.0263471 -0.0235056 0.015195 0.0456976 -0.0116695 -0.0375217 0.0393203 0.059798 0.022546 0.00800824 -0.00539311 -0.0183103 -0.0314254 -0.0443761 0.0554902 0.0443087 0.0265272 0.0112063 0.0347998 0.0704542 0.0187739 -0.0155074 0.00428724 -0.008617 -0.0415167 -0.0346636 -0.00211473 -0.00275095 -0.0282207
internal_weight=0 2.15705e+07 2.41662e+07 1.36841e+07 7.88638e+06 1.3102e+07 1.10643e+07 5.43035e+06 2.45604e+06 6.76481e+06 6.91932e+06 6.73583e+06 6.36614e+06 5.85595e+06 5.2083e+06 1.74901e+06 2.58158e+06 3.29117e+06 3.72116e+06 2.84877e+06 707028 3.47364e+06 3.58892e+06 3.19816e+06 3.39614e+06 2.95862e+06 2.91273e+06 3.33968e+06 2.87981e+06 2.94322e+06
internal_count=1136382 406678 729704 287412 119266 355477 374227 88060 31206 131571 155841 172343 183134 188256 185971 23413 39511 61337 81176 48549 7793 70234 100636 74665 89490 103341 96217 82853 71734 92039
is_linear=0
shrinkage=0.08


Tree=6
num_leaves=31
num_cat=0
split_feature=6 6 6 6 6 6 6 6 6 6 6 6 6 6 6 6 6 6 6 6 6 6 6 0 0 6 6 6 6 6
split_gain=3.75819e+06 591466 572638 89095.8 87963.2 79316.4 70344.1 16037.7 13172.3 12308.2 11281.8 10346.1 9532.38 8785.95 8245.89 2056.02 1982.67 1848.16 1747.03 1731.5 1695.18 1671.29 1470.58 1461.13 1351.37 1342.56 1317.09 1249.22 1233.06 1211.15
threshold=1637.5000000000002 992.50000000000011 2772.5000000000005 2107.5000000000005 3953.5000000000005 1263.5000000000002 778.50000000000011 3266.5000000000005 4976.5000000000009 2427.5000000000005 1430.5000000000002 1844.5000000000002 681.50000000000011 1119.5000000000002 875.50000000000011 3026.5000000000005 3592.5000000000005 5516.5000000000009 1968.5000000000002 2246.5000000000005 4424.5000000000009 1533.5000000000002 628.50000000000011 8562.5000000000018 7243.5000000000009 932.50000000000011 729.50000000000011 2594.5000000000005 1054.5000000000002 1337.5000000000002
decision_type=2 2 2 2 2 2 2 2 2 2 2 2 2 2 2 2 2 2 2 2 2 2 2 2 2 2 2 2 2 2
left_child=1 6 3 11 7 13 12 15 20 19 24 23 22 28 -8 -4 -9 -10 -13 -5 -6 -12 -1 -2 -7 -16 -14 -11 -3 -26
right_child=2 5 4 9 8 10 14 16 17 27 21 18 26 -15 25 -17 -18 -19 -20 -21 -22 -23 -24 -25 29 -27 -28 -29 -30 -31
leaf_value=-0.046611377999872215 0.0094914795284048534 -0.020618036340151424 0.031737879245729739 0.017028043602029194 0.050235947537741313 -0.004202346351516899 -0.031218443548133697 0.040449967180714995 0.061335375796728764 0.024390087006057486 -0.0023302667792359831 0.010174353613150373 -0.039133875728737423 -0.013082986189395702 -0.026883693618465414 0.036047868662807472 0.045155202892295049 0.069611066302939811 0.013723123460328088 0.020592225666991572 0.055797617424410827 0.0010495338882843142 -0.042667143802803842 0.0049617645012405764 -0.0098848390093972185 -0.023551240525039749 -0.035767799740348154 0.02771099648338881 -0.017437341750490439 -0.0064120112056295009
leaf_weight=936422.33437728882 548230.7512550354 1555482.7667007446 1641744.5554618835 1624444.3898963928 872208.28683853149 814795.75204849243 2763590.5597076416 1300043.3293762207 316920.65309906006 1511641.2615127563 1935879.9227619171 1752510.9185256958 1498967.0517807007 3257406.1938438416 1537052.3431053162 1245950.3115577698 1025076.3154258728 379537.62860870361 1799387.0966186523 1884109.557888031 586647.54258346558 1813609.7598648071 1709258.148021698 2701748.6565628052 1144313.8470821381 1557989.2711524963 1477014.4011459351 1392989.9351158142 1564741.3780460358 1466182.5368747711
leaf_count=35079 12253 46407 28206 32974 11970 20915 90947 20150 3774 28265 48173 38270 52912 90361 48561 20357 14994 4019 37859 36738 7521 43638 62386 62250 30608 47774 50669 25060 45319 37973
internal_value=0 -0.0208157 0.0253296 0.015366 0.0431998 -0.0094977 -0.0341765 0.0375792 0.0567937 0.0221309 -0.00372754 0.00898764 -0.0405693 -0.0159891 -0.0280422 0.0335975 0.0425244 0.0658452 0.0119722 0.018942 0.0524725 -0.000695474 -0.0440632 0.00572587 -0.00704658 -0.0252062 -0.0374633 0.0259827 -0.019023 -0.00793433
internal_weight=0 2.50327e+07 2.05832e+07 1.32151e+07 7.36813e+06 1.35524e+07 1.14803e+07 5.21281e+06 2.15531e+06 6.41319e+06 7.17478e+06 6.80188e+06 5.62166e+06 6.37763e+06 5.85863e+06 2.88769e+06 2.32512e+06 696458 3.5519e+06 3.50855e+06 1.45886e+06 3.74949e+06 2.64568e+06 3.24998e+06 3.42529e+06 3.09504e+06 2.97598e+06 2.90463e+06 3.12022e+06 2.6105e+06
internal_count=1136382 751722 384660 273669 110991 363394 388328 83707 27284 123037 181307 150632 201046 182087 187282 48563 35144 7793 76129 69712 19491 91811 97465 74503 89496 96335 103581 53325 91726 68581
is_linear=0
shrinkage=0.08


Tree=7
num_leaves=31
num_cat=0
split_feature=6 6 6 6 6 6 6 6 6 6 6 6 6 6 6 6 6 5 6 6 6 0 5 5 6 6 6 6 5 6
split_gain=3.18994e+06 514263 483219 76890.5 73187.7 72308 58475.3 12421.3 11778.7 9894.39 9771.59 9298.87 8880.84 8879.79 6206.74 1845.57 1674.28 1623.39 1528.09 1513.59 1499.74 1424.78 1343.43 1334.99 1244.74 1230.09 1222.91 1202.8 1116.97 1102.41
threshold=1648.5000000000002 986.50000000000011 2803.5000000000005 2140.5000000000005 3953.5000000000005 1279.5000000000002 758.50000000000011 3322.5000000000005 4976.5000000000009 2449.5000000000005 1898.5000000000002 1119.5000000000002 1466.5000000000002 864.50000000000011 660.50000000000011 3068.5000000000005 5516.5000000000009 397634.00000000006 1370.5000000000002 1182.5000000000002 4424.5000000000009 10595.500000000002 404175.50000000006 400474.50000000006 3592.5000000000005 813.50000000000011 932.50000000000011 1048.5000000000002 404175.50000000006 712.50000000000011
decision_type=2 2 2 2 2 2 2 2 2 2 2 2 2 2 2 2 2 2 2 2 2 2 2 2 2 2 2 2 2 2
left_child=1 6 3 10 7 11 14 15 20 22 17 27 18 25 -1 -4 -10 -2 -7 -13 -6 -12 -5 -14 -9 -8 -15 -3 -11 -16
right_child=2 5 4 9 8 12 13 24 16 28 21 19 23 26 29 -17 -18 -19 -20 -21 -22 -23 -24 -25 -26 -27 -28 -29 -30 -31
leaf_value=-0.041681532258043989 0.0042739018568161971 -0.019248538289394358 0.029937486946735765 0.01623668362805096 0.046585229556480388 -0.0072625468898685598 -0.031202483305072529 0.037881897240719546 0.057101173701460201 0.02258513247963485 0.015441554720125985 -0.013742381480340548 -0.0016695435151568838 -0.025021750878943542 -0.037319442983412686 0.034009690517631683 0.065028749582428672 0.0075758277515941188 -0.0040422932507023623 -0.010399832893234373 0.051839193718996576 0.011224970239358549 0.019472897835739415 0.0015819918512500922 0.041809760634722012 -0.027980025003967023 -0.021882508807012764 -0.016178877317546577 0.02575460529833563 -0.034261858768100444
leaf_weight=1963962.0100784302 1740613.3570251465 1565120.1910438538 1643906.5739707947 1492189.3659706116 865604.13210296631 1889467.1561698914 1610223.7316436768 1046990.334690094 313343.28749465942 1237678.928730011 643671.33240509033 1457503.2996520996 1525201.6005096436 1838615.1026630402 1637868.1599273682 1256866.9906425476 374019.11416244507 2105840.5152626038 1882861.5476894379 2140144.4410209656 581167.45729064941 2523817.2826194763 1825022.9265136719 1718877.3631305695 1018805.4037895203 1432649.4676895142 1398105.176361084 1708984.4122047424 1674240.0918235779 1399577.0095710754
leaf_count=73273 40016 46882 28108 29850 11970 49734 54383 16226 3774 22953 13334 41121 37467 58366 58813 20425 4019 47357 47915 58427 7521 53768 35679 41348 14994 46954 43004 49614 30322 48765
internal_value=0 -0.0190347 0.0235642 0.014536 0.0404022 -0.00872851 -0.0317228 0.0350782 0.0527923 0.0210044 0.00879131 -0.0145614 -0.00301587 -0.0265826 -0.0381767 0.0317019 0.0614149 0.00608163 -0.00565524 -0.011754 0.0486957 0.0120818 0.0180171 5.32846e-05 0.039819 -0.0296853 -0.0236658 -0.0176463 0.0244075 -0.0359106
internal_weight=0 2.51692e+07 2.03438e+07 1.32431e+07 7.1007e+06 1.38882e+07 1.1281e+07 4.96657e+06 2.13413e+06 6.22913e+06 7.01394e+06 6.87175e+06 7.01641e+06 6.27959e+06 5.00141e+06 2.90077e+06 687362 3.84645e+06 3.77233e+06 3.59765e+06 1.44677e+06 3.16749e+06 3.31721e+06 3.24408e+06 2.0658e+06 3.04287e+06 3.23672e+06 3.2741e+06 2.91192e+06 3.03745e+06
internal_count=1136382 756066 380316 273279 107037 372508 383558 79753 27284 118804 154475 196044 176464 202707 180851 48533 7793 87373 97649 99548 19491 67102 65529 78815 31220 101337 101370 96496 53275 107578
is_linear=0
shrinkage=0.08


Tree=8
num_leaves=31
num_cat=0
split_feature=6 6 6 6 6 6 6 6 6 6 6 6 6 6 6 6 6 6 0 5 0 7 5 5 0 0 7 5 6 7
split_gain=2.70782e+06 467185 382662 82202.1 63830.1 53870.4 42832.8 14260.8 12862.1 8469.05 8000.49 7085.9 6074.97 5615.75 5381.91 3051.1 1638.98 1546.03 1464.28 1419.18 1330.43 1304.18 1246.78 1201.52 1189.75 1049.19 966.172 962.844 845.694 804.363
threshold=1573.5000000000002 2649.5000000000005 962.50000000000011 3754.5000000000005 2028.5000000000002 1226.5000000000002 758.50000000000011 4658.5000000000009 3113.5000000000005 2323.5000000000005 1779.5000000000002 1387.5000000000002 1085.5000000000002 844.50000000000011 668.50000000000011 5516.5000000000009 3383.5000000000005 2837.5000000000005 10212.500000000002 404175.50000000006 9634.5000000000018 1042.5000000000002 418326.50000000006 400474.50000000006 6960.5000000000009 5952.5000000000009 1042.5000000000002 404175.50000000006 624.50000000000011 1042.5000000000002
decision_type=2 2 2 2 2 2 2 2 2 2 2 2 2 2 2 2 2 2 2 2 2 2 2 2 2 2 2 2 2 2
left_child=2 4 6 8 10 12 14 21 17 19 20 24 -4 -8 28 26 -10 -3 -12 -6 -2 22 -5 -13 -7 -14 -9 -11 -1 -17
right_child=1 3 5 7 9 11 13 15 16 27 18 23 25 -15 -16 29 -18 -19 -20 -21 -22 -23 -24 -25 -26 -27 -28 -29 -30 -31
leaf_value=-0.040325605926308496 0.0057681141240891447 0.024585331436533915 -0.017360931691888438 0.040986579067959543 0.012552069276947145 -0.004483675327394957 -0.027955384574527599 0.053404671972284233 0.032207135799082645 0.018503827034947597 0.011717168950546517 -0.0036248614516269711 -0.0097165530843687075 -0.02287375375342671 -0.032935843885489084 0.063585223249681438 0.036258161178631287 0.028204201466649904 0.0077573512968774974 0.015806934640127609 0.0021950611729076174 0.038612880181797572 0.04605714117346664 -0.00065671642366865431 -0.0080272168935579188 -0.013170960519301072 0.046284341011680045 0.021391635297833968 -0.037060874415190861 0.055913171031502507
leaf_weight=790983.17685317993 915182.10260009766 1400245.9635543823 3077100.3715438843 534904.66108703613 1582366.0264663696 791497.08634376526 2483618.292263031 431056.45746231079 1276072.5922889709 1315853.6884231567 762749.94376373291 1660825.0909938812 723636.1880645752 3166084.1183013916 2769982.8971672058 226993.38139724731 1280659.1423797607 1640931.3185348511 2761300.3662643433 1871119.0135917664 2458937.0549583435 384543.01028823853 739299.6731338501 1839720.410282135 2593103.140296936 2530369.0939750671 170090.85166549683 1685322.4052467346 1418431.2676849365 142279.99212265015
leaf_count=30026 21017 24988 92008 7616 32644 20638 83391 5280 20593 25183 16342 41835 20092 100475 98221 2397 19585 27929 60763 37673 57905 5572 10066 45429 69141 71587 2221 31539 52604 1622
internal_value=0 0.0205384 -0.0185747 0.0355343 0.0112989 -0.00948625 -0.0298753 0.0472028 0.030054 0.017017 0.00594854 -0.00458852 -0.0148126 -0.0251076 -0.0352848 0.0549058 0.0342363 0.026538 0.00861442 0.0143156 0.0031642 0.0426962 0.0439285 -0.00206495 -0.00719855 -0.0124028 0.05139 0.0201255 -0.0382297 0.0606292
internal_weight=0 2.15799e+07 2.38454e+07 8.22708e+06 1.33528e+07 1.32163e+07 1.06291e+07 2.62917e+06 5.59791e+06 6.45466e+06 6.89817e+06 6.88515e+06 6.33111e+06 5.6497e+06 4.9794e+06 970421 2.55673e+06 3.04118e+06 3.52405e+06 3.45349e+06 3.37412e+06 1.65875e+06 1.2742e+06 3.50055e+06 3.3846e+06 3.25401e+06 601147 3.00118e+06 2.20941e+06 369273
internal_count=1136382 410935 725447 127869 283066 360730 364717 34774 93095 127039 156027 177043 183687 183866 180851 11520 40178 52917 77105 70317 78922 23254 17682 87264 89779 91679 7501 56722 82630 4019
is_linear=0
shrinkage=0.08


Tree=9
num_leaves=31
num_cat=0
split_feature=6 6 6 6 6 6 6 6 6 6 6 6 6 6 6 5 6 6 6 7 0 0 0 5 7 6 5 0 6 5
split_gain=2.2974e+06 381223 346941 55998.9 53444.4 50199.3 47218.3 9237.64 9145.13 7643.95 7076.04 6889.23 6596.71 5235.64 5057.16 1469.57 1292.1 1269.53 1253.31 1195.11 1178.98 1135.3 1134.56 1111.48 1496.4 1091.06 1090.07 1082.87 1010.89 1001.51
threshold=1660.5000000000002 1010.5000000000001 2803.5000000000005 3953.5000000000005 2157.5000000000005 793.50000000000011 1311.5000000000002 4976.5000000000009 3266.5000000000005 689.50000000000011 1939.5000000000002 1154.5000000000002 2472.5000000000005 897.50000000000011 1476.5000000000002 362969.00000000006 5516.5000000000009 636.50000000000011 3521.5000000000005 1051.5000000000002 8259.5000000000018 8689.5000000000018 12389.500000000002 404175.50000000006 1042.5000000000002 4424.5000000000009 400474.50000000006 7302.5000000000009 738.50000000000011 448504.50000000006
decision_type=2 2 2 2 2 2 2 2 2 2 2 2 2 2 2 2 2 2 2 2 2 2 2 2 2 2 2 2 2 2
left_child=1 5 4 8 10 9 11 19 23 17 15 -3 22 -7 27 -2 -9 -1 -10 25 -16 -17 -6 -4 -25 -5 -12 -8 -11 -13
right_child=2 6 3 7 12 13 14 16 18 28 26 29 -14 -15 20 21 -18 -19 -20 -21 -22 -23 -24 24 -26 -27 -28 -29 -30 -31
leaf_value=-0.036653813131136949 0.0032786823008295152 -0.013950528174849153 0.024621308385682866 0.040977831507921378 0.018421652295092846 -0.023634397038130521 -0.0014120388486594611 0.049394216215690359 0.031524858269961799 -0.030415060608756345 0.0091419643196775334 -0.0099554174137157173 0.020982153128854004 -0.018844464443200083 0.0032264361071588279 0.0097600529493309038 0.056431054315120958 -0.033229555414577214 0.035283369130314469 0.037003709936639907 -0.00050179425423686167 0.0058549497484260415 0.014860252886065146 0.029490867303967393 0.024034773247168489 0.045996949226966025 0.012314177811704401 -0.0049295932637041864 -0.02753674509080695 -0.0071442568475081
leaf_weight=1179753.1824569702 1171716.6350326538 3460481.7709579468 1027381.27866745 705292.65454101562 735558.58720779419 2908013.4463214874 716316.83246994019 307729.14865112305 1036090.6328201294 1503322.6122169495 1268835.6622695923 2168077.4226818085 2687473.5063591003 2933963.314365387 688311.99260139465 591082.2200088501 365185.04272842407 1679222.0193271637 1256326.8053817749 265760.1078338623 2568718.926568985 2456984.7179641724 2582350.8504943848 1168148.797668457 443981.66563796997 456662.13651657104 1528365.1409797668 2568530.9696922302 1625095.8347434998 1295867.8336639404
leaf_count=44815 26878 100798 17638 9785 14215 95417 18033 3774 16353 53417 27042 59615 49201 90827 16314 12944 4019 61797 18791 3781 62538 55350 51123 19323 7648 5925 31788 66331 55878 35024
internal_value=0 -0.0160262 0.0202287 0.0345471 0.0124962 -0.0265047 -0.00682141 0.0454856 0.0298882 -0.0316525 0.00775496 -0.0114259 0.0180361 -0.0212288 -0.00194768 0.0056866 0.0532131 -0.0346426 0.0335847 0.0418435 0.000286097 0.00661223 0.0156498 0.0266777 0.0279883 0.0429504 0.0108752 -0.00416253 -0.0289199 -0.00890376
internal_weight=0 2.52957e+07 2.00549e+07 7.03256e+06 1.30224e+07 1.18294e+07 1.34663e+07 2.10063e+06 4.93193e+06 5.98739e+06 7.01698e+06 6.92443e+06 6.00538e+06 5.84198e+06 6.54188e+06 4.21978e+06 672914 2.85898e+06 2.29242e+06 1.42771e+06 3.25703e+06 3.04807e+06 3.31791e+06 2.63951e+06 1.61213e+06 1.16195e+06 2.7972e+06 3.28485e+06 3.12842e+06 3.46395e+06
internal_count=1136382 760804 375578 107037 268541 402151 358653 27284 79753 215907 154002 195437 114539 186244 163216 95172 7793 106612 35144 19491 78852 68294 65338 44609 26971 15710 58830 84364 109295 94639
is_linear=0
shrinkage=0.08


Tree=10
num_leaves=31
num_cat=0
split_feature=6 6 6 6 6 6 6 6 6 6 6 6 6 6 6 6 6 6 5 6 6 0 5 5 5 5 7 0 6 7
split_gain=1.94852e+06 347068 271806 58704.4 50597.3 37117.5 31477.3 10122.7 9689.61 7718.3 5836.06 4952.32 4555.97 4116.43 3777.21 1658.98 1245.05 1229.73 1213.69 1198.47 1143.26 1103.44 1050.32 1036.35 961.104 939.424 847.703 773.122 748.665 741.429
threshold=1562.5000000000002 2679.5000000000005 962.50000000000011 3842.5000000000005 2012.5000000000002 1218.5000000000002 753.50000000000011 3163.5000000000005 4976.5000000000009 2285.5000000000005 1754.5000000000002 1370.5000000000002 834.50000000000011 1066.5000000000002 660.50000000000011 4231.0000000000009 3450.5000000000005 2912.5000000000005 397634.00000000006 2520.5000000000005 5516.5000000000009 10832.500000000002 475850.50000000006 362969.00000000006 400474.50000000006 404175.50000000006 1042.5000000000002 8689.5000000000018 892.50000000000011 1042.5000000000002
decision_type=2 2 2 2 2 2 2 2 2 2 2 2 2 2 2 2 2 2 2 2 2 2 2 2 2 2 2 2 2 2
left_child=2 4 6 7 10 13 14 17 15 21 23 24 -8 -4 -1 -5 -9 -3 -12 -11 -10 -6 -13 -2 -7 -15 -17 -20 -14 -22
right_child=1 3 5 8 9 11 12 16 20 19 18 22 28 25 -16 26 -18 -19 27 -21 29 -23 -24 -25 -26 -27 -28 -29 -30 -31
leaf_value=-0.032957333824110487 -3.663780965747985e-05 0.021576664696552429 -0.015092701933142931 0.035443768572329899 0.014797613053531873 -0.0078642102658905422 -0.024180168190422915 0.028158386023319052 0.045792549100620458 0.015905345676176318 0.0053389891347818616 -0.0030371576551353201 -0.020875837797371233 -0.012228681869400513 -0.028380791216280628 0.041949527925860625 0.031711667449732417 0.024803053740269473 0.011436195754704656 0.018918743382636525 0.055312933961910504 0.010954379908126097 -0.00012416143273389331 0.0031738040688551595 -0.0050960739067026405 -0.0096192396235496823 0.036239867167038572 0.0074900577282888837 -0.018507855856680962 0.0478738384630506
leaf_weight=1937674.9436416626 894615.24370956421 1642784.2400932312 2612761.4188518524 825242.7926940918 582518.17836380005 1532420.0260543823 2346957.5500774384 1277884.7975082397 305476.5327911377 2313934.2964859009 1659325.9201774597 2486007.2419986725 1595088.0884952545 1740020.8134326935 2854464.5824050903 638061.99351501465 1246947.1688575745 1400718.5255393982 394045.46634292603 1330301.8342971802 221985.68521881104 2667690.7942504883 1162668.0464057922 2292683.2390823364 1685859.5956821442 1792645.6597175598 225139.88172912598 1641047.8708686829 1840419.5491294861 139710.12913131714
leaf_count=73273 21393 29104 78608 11848 11687 41242 79498 20532 3774 44619 36994 62689 51845 49755 102287 8430 18979 23668 8386 24531 2397 55019 28715 53562 44561 50453 3135 35962 57814 1622
internal_value=0 0.0173068 -0.0159103 0.0306469 0.00963368 -0.0081686 -0.0254367 0.0261683 0.0412337 0.0144775 0.0047809 -0.00412662 -0.0214633 -0.0126852 -0.0302313 0.0380084 0.0299133 0.0230616 0.00694481 0.0170054 0.0493961 0.0116432 -0.00210892 0.00227269 -0.00641415 -0.0109045 0.0404603 0.00825413 -0.0196073 0.0524395
internal_weight=0 2.17001e+07 2.3587e+07 7.92395e+06 1.37762e+07 1.30124e+07 1.05746e+07 5.56833e+06 2.35562e+06 6.89445e+06 6.88172e+06 6.86695e+06 5.78247e+06 6.14543e+06 4.79214e+06 1.68844e+06 2.52483e+06 3.0435e+06 3.69442e+06 3.64424e+06 667172 3.25021e+06 3.64868e+06 3.1873e+06 3.21828e+06 3.53267e+06 863202 2.03509e+06 3.43551e+06 361696
internal_count=1136382 415642 720740 123489 292153 356023 364717 92283 31206 135856 156297 177207 189157 178816 175560 23413 39511 52772 81342 69150 7793 66706 91404 74955 85803 100208 11565 44348 109659 4019
is_linear=0
shrinkage=0.08


Tree=11
num_leaves=31
num_cat=0
split_feature=6 6 6 6 6 6 6 6 6 6 6 6 6 6 6 6 7 5 0 5 6 5 7 0 0 0 0 0 7 7
split_gain=1.65233e+06 281163 248635 40759.7 39910.9 39634.4 31479.6 7270.35 6150.02 5627.43 5590.09 4442.61 4432.89 4236.9 3652.97 1199.25 1166.33 1894.31 1049.7 1006.82 1006.06 992.015 1380.9 982.346 951.025 907.636 896.649 890.161 884.512 866.764
threshold=1671.5000000000002 1028.5000000000002 2837.5000000000005 798.50000000000011 4073.5000000000005 2191.5000000000005 1320.5000000000002 3322.5000000000005 699.50000000000011 1939.5000000000002 4976.5000000000009 2520.5000000000005 1175.5000000000002 920.50000000000011 1503.5000000000002 632.50000000000011 1045.5000000000002 404175.50000000006 9634.5000000000018 458260.50000000006 5516.5000000000009 404175.50000000006 1039.5000000000002 7243.5000000000009 7958.5000000000009 12389.500000000002 5003.5000000000009 6260.5000000000009 1042.5000000000002 958.50000000000011
decision_type=2 2 2 2 2 2 2 2 2 2 2 2 2 2 2 2 2 2 2 2 2 2 2 2 2 2 2 2 2 2
left_child=1 3 5 8 7 9 12 21 15 18 28 25 26 -5 23 -1 17 -9 -2 -11 -12 -4 -23 -8 -16 -7 -3 -14 -6 -21
right_child=2 6 4 13 10 11 14 16 -10 19 20 -13 27 -15 24 -17 -18 -19 -20 29 -22 22 -24 -25 -26 -27 -28 -29 -30 -31
leaf_value=-0.031537620891440465 0.0073957646815571796 -0.0082096652442398936 0.021237983764763897 -0.019530456364693562 0.037870754233176256 0.016444608679491775 -0.00054861274862868159 0.027076426998491426 -0.024233633982957851 0.0083585536056994154 0.042407633540707285 0.018359364060989002 -0.0043974910639284041 -0.015306771991555855 0.0036993441685275854 -0.028219721844025891 0.025495917420700037 0.03225953343710139 0.0042667205180055767 0.022066136305695903 0.048665553684643571 0.025947404205073705 0.020842413591121118 -0.0038171089427914548 -2.6652308569593632e-05 0.013212933430825502 -0.011772042911662714 -0.0077605984450775161 0.032786242561443253 0.010865338458908844
leaf_weight=1042162.7829437256 876247.38334274292 533837.5684967041 1015457.1296615601 3368101.106672287 858846.51015472412 704413.36243438721 740385.86152267456 749118.4249382019 2948521.6405067444 2024748.3874168396 303554.64713668823 2481647.9695930481 628739.06080245972 2770166.0004291534 537010.25074577332 2106387.0627040863 411137.34667205811 1135081.1929626465 3162904.1617012024 46025.239318847656 358697.3395652771 1138417.2676010132 482995.94417953491 2868774.0323371887 2387922.9118785858 2643607.0905952454 2956629.4090042114 2532638.3253479004 293903.31886672974 1125031.8614311218
leaf_count=39937 19352 15173 17359 109990 11575 13510 18517 11633 103005 42809 3774 45139 16779 85026 12610 77827 6449 16901 71610 882 4019 18746 8272 73598 57753 51891 85707 69092 4153 23294
internal_value=0 -0.0134921 0.017326 -0.0222262 0.0297968 0.0108854 -0.00538767 0.0260644 -0.0268592 0.00693013 0.0399396 0.0157942 -0.00926177 -0.0176243 -0.00144376 -0.0293179 0.0293565 0.0301988 0.00494553 0.00943844 0.0457971 0.0231987 0.0244267 -0.00314661 0.000657431 0.0138929 -0.0112272 -0.00709174 0.0365744 0.0113056
internal_weight=0 2.54213e+07 1.98118e+07 1.22353e+07 6.74721e+06 1.30646e+07 1.31859e+07 4.93221e+06 6.09707e+06 7.23496e+06 1.815e+06 5.82967e+06 6.65184e+06 6.13827e+06 6.53409e+06 3.14855e+06 2.29534e+06 1.8842e+06 4.03915e+06 3.19581e+06 662252 2.63687e+06 1.62141e+06 3.60916e+06 2.92493e+06 3.34802e+06 3.49047e+06 3.16138e+06 1.15275e+06 1.17106e+06
internal_count=1136382 765014 371368 415785 102881 268487 349229 79360 220769 157947 23521 110540 186751 195016 162478 117764 34983 28534 90962 66985 7793 44377 27018 92115 70363 65401 100880 85871 15728 24176
is_linear=0
shrinkage=0.08


Tree=12
num_leaves=31
num_cat=0
split_feature=6 6 6 6 6 6 6 6 6 6 6 6 6 6 6 6 0 5 7 5 5 7 5 5 0 5 5 7 5 7
split_gain=1.4006e+06 231977 217186 41835 32406.7 30545.2 25111.1 8461.12 5676.85 4547.2 4274.63 4186.69 3565.22 3342.03 3267.53 1720.03 1000.83 992.25 1872.92 978.198 913.171 898.589 884.961 860.298 855.949 817.018 801.742 759.756 739.595 919.018
threshold=1615.5000000000002 2709.5000000000005 974.50000000000011 3754.5000000000005 2074.5000000000005 1248.5000000000002 763.50000000000011 4658.5000000000009 3113.5000000000005 2364.5000000000005 1817.5000000000002 1421.5000000000002 1112.5000000000002 849.50000000000011 668.50000000000011 5516.5000000000009 10673.500000000002 404175.50000000006 1039.5000000000002 397634.00000000006 458260.50000000006 1051.5000000000002 362969.00000000006 418326.50000000006 6572.5000000000009 404175.50000000006 453759.00000000006 1045.5000000000002 404175.50000000006 1042.5000000000002
decision_type=2 2 2 2 2 2 2 2 2 2 2 2 2 2 2 2 2 2 2 2 2 2 2 2 2 2 2 2 2 2
left_child=2 4 6 8 10 12 14 21 28 19 22 24 26 -8 -1 27 -12 -10 -19 -6 -13 23 -2 -5 -7 -11 -4 -9 -3 -30
right_child=1 3 5 7 9 11 13 15 17 25 16 20 -14 -15 -16 -17 -18 18 -20 -21 -22 -23 -24 -25 -26 -27 -28 -29 29 -31
leaf_value=-0.027855396329978035 0.00074307034762325448 0.017830183116109146 -0.012887701196655893 0.029542768957437071 0.0092882668723748459 -0.0019566588900417721 -0.02003759544539965 0.039759817127803 0.022690309806553302 0.013678695485894435 0.0093484391896086084 -0.0016128762196563817 -0.0082311432973156927 -0.016145332449283078 -0.023752112584446424 0.045106849732419477 0.006162151083247568 0.027800476634902295 0.021930458621488281 0.012080166057567968 0.0010749590604718377 0.027131172008675614 0.0036992044555679525 0.033690643922884067 -0.0051406261832492948 0.016321156222963051 -0.010316152901616032 0.033183488603799501 0.021800342570935927 0.017369556011115232
leaf_weight=2178635.0180072784 898485.29632949829 1020551.6032180786 2211184.2984352112 526058.51837539673 1407672.4087257385 663699.19367408752 2456250.9342956543 434354.92190551758 885601.54155731201 1323585.8231201172 822693.52905273438 2306817.5336437225 3085192.3002510071 3320378.6416320801 2889150.151763916 356148.53509521484 2706482.8785667419 1142122.727935791 500237.27669143677 1870296.4634590149 1245860.6972846985 286524.25794219971 2325915.4834251404 817079.68989562988 2908002.6525478363 1724559.9910507202 1195427.0579338074 151697.79529953003 1117132.0637550354 409394.98051071167
leaf_count=82630 21122 18000 66037 7616 28804 17077 82841 5472 14333 25147 17464 57201 86169 105415 103341 4019 58931 17715 8130 37372 30246 4237 53379 11401 76723 32062 35155 2029 19076 7238
internal_value=0 0.0153064 -0.0129592 0.0263753 0.0088351 -0.00623177 -0.0214061 0.0346874 0.022163 0.0129495 0.00498111 -0.00261482 -0.0102012 -0.0178003 -0.0255161 0.0407222 0.00690491 0.0248487 0.0260126 0.0108812 -0.0006703 0.0311984 0.00287547 0.0320661 -0.00454898 0.0151737 -0.0119853 0.0380576 0.0194974 0.0206121
internal_weight=0 2.07266e+07 2.44606e+07 7.6469e+06 1.30797e+07 1.36162e+07 1.08444e+07 2.57186e+06 5.07504e+06 6.32611e+06 6.75358e+06 7.12438e+06 6.4918e+06 5.77663e+06 5.06779e+06 942201 3.52918e+06 2.52796e+06 1.64236e+06 3.27797e+06 3.55268e+06 1.62966e+06 3.2244e+06 1.34314e+06 3.5717e+06 3.04815e+06 3.40661e+06 586053 2.54708e+06 1.52653e+06
internal_count=1136382 393547 742835 119266 274281 368608 374227 34774 84492 123385 150896 181247 187361 188256 185971 11520 76395 40178 25845 66176 87447 23254 74501 19017 93800 57209 101192 7501 44314 26314
is_linear=0
shrinkage=0.08


Tree=13
num_leaves=31
num_cat=0
split_feature=6 6 6 6 6 6 6 6 6 6 6 6 6 6 6 6 6 0 3 0 0 0 0 5 0 7 5 4 7 7
split_gain=1.18732e+06 214692 167070 39544.7 29062.2 22572.2 19927.4 8351.33 4962.6 4947.63 3568.72 3563.13 3044.68 2210.68 1883.47 1495.42 982.169 955.361 951.675 882.622 882.37 843.612 800.418 772.757 743.53 706.801 1189.69 698.961 680.943 659.285
threshold=1562.5000000000002 2649.5000000000005 962.50000000000011 3668.5000000000005 1982.5000000000002 1203.5000000000002 738.50000000000011 4658.5000000000009 3026.5000000000005 2285.5000000000005 828.50000000000011 1353.5000000000002 1742.5000000000002 1060.5000000000002 656.50000000000011 5516.5000000000009 4073.5000000000005 12389.500000000002 5705481.5000000009 8562.5000000000018 13258.500000000002 9561.5000000000018 5543.5000000000009 474633.00000000006 6260.5000000000009 1054.5000000000002 418326.50000000006 4251275.5000000009 1042.5000000000002 1048.5000000000002
decision_type=2 2 2 2 2 2 2 2 2 2 2 2 2 2 2 2 2 2 2 2 2 2 2 2 2 2 2 2 2 2
left_child=2 4 6 8 12 13 14 16 27 17 -8 24 23 -4 -1 29 -5 -6 -10 -13 -11 -14 -15 -2 -7 26 -20 -3 -17 -9
right_child=1 3 5 7 9 11 10 15 18 20 -12 19 21 22 -16 28 -18 -19 25 -21 -22 -23 -24 -25 -26 -27 -28 -29 -30 -31
leaf_value=-0.026084892075961347 0.00073365905612704442 0.013872191818574778 -0.011898212981734515 0.026729106644766475 0.010965307149583993 -0.0027856795505403855 -0.019275330695956688 0.036667784931761739 0.019345172562079422 0.015505324988841931 -0.015388841056234278 6.6365041464203997e-05 0.007674632224621134 -0.0062190882778194378 -0.022693997314961526 0.044554180795365335 0.030402271015157835 0.0080737061919484536 0.021210442289279069 -0.0025466611530310344 0.012424587616310774 0.0045066983653692591 -0.0093471517461713102 0.0034621218364436343 -0.0059435383275297437 0.019034462241815941 0.025280034394141317 0.01774381166999292 0.037351240241040314 0.030334197322362751
leaf_weight=1793883.8225059509 2010474.6581954956 345078.45108413696 2461895.4477214813 1014841.2615127563 1012924.9773178101 583933.55396652222 2611195.0658874512 445827.20899581909 612141.09046554565 769300.77975082397 3592344.6769294739 1168953.3559322357 665017.73679351807 649605.06483459473 2522549.0587921143 216876.88094329834 861294.79447937012 2629739.9979515076 827060.03940582275 2830663.0570240021 2626229.976852417 2816371.8906936646 2697627.1220321655 992190.05344390869 2610497.0812950134 261959.22785949707 1035148.0035247803 2207792.51197052 137097.57690429688 137664.28170013428
leaf_count=68510 47711 6238 74296 15060 20558 15364 89482 5649 10074 14427 115206 28954 14404 18237 91519 2397 12001 54576 13498 71560 50343 62725 77235 23029 70377 4340 16292 38846 1622 1852
internal_value=0 0.0135363 -0.0124335 0.0238336 0.00736588 -0.00636926 -0.0199291 0.0314963 0.0197575 0.0109257 -0.0170247 -0.0033741 0.00350188 -0.0100785 -0.0241032 0.0376621 0.0284154 0.00887778 0.0221244 -0.00178296 0.0131226 0.00511184 -0.00874008 0.00163524 -0.00536629 0.0229253 0.0234726 0.0172205 0.0417644 0.0351735
internal_weight=0 2.1625e+07 2.35231e+07 8.10278e+06 1.35223e+07 1.30032e+07 1.052e+07 2.8136e+06 5.28918e+06 7.0382e+06 6.20354e+06 7.19405e+06 6.48405e+06 5.80913e+06 4.31643e+06 937466 1.87614e+06 3.64266e+06 2.73631e+06 3.99962e+06 3.39553e+06 3.48139e+06 3.34723e+06 3.00266e+06 3.19443e+06 2.12417e+06 1.86221e+06 2.55287e+06 353974 583491
internal_count=1136382 415642 720740 127869 287773 356023 364717 38581 89288 139904 204688 186255 147869 169768 160029 11520 27061 75134 44204 100514 64770 77129 95472 70740 85741 34130 29790 45084 4019 7501
is_linear=0
shrinkage=0.08


Tree=14
num_leaves=31
num_cat=0
split_feature=6 6 6 6 6 6 6 6 6 6 6 6 6 6 6 6 5 7 7 7 5 3 5 0 5 5 7 5 5 7
split_gain=1.00638e+06 175759 151261 25399.5 24961.6 24070.3 20002.7 4238.31 4170.61 3709.71 3679.73 3089.55 2576.19 2484.74 2105.72 983.96 922.068 1093.04 896.647 823.203 1178.79 801.053 790.736 790.09 737.568 720.687 1025.16 718.544 688.451 706.624
threshold=1683.5000000000002 1028.5000000000002 2874.5000000000005 803.50000000000011 2228.5000000000005 4073.5000000000005 1337.5000000000002 708.50000000000011 3383.5000000000005 1911.5000000000002 4976.5000000000009 1182.5000000000002 2545.5000000000005 902.50000000000011 1513.5000000000002 628.50000000000011 475850.50000000006 1039.5000000000002 1045.5000000000002 1045.5000000000002 404175.50000000006 5705481.5000000009 458260.50000000006 9490.5000000000018 400474.50000000006 474633.00000000006 973.50000000000011 400474.50000000006 404175.50000000006 1045.5000000000002
decision_type=2 2 2 2 2 2 2 2 2 2 2 2 2 2 2 2 2 2 2 2 2 2 2 2 2 2 2 2 2 2
left_child=1 3 4 7 9 8 11 15 21 25 -7 22 28 -5 24 -1 -11 -18 -12 20 -10 -4 -3 -16 -8 -2 -27 -13 -6 -30
right_child=2 6 5 13 12 10 14 -9 19 16 18 27 -14 -15 23 -17 17 -19 -20 -21 -22 -23 -24 -25 -26 26 -28 -29 29 -31
leaf_value=-0.025133054553434238 0.0029537936747410414 -0.009538072396132526 0.015787003371417429 -0.015446363915559787 0.0098904936825506256 0.028829808003023465 -0.003445075852762347 -0.018676941354483945 0.02150492637687311 0.006481292621024164 0.038402384442574343 -0.0065400779418538033 0.014657451352407778 -0.012172630382472776 0.0027266816388122239 -0.022056340737225451 0.010985259123798869 0.0063653484351495794 0.032040864330100186 0.019960363886871734 0.025873831265087924 0.019265733300782743 -0.0070644481561288998 -0.00015013922907030792 -0.0011012103964686722 0.014644491139499676 0.0047882000953683793 -0.0041923968752358935 0.013155686583467434 0.0093431199778843295
leaf_weight=907063.94419670105 2309005.0723800659 2381048.9019947052 530000.96566390991 2738112.5391139984 1394304.0074157715 1140825.2466468811 1639760.5507831573 2806648.995141983 651797.16527938843 2654152.5101852417 442927.7437210083 1595726.5681056976 2500035.4742774963 3239062.9066047668 866615.07742500305 2495375.4989681244 782984.83369445801 563731.22481155396 208575.46600341797 365692.46065139771 1004180.3130722046 2111087.5515022278 1267268.0703830719 2071312.6714439392 1805155.4318752289 72076.959300994873 1072404.3065795898 1748728.0544319153 1344591.1704597473 404787.68639755249
leaf_count=35079 52469 69184 9057 89981 27404 15728 42070 98038 10119 56099 5204 43554 45309 100086 20417 92601 15968 11848 2589 5738 14981 35198 36206 50005 45444 1509 23956 46897 25710 7934
internal_value=0 -0.010445 0.0136667 -0.0173948 0.0087271 0.0236897 -0.00411313 -0.0209782 0.0206609 0.00568831 0.0315691 -0.00706883 0.0127408 -0.0136723 -0.000874995 -0.0228766 0.0073464 0.00905138 0.0363658 0.0233956 0.0241542 0.0185676 -0.00867884 0.000698451 -0.00221688 0.00376742 0.00540893 -0.00531254 0.0112166 0.0122735
internal_weight=0 2.55619e+07 1.95532e+07 1.21863e+07 1.30981e+07 6.45509e+06 1.33756e+07 6.20909e+06 4.66276e+06 7.45435e+06 1.79233e+06 6.99277e+06 5.64372e+06 5.97718e+06 6.38284e+06 3.40244e+06 4.00087e+06 1.34672e+06 651503 2.02167e+06 1.65598e+06 2.64109e+06 3.64832e+06 2.93793e+06 3.44492e+06 3.45349e+06 1.14448e+06 3.34445e+06 3.14368e+06 1.74938e+06
internal_count=1136382 769562 366820 415785 268206 98614 353777 225718 75093 161849 23521 195841 106357 190067 157936 127680 83915 27816 7793 30838 25100 44255 105390 70422 87514 77934 25465 90451 61048 33644
is_linear=0
shrinkage=0.08


Tree=15
num_leaves=31
num_cat=0
split_feature=6 6 6 6 6 6 6 6 6 6 6 6 6 6 6 0 7 0 5 7 0 7 4 5 6 0 5 5 5 5
split_gain=852548 146166 131002 22045.1 20683 20303.8 17604.6 4534.88 2982.15 2780.17 2666.73 2644.47 2465.24 2431.29 2298.2 891.301 877.227 868.969 833.025 785.273 785.024 1114.22 780.537 708.721 683.585 679.687 666.104 635.839 623.828 603.373
threshold=1671.5000000000002 992.50000000000011 2874.5000000000005 2174.5000000000005 4231.0000000000009 1287.5000000000002 773.50000000000011 3450.5000000000005 2449.5000000000005 1884.5000000000002 1457.5000000000002 1132.5000000000002 681.50000000000011 5516.5000000000009 870.50000000000011 9779.5000000000018 1042.5000000000002 6627.5000000000009 397634.00000000006 1042.5000000000002 32903.500000000007 1042.5000000000002 4251020.5000000009 475850.50000000006 3113.5000000000005 6627.5000000000009 448504.50000000006 474037.00000000006 362969.00000000006 475850.50000000006
decision_type=2 2 2 2 2 2 2 2 2 2 2 2 2 2 2 2 2 2 2 2 2 2 2 2 2 2 2 2 2 2
left_child=1 6 3 9 7 11 12 22 -5 28 23 26 -1 16 -8 -11 -6 -12 -10 29 21 -9 -4 -7 -24 -13 -3 -16 -2 -20
right_child=2 5 4 8 13 10 14 20 18 15 17 25 -14 -15 27 -17 -18 -19 19 -21 -22 -23 24 -25 -26 -27 -28 -29 -30 -31
leaf_value=-0.021613400236612099 0.0013635677192764377 -0.0098333642139402707 0.013941754903537201 0.009506162327753833 0.029642838450552118 -0.003711733334845156 -0.015199419310350713 0.025274746949544392 0.011459425157083069 0.0092124788357842453 0.0036899357016101264 -0.0039246481101774524 -0.018171299359197753 0.035905776085906754 -0.012829081957211089 0.0058147640857321757 0.024663704567890854 -0.00026241946345731615 0.013366813227390889 0.011305910028564348 0.02056860685834308 0.019498560431741717 0.016438371930408532 -0.0012419483945036473 0.01907766610554484 -0.0064880112572020593 -0.0075212808954175257 -0.010429551153929304 0.0038362006826588887 0.016555764860114234
leaf_weight=2566718.5070705414 902392.06365585327 2129609.9791030884 382670.99933624268 2894792.6233291626 835150.10810089111 2338090.4010028839 2729349.1433506012 787529.41910171509 1338250.1958465576 585042.46639251709 397657.67769622803 892248.58576965332 2767468.3878707886 350620.95958328247 2149047.7954807281 3179339.272567749 310706.38653945923 3399986.2228813171 769062.96196365356 507230.09859466553 965803.9444770813 293342.55049133301 1200041.7719192505 1090373.5903892517 1317668.6538467407 2565601.5804901123 1274868.0517711639 1053101.1472549438 2363034.198387146 750077.0655708313
leaf_count=97465 20819 63153 6547 57207 11030 60945 91470 11598 24871 12097 9359 24291 98603 4019 67958 67656 4309 82721 14043 9398 14699 4530 20504 27859 21378 71168 37190 32832 53277 13386
internal_value=0 -0.00970008 0.0124745 0.00793568 0.0218356 -0.00426838 -0.0164928 0.0193427 0.0113887 0.00486106 -0.00130879 -0.00738485 -0.0198276 0.0300764 -0.0134938 0.00634282 0.0282927 0.000151438 0.0130084 0.0140314 0.0222261 0.0237071 0.017308 -0.00292625 0.0178197 -0.00582657 -0.00896756 -0.0120399 0.00315289 0.0149414
internal_weight=0 2.53541e+07 1.97328e+07 1.32892e+07 6.44353e+06 1.40884e+07 1.12657e+07 4.94706e+06 6.25941e+06 7.02981e+06 7.22611e+06 6.86233e+06 5.33419e+06 1.49648e+06 5.9315e+06 3.76438e+06 1.14586e+06 3.79764e+06 3.36462e+06 2.02637e+06 2.04668e+06 1.08087e+06 2.90038e+06 3.42846e+06 2.51771e+06 3.45785e+06 3.40448e+06 3.20215e+06 3.26543e+06 1.51914e+06
internal_count=1136382 765014 371368 272754 98614 376686 388328 79256 118905 153849 180884 195802 196068 19358 192260 79753 15339 92080 61698 36827 30827 16128 48429 88804 41882 95459 100343 100790 74096 27429
is_linear=0
shrinkage=0.08


Tree=16
num_leaves=31
num_cat=0
split_feature=6 6 6 6 6 6 6 6 6 6 6 6 6 6 6 6 5 7 0 5 7 0 5 7 3 0 0 5 0 0
split_gain=722662 134133 100621 25037.9 18530.9 14120.8 11465.8 5431.74 3029.6 2800.62 2127.14 1856.5 1829.76 1748.47 1268.21 989.486 788.418 779.972 822.427 732.228 953.565 724.384 715.29 714.569 666.069 665.095 655.512 655.047 649.128 638.91
threshold=1552.5000000000002 2649.5000000000005 950.50000000000011 3668.5000000000005 2043.5000000000002 1218.5000000000002 738.50000000000011 4658.5000000000009 3068.5000000000005 1792.5000000000002 2323.5000000000005 823.50000000000011 1066.5000000000002 1395.5000000000002 644.50000000000011 5516.5000000000009 458260.50000000006 1051.5000000000002 32903.500000000007 364949.50000000006 1042.5000000000002 12389.500000000002 397634.00000000006 958.50000000000011 5705851.5000000009 29523.500000000004 11932.500000000002 458260.50000000006 6313.5000000000009 5543.5000000000009
decision_type=2 2 2 2 2 2 2 2 2 2 2 2 2 2 2 2 2 2 2 2 2 2 2 2 2 2 2 2 2 2
left_child=2 4 6 8 9 12 14 17 24 16 21 -8 -4 27 -1 -9 -2 18 -5 -10 25 -6 -11 -18 -3 -21 -12 -7 -15 -14
right_child=1 3 5 7 10 13 11 15 19 22 26 -13 29 28 -16 -17 23 -19 -20 20 -22 -23 -24 -25 -26 -27 -28 -29 -30 -31
leaf_value=-0.020858844725814882 0.00067370991488172451 0.010983980670085096 -0.0093121453602685433 0.025201262852501429 0.0094855921128123195 -0.0045120209375095737 -0.015131678433468552 0.027773841195316777 0.014674839361627981 0.0033531081850075866 0.013201790463138944 -0.0122509240338406 -0.004364761608386291 0.0022098003667493332 -0.0179329176236343 0.033167233242419526 0.011881946896283975 0.018738308482571246 0.021465771827194509 0.020413664969339402 0.014878712683473252 0.0067641295297172508 0.0056480317044282826 0.002668054933429624 0.014196684452592716 0.017044257932345881 0.0099236605969332085 -0.0022833816436447665 -0.0015512492164351888 -0.007120994551518477
leaf_weight=1412150.5771751404 2538890.3347415924 504889.1044921875 2913725.3636169434 658647.13778686523 846365.27245330811 2424211.3981781006 2464422.9693393707 577952.72485733032 488600.0969619751 1573855.5800666809 461913.85597991943 3416711.0555000305 662797.54192733765 330480.72022819519 2884976.5676422119 349264.79779434204 56111.939239501953 322983.5881652832 882777.47128677368 934877.4303894043 448968.40295028687 2403657.4229621887 1941426.1013069153 1347550.0762863159 2269474.9468193054 625991.4235496521 2521564.7437591553 1294924.3810844421 2638309.8248462677 2864505.4300861359
leaf_count=54457 59962 9071 88188 9359 16959 64787 84825 7501 8084 34773 8597 110283 18528 8013 105572 4019 1222 4846 12856 14742 7414 49287 41938 31206 39869 10108 48125 33967 66144 81680
internal_value=0 0.0104905 -0.00978332 0.0186753 0.00566952 -0.00515512 -0.0157532 0.0248015 0.0154318 0.00297876 0.00888877 -0.0134581 -0.00782858 -0.00258036 -0.0188945 0.0298054 0.00151489 0.0223129 0.0230619 0.0174525 0.0181278 0.00747285 0.00462055 0.00303638 0.013612 0.0190624 0.0104312 -0.00373606 -0.00113258 -0.00660308
internal_weight=0 2.17558e+07 2.33072e+07 8.06443e+06 1.36913e+07 1.3129e+07 1.01783e+07 2.79163e+06 5.2728e+06 7.45783e+06 6.2335e+06 5.88113e+06 6.44103e+06 6.68793e+06 4.29713e+06 927218 3.94255e+06 1.86441e+06 1.54142e+06 2.49844e+06 2.00984e+06 3.25002e+06 3.51528e+06 1.40366e+06 2.77436e+06 1.56087e+06 2.98348e+06 3.71914e+06 2.96879e+06 3.5273e+06
internal_count=1136382 419938 716444 127869 292069 361307 355137 38581 89288 169101 122968 195108 188396 172911 160029 11520 92390 27061 22215 40348 32264 66246 76711 32428 48940 24850 56722 98754 74157 100208
is_linear=0
shrinkage=0.08


Tree=17
num_leaves=31
num_cat=0
split_feature=6 6 6 6 6 6 6 6 6 6 6 6 6 6 6 0 7 6 0 7 0 5 5 5 7 7 5 7 5 5
split_gain=612210 107364 92993.5 16257.3 16252.9 14519.2 11672.9 2942.55 2878.45 2323.1 1855.47 1742.86 1738.67 1571.96 1276.45 731.217 728.603 712.692 705.334 709.755 645.01 628.326 619.631 610.646 1222.46 725.159 596.2 575.162 572.062 567.4
threshold=1683.5000000000002 1035.5000000000002 2912.5000000000005 808.50000000000011 2228.5000000000005 4231.0000000000009 1337.5000000000002 3521.5000000000005 708.50000000000011 1968.5000000000002 2569.5000000000005 5516.5000000000009 1175.5000000000002 920.50000000000011 1513.5000000000002 8562.5000000000018 1045.5000000000002 620.50000000000011 31119.500000000004 1051.5000000000002 3858.5000000000005 397634.00000000006 397634.00000000006 475850.50000000006 973.50000000000011 1039.5000000000002 362969.00000000006 1039.5000000000002 364949.50000000006 362969.00000000006
decision_type=2 2 2 2 2 2 2 2 2 2 2 2 2 2 2 2 2 2 2 2 2 2 2 2 2 2 2 2 2 2
left_child=1 3 4 8 9 7 12 18 17 15 23 16 20 -5 29 -2 -7 -1 19 28 -3 -16 -12 -6 -25 -26 -11 -24 -4 -8
right_child=2 6 5 13 10 11 14 -9 -10 26 22 -13 -14 -15 21 -17 -18 -19 -20 -21 -22 -23 27 24 25 -27 -28 -29 -30 -31
leaf_value=-0.020332264196540377 0.0057618737301030508 -0.0020698725211678697 0.013302826163175742 -0.011801502128752465 0.008015269097613428 0.025316227364989233 -0.0033449071910042222 0.019159756455633583 -0.014514582082203414 0.0042534765833880921 0.010129287246866778 0.030619348387502639 -0.0041958807082130498 -0.0092112599372426041 -0.00072694635111394046 0.0027684250925882176 0.020640051640162409 -0.017373603014531808 0.013358803567709647 0.012388964542348011 -0.0070187094864023192 0.0016216288343807006 0.013644842434012167 0.020170479225694812 0.011478311199862508 0.0073993786407579778 0.0067114719212676048 0.01017677381934224 0.01733374796658281 -0.0010722246216405224
leaf_weight=643111.75388908386 610107.77910614014 178139.84684562683 272437.26150131226 3064356.9975242615 2152034.2303771973 856929.75539779663 984331.77011489868 1780709.6408119202 2941099.9815597534 863427.01533508301 988885.80397415161 348112.10203552246 3504910.7519569397 2936281.4080886841 1342760.1768932343 3626884.773223877 283899.33555603027 2745677.3844852448 1038114.9649391174 299625.53710174561 3132531.9110851288 1595103.9342441559 1118178.5156822205 74812.956401824951 608741.18898773193 514882.37225723267 2351714.4840660095 421387.95348739624 1303085.039150238 2460391.3038234711
leaf_count=25065 13339 4991 4610 100232 42034 11379 25352 26717 102847 18272 18089 4019 94961 90231 32571 81594 3960 102615 17403 5085 90684 37851 19849 1337 11546 10050 48644 7681 21212 62162
internal_value=0 -0.00815001 0.010672 -0.0135175 0.00691092 0.0187812 -0.00313538 0.0165978 -0.0163458 0.00442989 0.0100559 0.0256645 -0.00543772 -0.010534 -0.000676848 0.00319947 0.0241525 -0.0179351 0.0150318 0.015958 -0.00675242 0.000548205 0.0116919 0.00882123 0.0102685 0.00960921 0.00605138 0.0126956 0.0166367 -0.00172165
internal_weight=0 2.55287e+07 1.9514e+07 1.23305e+07 1.33311e+07 6.18291e+06 1.31982e+07 4.69397e+06 6.32989e+06 7.45213e+06 5.87892e+06 1.48894e+06 6.81558e+06 6.00064e+06 6.38259e+06 4.23699e+06 1.14083e+06 3.38879e+06 2.91326e+06 1.87515e+06 3.31067e+06 2.93786e+06 2.52845e+06 3.35047e+06 1.19844e+06 1.12362e+06 3.21514e+06 1.53957e+06 1.57552e+06 3.44472e+06
internal_count=1136382 769562 366820 420990 272435 94385 348572 75027 230527 161849 110586 19358 190636 190463 157936 94933 15339 127680 48310 30907 95675 70422 45619 64967 22933 21596 66916 27530 25822 87514
is_linear=0
shrinkage=0.08


Tree=18
num_leaves=31
num_cat=0
split_feature=6 6 6 6 6 6 6 6 6 6 6 6 6 6 6 7 0 4 0 7 0 0 5 4 5 0 0 7 5 5
split_gain=518656 92344 76846.3 16132.7 14475.9 11590 8350.91 2980.75 2570.94 2335.54 1660.54 1657.15 1516.62 1322.51 819.604 754.629 721.05 681.04 670.57 842.98 655.727 613.044 596.632 587.391 576.593 568.378 556.75 536.908 837.143 497.945
threshold=1583.5000000000002 2741.5000000000005 950.50000000000011 3953.5000000000005 2107.5000000000005 1241.5000000000002 729.50000000000011 3215.5000000000005 4976.5000000000009 1817.5000000000002 1091.5000000000002 2405.5000000000005 828.50000000000011 1404.5000000000002 640.50000000000011 1042.5000000000002 7596.5000000000009 4256454.5000000009 33912.500000000007 1039.5000000000002 10673.500000000002 12389.500000000002 448504.50000000006 4252407.5000000009 400474.50000000006 5151.5000000000009 6572.5000000000009 1039.5000000000002 453759.00000000006 397634.00000000006
decision_type=2 2 2 2 2 2 2 2 2 2 2 2 2 2 2 2 2 2 2 2 2 2 2 2 2 2 2 2 2 2
left_child=2 4 6 7 9 10 14 23 27 16 22 21 -8 25 -1 -10 -2 -13 19 -9 -11 -6 -4 -3 -12 -7 -15 28 -5 -14
right_child=1 3 5 8 11 13 12 18 15 20 24 17 29 26 -16 -17 -18 -19 -20 -21 -22 -23 -24 -25 -26 -27 -28 -29 -30 -31
leaf_value=-0.017864128850793505 0.0044724159617976177 0.0095249742745174681 -0.0084987856786678875 0.019363121024354529 0.0088966338822998939 0.00064999323048752866 -0.012847315504392815 0.018246414113628016 0.028605222607826129 0.0062262504938761475 -0.0062985490405804891 0.0073349696671497324 -0.011401176416566102 0.0020804497738314111 -0.0154131102131426 0.022849738130413765 0.0011199019419917083 0.010253832991075237 0.014434634893017646 0.01395368315069946 0.0037623942443927678 0.0063255847947440869 -0.0063475333602024822 0.012747532824996495 -0.0042216132394493405 -0.0032220714648023029 -0.0010655992428073783 0.017897159793973976 0.023979338391542159 -0.0094212810902071127
leaf_weight=1282734.3574676514 468862.90321350098 426786.26993560791 2192853.6926593781 557728.94945907593 778879.6448135376 263021.77934455872 2871740.6081314087 1112397.1092720032 420024.31446838379 894225.90697097778 1639634.3239212036 667183.7513961792 1500674.4062232971 410463.70409393311 2734566.6809005737 223313.0080947876 3303335.9723510742 2193751.895160675 986503.87741470337 397350.98782348633 3046512.6268386841 2494346.266368866 1322830.4931983948 2384618.0374679565 1788713.3016910553 3128362.2034816742 2928548.7793922424 373614.75443267822 457801.1993598938 1774045.2679595947
leaf_count=49659 10594 7533 66383 7881 15339 6741 99134 17146 4997 18936 46519 12649 48717 9911 100718 2796 77038 40767 15631 6360 66082 50266 39420 41053 49902 82749 72942 5391 6219 56909
internal_value=0 0.00911152 -0.00809071 0.0163656 0.00526623 -0.00417476 -0.0133593 0.0140448 0.0224264 0.00295947 -0.00646769 0.00816668 -0.0115054 -0.00180904 -0.0161957 0.0266074 0.0015366 0.00957314 0.0160567 0.0171166 0.00432149 0.00693738 -0.00768934 0.0122583 -0.00521492 -0.00292177 -0.000678856 0.0204901 0.0214441 -0.0103286
internal_weight=0 2.11872e+07 2.38382e+07 7.34014e+06 1.38471e+07 1.36744e+07 1.01638e+07 5.30766e+06 2.03248e+06 7.71294e+06 6.94403e+06 6.13416e+06 6.14646e+06 6.7304e+06 4.0173e+06 643337 3.7722e+06 2.86094e+06 2.49625e+06 1.50975e+06 3.94074e+06 3.27323e+06 3.51568e+06 2.8114e+06 3.42835e+06 3.39138e+06 3.33901e+06 1.38914e+06 1.01553e+06 3.27472e+06
internal_count=1136382 406678 729704 115007 291671 374567 355137 87723 27284 172650 202224 119021 204760 172343 150377 7793 87632 53416 39137 23506 85018 65605 105803 48586 96421 89490 82853 19491 14100 105626
is_linear=0
shrinkage=0.08


Tree=19
num_leaves=31
num_cat=0
split_feature=6 6 6 6 6 6 6 6 6 6 6 6 6 6 6 0 5 7 5 5 0 5 7 5 7 3 1 2 7 0
split_gain=439606 79956.8 64982.2 12085.8 12080.9 9517.48 8606.99 2221.04 1670.27 1632.43 1545.57 1532.88 1153.05 1041.87 946.033 627.382 626.951 975.826 592.513 587.626 579.393 569.191 734.869 567.398 948.434 547.178 613.889 617.664 538.033 703.027
threshold=1705.5000000000002 1041.5000000000002 2987.5000000000005 788.50000000000011 2246.5000000000005 4424.5000000000009 1337.5000000000002 3592.5000000000005 689.50000000000011 892.50000000000011 1968.5000000000002 2594.5000000000005 1182.5000000000002 1485.5000000000002 5516.5000000000009 9708.5000000000018 404175.50000000006 1039.5000000000002 326256.00000000006 453759.00000000006 13258.500000000002 418326.50000000006 1042.5000000000002 475850.50000000006 976.50000000000011 5686286.0000000009 5721094.5000000009 4262630.5000000009 1051.5000000000002 32903.500000000007
decision_type=2 2 2 2 2 2 2 2 2 2 2 2 2 2 2 2 2 2 2 2 2 2 2 2 2 2 2 2 2 2
left_child=1 3 4 8 10 7 12 16 -1 -5 18 20 -3 -8 -7 -15 -4 -18 -2 -11 -6 -13 -23 -12 -25 26 -16 -28 29 -9
right_child=2 6 5 9 11 14 13 28 -10 19 23 21 -14 15 25 -17 17 -19 -20 -21 -22 22 -24 24 -26 -27 27 -29 -30 -31
leaf_value=-0.015499073029689532 -7.186112347901672e-05 -0.0056015471480279615 0.011598109873602916 -0.010540970407482543 0.0094943518327908708 0.021244761380238241 -0.0016283852178619837 0.019297565171964931 -0.012770655755477469 -0.0087550236517284358 0.0044555914086558557 0.0089373137256475582 -0.0034971027459194375 0.0018915882044636234 0.020033410507704238 -0.00031653962372880131 0.015383811364907816 0.011225936675020663 0.003192595954796448 -0.0066826193408787036 0.0070343046387361845 0.012383755344047899 0.0084550339458709847 0.01494922359602416 0.0060038165229012496 0.022974849551968761 0.025068033214759106 0.035976504149198701 0.013710819371241606 0.015847091733504844
leaf_weight=2804186.678571701 396309.54706573486 3321916.8841972351 989180.05288314819 2888245.8308067322 805476.38547515869 849885.49538421631 2921460.6234111786 696381.59867858887 2943054.9752578735 2476169.7763004303 2255558.2568321228 1289174.7166404724 3343337.8617916107 1202150.6587810516 36091.322563171387 2614476.3213691711 1195685.3718070984 517648.30281448364 3484781.3305282593 1354728.5346240997 2560496.6743240356 1045185.0109939575 430100.77267074585 81630.046699523926 1072292.5472602844 170444.38754272461 54343.139442443848 85466.840698242188 298539.40917205811 826378.78196716309
leaf_count=106612 9076 95732 16486 95913 15310 11295 74565 10101 104378 77025 47223 23323 90451 28437 439 63196 19183 8651 77595 41515 49693 18336 7794 1575 22035 2028 635 917 4561 12302
internal_value=0 -0.00679693 0.00919502 -0.0114086 0.00615195 0.016335 -0.00250764 0.0146569 -0.0141019 -0.00910488 0.003951 0.00876943 -0.00454594 -0.000491367 0.0226809 0.00037897 0.0132017 0.0141276 0.00285925 -0.00802216 0.00762299 0.0101653 0.0112384 0.00519375 0.00663663 0.0262051 0.0293352 0.0317365 0.0168162 0.017425
internal_weight=0 2.58697e+07 1.9141e+07 1.24664e+07 1.3421e+07 5.72004e+06 1.34033e+07 4.52381e+06 5.74724e+06 6.71914e+06 7.29057e+06 6.13043e+06 6.66525e+06 6.73809e+06 1.19623e+06 3.81663e+06 2.70251e+06 1.71333e+06 3.88109e+06 3.8309e+06 3.36597e+06 2.76446e+06 1.47529e+06 3.40948e+06 1.15392e+06 346346 175901 139810 1.8213e+06 1.52276e+06
internal_count=1136382 777824 358558 425443 271960 86598 352381 71284 210990 214453 157504 114456 186183 166198 15314 91633 44320 27834 86671 118540 65003 49453 26130 70833 23610 4019 1991 1552 26964 22403
is_linear=0
shrinkage=0.08


Tree=20
num_leaves=31
num_cat=0
split_feature=6 6 6 6 6 6 6 6 6 6 6 6 6 6 6 7 0 4 0 0 5 0 7 7 5 5 0 5 0 0
split_gain=372314 62295.6 59698.8 11287 9534.52 9066.05 6569.02 2233.73 1603.3 1346.93 1285.94 1193.3 1157.2 1052.34 800.071 642.733 586.437 584.413 550.534 543.703 531.723 520.629 548.858 515.777 868.412 505.436 504.512 501.948 499.979 494.136
threshold=1626.5000000000002 2772.5000000000005 962.50000000000011 3842.5000000000005 2107.5000000000005 1255.5000000000002 743.50000000000011 4976.5000000000009 3215.5000000000005 2405.5000000000005 1844.5000000000002 1112.5000000000002 1439.5000000000002 849.50000000000011 648.50000000000011 1048.5000000000002 4260.5000000000009 4256454.5000000009 7130.5000000000009 7243.5000000000009 362969.00000000006 33912.500000000007 1048.5000000000002 1036.5000000000002 453759.00000000006 362969.00000000006 22494.000000000004 475850.50000000006 11846.500000000002 10909.500000000002
decision_type=2 2 2 2 2 2 2 2 2 2 2 2 2 2 2 2 2 2 2 2 2 2 2 2 2 2 2 2 2 2
left_child=2 4 6 8 10 11 14 23 26 29 18 16 19 -8 -1 -9 -4 -11 -2 -7 -12 22 -10 24 -5 -14 -3 -13 -22 -6
right_child=1 3 5 7 9 12 13 15 21 17 20 27 25 -15 -16 -17 -18 -19 -20 -21 28 -23 -24 -25 -26 -27 -28 -29 -30 -31
leaf_value=-0.015031023102995764 0.004853050786648801 0.011611394632719601 -0.0034121500987990983 0.016117926651589773 0.008143431007488067 -0.00048874751724600882 -0.010546006979144176 0.024293766995123527 0.015168584200063147 0.0062009987341254437 0.0021957403871146557 -0.0048564972460646222 -0.0017212256320052039 -0.0084321379780506675 -0.012770544022215887 0.018725760845138332 -0.0066301127010623207 0.0088055837080762075 0.0012950558295840293 -0.0027424630110655279 0.0058960309787602552 0.011856213691837583 0.01116742236330053 0.014846259310409038 0.020502259865635468 0.00044675884879122476 0.0093761066650639956 -0.0027183896654269578 0.0035613404142320268 0.0054430955030595543
leaf_weight=1530744.0725231171 305504.65533828735 1273277.8068389893 407153.41422462463 678323.02318954468 514639.64665603638 900003.41139411926 3029499.3577156067 453170.86741256714 1099154.9481010437 719050.55014038086 976857.71187210083 2201375.4365959167 960152.35713386536 2999554.3991680145 2901613.0090618134 187611.47609329224 3300555.824672699 2363921.7889556885 3128517.9398040771 2868879.8532791138 909413.09622573853 856093.22762298584 274140.33827972412 466864.87450790405 503934.60972976685 2430123.5084571838 1312213.7136535645 1032217.6288127899 1656095.5767059326 2757670.4335517883
leaf_count=59193 6801 21768 11952 9703 10096 23126 103473 5428 17092 13595 21345 61814 23867 95905 106146 2365 98750 43837 72122 75443 19144 13683 4440 6791 6919 59173 22802 28460 35640 55509
internal_value=0 0.0079811 -0.00663425 0.0140315 0.0047567 -0.00323705 -0.0112132 0.0186552 0.0118325 0.00699823 0.00271473 -0.00529717 -0.00123962 -0.00949432 -0.0135512 0.0226635 -0.00627674 0.00819811 0.00161159 -0.00220428 0.00378413 0.0134046 0.0143699 0.0170977 0.0179867 -0.000167231 0.0104769 -0.00417398 0.00438893 0.00586778
internal_weight=0 2.04365e+07 2.45619e+07 7.10478e+06 1.33317e+07 1.41005e+07 1.04614e+07 2.2899e+06 4.81488e+06 6.35528e+06 6.97639e+06 6.9413e+06 7.15916e+06 6.02905e+06 4.43236e+06 640782 3.70771e+06 3.08297e+06 3.43402e+06 3.76888e+06 3.54237e+06 2.22939e+06 1.3733e+06 1.64912e+06 1.18226e+06 3.39028e+06 2.58549e+06 3.23359e+06 2.56551e+06 3.27231e+06
internal_count=1136382 389080 747302 110991 278089 382585 364717 31206 79785 123037 155052 200976 181609 199378 165339 7793 110702 57432 78923 98569 76129 35215 21532 23413 16622 83040 44570 90274 54784 65605
is_linear=0
shrinkage=0.08


Tree=21
num_leaves=31
num_cat=0
split_feature=6 6 6 6 6 6 6 6 6 6 6 5 6 6 5 0 7 5 7 6 3 5 3 7 5 5 7 7 5 3
split_gain=315470 57494 46876 8179.4 8150.96 7479.71 6720.45 1381.17 1197.75 1086.65 1069.21 1062.31 1020.51 1005.8 823.229 708.162 687.865 780.621 883.195 657.984 545.1 540.154 521.498 506.193 574.865 496.058 518.666 484.183 480.519 462.722
threshold=1705.5000000000002 1028.5000000000002 2948.5000000000005 778.50000000000011 2228.5000000000005 4231.0000000000009 1303.5000000000002 3521.5000000000005 887.50000000000011 656.50000000000011 2545.5000000000005 400474.50000000006 1953.5000000000002 5516.5000000000009 317374.00000000006 5393.5000000000009 1045.5000000000002 475850.50000000006 973.50000000000011 1139.5000000000002 5706671.5000000009 470846.50000000006 5705481.5000000009 880.50000000000011 326256.00000000006 397634.00000000006 1051.5000000000002 1054.5000000000002 362969.00000000006 5686286.0000000009
decision_type=2 2 2 2 2 2 2 2 2 2 2 2 2 2 2 2 2 2 2 2 2 2 2 2 2 2 2 2 2 2
left_child=1 3 4 9 12 7 14 22 -5 -1 -6 23 28 27 -3 -16 17 -13 -19 -17 -12 -11 -4 24 -8 -22 -27 -7 -2 -15
right_child=2 6 5 8 10 13 11 -9 -10 21 20 16 -14 29 15 19 -18 18 -20 -21 25 -23 -24 -25 -26 26 -28 -29 -30 -31
leaf_value=-0.013694647377616305 0.00089100084421990175 -0.0069900862169324108 0.0087652451503610271 -0.0090668863027239758 0.0062521126609233636 0.018253802109346542 -0.0025634369456964418 0.013791034040242836 -0.006915927448934771 -0.011991556501072894 0.00604912845491577 -0.00040907837352386093 0.004287650580204784 0.02529227210798465 -0.0018914707722587898 -0.00541028735665242 -0.0017078444166323196 0.0080161492072263561 0.0015176076171504866 -0.0034807085899529818 0.0074249837804428965 -0.0099539702013467114 0.011492990500274799 -0.002322975756328859 0.00095522387481755721 0.010495166066959017 0.0066888900633072495 0.01397316977137841 0.0029335608239948099 0.019432206827442258
leaf_weight=1776375.2406158447 1019787.3918571472 586990.84677696228 569318.92334365845 3039369.3840770721 3138175.9815177917 927633.90155792236 467828.17013931274 1774404.7084732056 3642427.3394393921 2400680.2481746674 530529.45279693604 1530770.8209934235 3415658.3755340576 175095.14464950562 983953.42759132385 1882476.6097431183 841166.80614471436 147933.46943473816 1405498.3162384033 2833318.6101398468 926969.80193328857 1274816.0395946503 2114833.9799995422 2231087.9950122833 814566.26717948914 1217754.501033783 282222.60143280029 206815.04759979248 2659380.9347038269 169931.26316452026
leaf_count=68510 23196 16896 9594 101462 61048 12425 11838 26717 113277 86927 9741 37924 71274 1991 27393 55074 20895 3454 34240 77965 16921 45609 34851 56221 20139 21582 5159 2914 59117 2028
internal_value=0 -0.00575853 0.00779235 -0.00977055 0.0051352 0.0136948 -0.00221184 0.0120593 -0.00789434 -0.01207 0.00728068 -0.000584479 0.00329187 0.0186238 -0.00413743 -0.00384365 0.000319986 0.000873045 0.00213646 -0.00425097 0.00837209 -0.0112848 0.0109144 -0.00159498 -0.000328413 0.00887989 0.00977901 0.0174734 0.00236741 0.0224061
internal_weight=0 2.58593e+07 1.91285e+07 1.21337e+07 1.31905e+07 5.93803e+06 1.37256e+07 4.45856e+06 6.6818e+06 5.45187e+06 6.09565e+06 7.43885e+06 7.09483e+06 1.47948e+06 6.28674e+06 5.69975e+06 3.92537e+06 3.0842e+06 1.55343e+06 4.7158e+06 2.95748e+06 3.6755e+06 2.68415e+06 3.51348e+06 1.28239e+06 2.42695e+06 1.49998e+06 1.13445e+06 3.67917e+06 345026
internal_count=1136382 777824 358558 415785 268038 90520 362039 71162 214739 201046 114451 184711 153587 19358 177328 160432 96513 75618 37694 133039 53403 132536 44445 88198 31977 43662 26741 15339 82313 4019
is_linear=0
shrinkage=0.08


Tree=22
num_leaves=31
num_cat=0
split_feature=6 6 6 6 6 6 6 6 6 6 5 4 5 5 5 3 4 6 7 7 5 7 6 0 5 7 7 5 2 5
split_gain=267954 50661.7 36680.9 9412.94 7449.79 4944.18 4495.33 1710.77 1572.43 1153.36 906.458 896.42 871.531 835.389 716.188 705.073 662.45 618.406 601.646 581.116 1009.68 1227.84 575.744 544.448 544.352 888.344 537.506 519.607 507.435 498.644
threshold=1543.5000000000002 2679.5000000000005 950.50000000000011 3842.5000000000005 2058.5000000000005 1203.5000000000002 721.50000000000011 4658.5000000000009 3163.5000000000005 1792.5000000000002 362969.00000000006 4256837.5000000009 470846.50000000006 317374.00000000006 404175.50000000006 5706671.5000000009 4249492.0000000009 823.50000000000011 973.50000000000011 1045.5000000000002 475850.50000000006 970.50000000000011 1379.5000000000002 7130.5000000000009 404175.50000000006 1039.5000000000002 1042.5000000000002 397634.00000000006 4245933.5000000009 780080.00000000012
decision_type=2 2 2 2 2 2 2 2 2 2 2 2 2 2 2 2 2 2 2 2 2 2 2 2 2 2 2 2 2 2
left_child=2 4 6 8 9 14 28 -5 -3 23 -6 -12 17 -7 -4 -15 -16 -8 -14 20 -13 -22 -17 -2 -10 -26 27 -9 -1 -20
right_child=1 3 5 7 10 13 12 26 24 -11 11 19 18 15 16 22 -18 -19 29 -21 21 -23 -24 -25 25 -27 -28 -29 -30 -31
leaf_value=-0.014802989637222692 0.0035814264371159601 0.008507571616475312 -0.0057208161966812356 0.01405205172138191 0.0038978207686106194 -0.0044763055184978244 -0.010031301290175805 0.015904245843561107 0.0095957723262669065 0.0028605076965330738 0.0041048712423375835 0.0060641862809450763 -0.001700923615827352 -0.0038810294963126969 -0.0076542272497883423 -0.0018761905613796817 -0.003615744140932508 -0.0080842383006074596 -0.0077619015065402575 0.0044515613396555838 0.018047052095948292 0.0083135230763702848 -0.0002402334197041017 0.00059473336341795216 0.013333023818351605 0.0092847342213314837 0.015723061338282288 0.021217255564681965 -0.011509786894085255 -0.0036035432532383529
leaf_weight=327976.23930931091 437215.16385650635 3015555.0709342957 3000992.4222831726 1368404.6427001953 1604137.4265060425 633796.96850013733 1942470.7644538879 158224.8066444397 858829.04401779175 3702947.5985603333 1100028.711681366 1894412.2488327026 128446.58326530457 669007.94166564941 286346.70744895935 3026151.3809452057 2820367.6875343323 2257020.8161182404 1842035.7691802979 602707.36994552612 90560.2942237854 986104.24536895752 2526029.3163795471 3665318.8153800964 1125565.1195259094 501468.74947738647 297546.2452545166 461192.41060256958 3442822.9809474945 205104.99557685852
leaf_count=12572 9979 52772 88794 19686 32079 16841 67754 2034 13887 80681 21801 37121 4126 17632 8551 80506 82003 73302 61380 11871 1617 18889 63080 86311 17490 8134 3843 5643 129330 6673
internal_value=0 0.00635009 -0.006004 0.0115283 0.00348705 -0.00318418 -0.00960669 0.0158438 0.00973556 0.00183692 0.00553867 0.00610184 -0.0083116 -0.00170941 -0.0048394 -0.00142753 -0.00398797 -0.00898485 -0.00701203 0.00671652 0.00717599 0.00913223 -0.00113189 0.000913031 0.0112252 0.0120853 0.0185177 0.0198601 -0.0117962 -0.00734527
internal_weight=0 2.18702e+07 2.31086e+07 7.78679e+06 1.40834e+07 1.29627e+07 1.01459e+07 2.28537e+06 5.50142e+06 7.80548e+06 6.27795e+06 4.67381e+06 6.37508e+06 6.85499e+06 6.10771e+06 6.22119e+06 3.10671e+06 4.19949e+06 2.17559e+06 3.57378e+06 2.97108e+06 1.07666e+06 5.55218e+06 4.10253e+06 2.48586e+06 1.62703e+06 916963 619417 3.7708e+06 2.04714e+06
internal_count=1136382 423838 712544 123489 300349 357407 355137 31206 92283 176971 123378 91299 213235 178059 179348 161218 90554 141056 72179 69498 57627 20506 143586 96290 39511 25624 11520 7677 141902 68053
is_linear=0
shrinkage=0.08


Tree=23
num_leaves=31
num_cat=0
split_feature=6 6 6 6 6 6 6 6 6 5 7 7 5 5 3 4 5 4 0 4 6 6 6 7 6 4 0 5 7 7
split_gain=226870 42432.7 31636.8 8682.42 5374.92 4531.48 3672.56 1685.55 1313.25 858.575 1485.75 981.932 815.257 755.561 824.47 724.084 770.155 656.741 644.373 557.594 548.143 546.737 545.984 543.341 490.804 485.467 481.621 465.266 708.466 463.165
threshold=1552.5000000000002 2621.5000000000005 944.50000000000011 3754.5000000000005 2028.5000000000002 1189.5000000000002 721.50000000000011 4658.5000000000009 3163.5000000000005 475850.50000000006 1042.5000000000002 964.50000000000011 362969.00000000006 362969.00000000006 5711124.5000000009 4242805.0000000009 470846.50000000006 4249111.0000000009 3858.5000000000005 4252407.5000000009 2343.5000000000005 1066.5000000000002 1804.5000000000002 1045.5000000000002 620.50000000000011 4250809.5000000009 5495.5000000000009 418326.50000000006 1051.5000000000002 1057.5000000000002
decision_type=2 2 2 2 2 2 2 2 2 2 2 2 2 2 2 2 2 2 2 2 2 2 2 2 2 2 2 2 2 2
left_child=2 4 6 8 9 18 24 -5 19 22 11 -11 -7 -6 -15 -8 -17 -14 -4 -3 -16 -20 -2 -18 -1 -10 -19 -21 -29 -9
right_child=1 3 5 7 13 12 15 29 25 10 -12 -13 17 14 20 16 23 26 21 27 -22 -23 -24 -25 -26 -27 -28 28 -30 -31
leaf_value=-0.012875924298029633 0.00029471272198079533 0.0053208532612100011 -0.0014555376500983211 0.012753183083206242 0.00334785907566251 -0.0029238430221495177 -0.011235197871645534 0.017923274217018247 0.0072416826776104046 0.011564127251222685 0.00035431833420753849 0.0038567787728766086 -0.0040979109008993948 0.0031268189425598335 0.0050668133961651171 -0.0081358611422679486 -0.0052521430256058975 0.0013508187480438172 -0.0055762230263296433 0.0070414010581135054 0.0070327338983447998 -0.0039875740354829905 0.0020042361758198131 -0.0080553907996953507 -0.010444451714807179 0.010657514961376752 -0.0010943198662568395 0.0099456990197544538 0.0058729119060230376 0.013327976775289494
leaf_weight=639971.51725006104 2775777.6020278931 530504.07677459717 397134.79742240906 1603191.2257919312 1595911.1530647278 2108984.6035461426 348561.2540435791 742922.28526687622 308633.83660125732 114742.26107406616 916444.5560836792 1356186.5871315002 418990.32332801819 854956.41926574707 2193481.9322395325 3891007.3618354797 1311936.4901046753 587353.68739318848 2806401.9740753174 1346282.5550804138 1548490.9099578857 2740170.9647655487 2100421.3671455383 667747.97200965881 3129243.8198566437 1940664.6612014771 4217794.6950397491 1254621.8899230957 349492.68683242798 173077.57431411743
leaf_count=25065 65415 9537 11530 23254 32211 55616 11949 9262 5046 2412 20846 30181 11082 17120 44331 130788 43272 14964 85325 23913 29201 78504 46176 22398 116837 30897 109114 21627 6251 2258
internal_value=0 0.00588548 -0.00548564 0.0104031 0.003116 -0.00292685 -0.00888682 0.0143174 0.00868221 0.00163968 0.00288272 0.004458 -0.00159625 0.00484758 0.00536823 -0.00769261 -0.00748228 -0.00106031 -0.0045685 0.00770866 0.00588034 -0.00479138 0.00103109 -0.00619768 -0.0108573 0.0101888 -0.00079544 0.00813801 0.00905835 0.017055
internal_weight=0 2.17058e+07 2.32653e+07 8.24939e+06 1.34564e+07 1.32768e+07 9.98847e+06 2.51919e+06 5.7302e+06 7.26357e+06 2.38737e+06 1.47093e+06 7.33312e+06 6.19284e+06 4.59693e+06 6.21925e+06 5.87069e+06 5.22414e+06 5.94371e+06 3.4809e+06 3.74197e+06 5.54657e+06 4.8762e+06 1.97968e+06 3.76922e+06 2.2493e+06 4.80515e+06 2.9504e+06 1.60411e+06 916000
internal_count=1136382 419938 716444 132045 287893 366135 350309 34774 97271 165030 53439 32593 190776 122863 90652 208407 196458 135160 175359 61328 73532 163829 111591 65670 141902 35943 124078 51791 27878 11520
is_linear=0
shrinkage=0.08


Tree=24
num_leaves=31
num_cat=0
split_feature=6 6 6 6 6 6 6 6 6 5 7 7 5 7 5 3 7 4 5 4 5 6 0 4 4 7 5 7 5 7
split_gain=192152 37027.3 25793.8 7679 4583.27 3852.41 2873.83 1633.65 1028.55 766.5 1587.97 952.663 766.365 1178.98 749.391 813.424 684.163 596.7 654.956 577.034 595.645 534.966 523.521 515.624 497.248 540.444 773.418 530.227 485.848 469.298
threshold=1533.5000000000002 2594.5000000000005 932.50000000000011 3668.5000000000005 1982.5000000000002 1161.5000000000002 725.50000000000011 4976.5000000000009 2987.5000000000005 475850.50000000006 976.50000000000011 1039.5000000000002 475850.50000000006 976.50000000000011 362969.00000000006 5707159.0000000009 1048.5000000000002 4247529.5000000009 448504.50000000006 4249111.0000000009 458260.50000000006 1361.5000000000002 10288.500000000002 4250809.5000000009 4251896.5000000009 1036.5000000000002 458260.50000000006 976.50000000000011 633491.00000000012 1045.5000000000002
decision_type=2 2 2 2 2 2 2 2 2 2 2 2 2 2 2 2 2 2 2 2 2 2 2 2 2 2 2 2 2 2
left_child=2 4 6 8 14 17 -1 24 -3 -6 -11 22 21 -14 -2 -16 -15 -4 -19 -8 -21 -7 -12 -10 -5 26 -26 -28 -13 -20
right_child=1 3 5 7 9 12 19 -9 23 10 11 28 13 16 15 -17 -18 18 29 20 -22 -23 -24 -25 25 -27 27 -29 -30 -31
leaf_value=-0.0099488572888536131 -7.7075168360105422e-06 0.0067008773450111326 -0.0074197387898915466 0.0092460041731003244 0.0036309699495501342 -0.0029228787676352391 -0.0096159005347573115 0.016498744778886829 0.0061390521842055283 0.013145503303302499 0.0097248648605168884 -0.00078332986874845396 0.0059023972407802041 2.6588853916637938e-05 -0.00084408696224456048 0.0022219411638809594 -0.0029031638827387374 -0.0048887691342617799 -0.0022275761192592359 -0.0075069758637522814 -0.0057211148148212437 -0.0012854331300010385 0.0055443583273957764 0.0092660521723651607 0.011637526258678621 0.010216112750548841 0.022471690227814742 0.014718050627066005 0.0038627240550712667 -0.0049475331242417667
leaf_weight=3887355.927520752 1954725.4523830414 2761189.3910140991 395617.18347167969 376753.06358718872 4285409.2461013794 2941058.2283382416 544254.71587371826 637664.86446380615 389036.12046432495 159391.3981590271 242440.61491394043 175638.8279914856 171520.30759620667 1489599.3222064972 633240.85648345947 4413786.5679111481 775808.78700637817 3268853.692987442 1367938.8809719086 3400024.3152580261 1843304.3307209015 2256803.6856517792 916292.71220397949 2546985.385383606 725615.19990539551 496703.9460144043 64242.971824645996 465062.85952377319 800927.37325286865 577318.15152168274
leaf_count=146187 45560 49453 12025 5542 86466 80065 18597 7793 6512 2963 4648 3615 4268 38475 14709 100256 20402 97812 40043 114504 61266 57273 18043 41505 10543 7328 855 6520 15987 17167
internal_value=0 0.00533496 -0.00512643 0.00948838 0.00274684 -0.00283266 -0.0082665 0.0129468 0.0078093 0.00426279 0.00544274 0.00486776 -0.00166313 -0.000492551 0.00132218 0.00183725 -0.000976731 -0.00442437 -0.0041971 -0.00713651 -0.00687915 -0.00221193 0.00641904 0.00885171 0.0118826 0.0124497 0.0133338 0.0156591 0.00302712 -0.00303481
internal_weight=0 2.20451e+07 2.29195e+07 8.46325e+06 1.35819e+07 1.32445e+07 9.67494e+06 2.76604e+06 5.69721e+06 6.5801e+06 2.29469e+06 2.1353e+06 7.63479e+06 2.43693e+06 7.00175e+06 5.04703e+06 2.26541e+06 5.60973e+06 5.21411e+06 5.78758e+06 5.24333e+06 5.19786e+06 1.15873e+06 2.93602e+06 2.12838e+06 1.75162e+06 1.25492e+06 529306 976566 1.94526e+06
internal_count=1136382 428298 708084 136051 292247 367530 340554 38581 97470 131722 45256 42293 200483 63145 160525 114965 58877 167047 155022 194367 175770 137338 22691 48017 30788 25246 17918 7375 19602 57210
is_linear=0
shrinkage=0.08


Tree=25
num_leaves=31
num_cat=0
split_feature=6 6 6 6 6 6 6 4 5 6 6 4 5 1 3 0 5 7 5 7 7 6 7 6 4 5 3 4 2 0
split_gain=163144 29875.1 24221.6 4792.24 4720.77 3877.36 3224.83 867.603 902.402 835.263 812.487 719.67 645.897 640.936 651.663 635.814 606.858 812.399 598.077 1484.16 683.522 520.827 519.414 478.335 464.873 454.274 468.6 450.014 435.004 629.147
threshold=1705.5000000000002 1041.5000000000002 2987.5000000000005 808.50000000000011 2304.5000000000005 4424.5000000000009 1345.5000000000002 4251275.5000000009 322517.50000000006 677.50000000000011 3521.5000000000005 4252407.5000000009 317374.00000000006 5716285.5000000009 5729714.5000000009 3362.5000000000005 475850.50000000006 976.50000000000011 458260.50000000006 958.50000000000011 1039.5000000000002 1871.5000000000002 1045.5000000000002 5516.5000000000009 4254086.5000000009 326256.00000000006 5705481.5000000009 4253377.5000000009 4256116.5000000009 48618.500000000007
decision_type=2 2 2 2 2 2 2 2 2 2 2 2 2 2 2 2 2 2 2 2 2 2 2 2 2 2 2 2 2 2
left_child=1 3 4 9 7 10 12 -2 -9 -1 -4 -6 -3 -14 24 -5 -8 -18 -13 -20 -21 -10 -19 -7 -15 -17 -27 -12 -25 -30
right_child=2 6 5 15 11 23 16 8 21 -11 27 18 13 14 -16 25 17 22 19 20 -22 -23 -24 28 -26 26 -28 -29 29 -31
leaf_value=-0.0096786229409525602 0.0001810215847451407 -0.005165731625709569 0.0079212445434285236 -0.0025017852390930707 0.0033786703465523223 0.013017114805530333 -0.00078522632314604907 -2.9396335529142615e-05 0.0020382125814073018 -0.0077857657000477646 0.0076533528822450405 0.0051898952162687572 -0.003705747627690428 -0.0038949963374758012 -0.0035898749412428799 -0.0076414604817971656 0.0065914844966278472 0.0014407196590737457 0.018577118451253052 0.0079065141236088262 0.0047609121097515255 0.0035909133262359352 -0.0012422095856447735 0.011140554060304359 -0.00098045772078094763 -0.0076321926155208933 -0.0050929146495114685 0.010654527884202515 0.013066635089322369 0.021054099846915423
leaf_weight=2423468.509059906 914166.54991149902 636061.81095504761 2454223.5704307556 456787.93312835693 829267.77066802979 845095.04360198975 4456185.0539836884 653369.3131980896 2035270.5395889282 3881813.6584682465 395983.49178695679 2780586.0189285278 1913734.2787303925 401460.64505767822 1132817.6956539154 623569.37368965149 147271.28989982605 1227598.0174160004 68702.035846710205 1063570.7801094055 756612.42477416992 4311501.5027542114 740336.77405738831 74335.666748046875 2745561.7870101929 518191.09800720215 4541167.1462078094 1661147.9945487976 101074.59616470337 168036.75085067749
leaf_count=92841 19939 18122 40523 14379 15662 11295 110528 14408 45797 137686 6028 51861 53791 11301 31808 20096 3423 29666 1151 19237 14087 89818 18230 904 75512 16694 143747 24733 1218 1897
internal_value=0 -0.00414178 0.00560638 -0.00696418 0.00374987 0.00997514 -0.00152072 0.00249887 0.00280156 -0.0085133 0.00890417 0.00555043 -0.00273804 -0.00248872 -0.00194453 -0.00537329 -0.000255563 0.000860298 0.00593612 0.00703462 0.00659895 0.003093 0.000431402 0.0140402 -0.00135226 -0.0056041 -0.00535299 0.0100768 0.0165577 0.0180541
internal_weight=0 2.5846e+07 1.91129e+07 1.2445e+07 1.3413e+07 5.6999e+06 1.3401e+07 7.91431e+06 7.00014e+06 6.30528e+06 4.51136e+06 5.49874e+06 6.82964e+06 6.19357e+06 4.27984e+06 6.13972e+06 6.57139e+06 2.11521e+06 4.66947e+06 1.88889e+06 1.82018e+06 6.34677e+06 1.96793e+06 1.18854e+06 3.14702e+06 5.68293e+06 5.05936e+06 2.05713e+06 343447 269111
internal_count=1136382 777824 358558 425443 271960 86598 352381 169962 150023 230527 71284 101998 190534 172412 118621 194916 161847 51319 86336 34475 33324 135615 47896 15314 86813 180537 160441 30761 4019 3115
is_linear=0
shrinkage=0.08


Tree=26
num_leaves=31
num_cat=0
split_feature=6 6 6 6 6 6 6 5 7 6 4 5 4 5 7 5 7 3 5 5 7 3 5 5 2 5 6 3 3 5
split_gain=138224 23583.2 22111.9 4071.25 3603.85 3443.6 2858.75 763.665 1230.43 677.058 671.616 667.244 666.797 678.998 747.642 742.96 859.154 647.428 622.657 609.582 1418.73 586.607 572.293 550.399 520.68 522.024 487.377 486.674 466.178 512.676
threshold=1660.5000000000002 980.50000000000011 2837.5000000000005 4073.5000000000005 2157.5000000000005 1263.5000000000002 758.50000000000011 404175.50000000006 1039.5000000000002 5516.5000000000009 4252407.5000000009 322517.50000000006 4249492.0000000009 397634.00000000006 1042.5000000000002 475850.50000000006 973.50000000000011 5707999.0000000009 311058.00000000006 475850.50000000006 967.50000000000011 5729581.5000000009 780080.00000000012 780080.00000000012 4245933.5000000009 470846.50000000006 864.50000000000011 5706671.5000000009 5705851.5000000009 317374.00000000006
decision_type=2 2 2 2 2 2 2 2 2 2 2 2 2 2 2 2 2 2 2 2 2 2 2 2 2 2 2 2 2 2
left_child=1 6 4 7 12 22 24 -4 19 -5 -6 -7 -2 -14 15 -15 -17 -13 -12 -9 -21 -19 28 26 -1 -26 -8 -20 -3 -30
right_child=2 5 3 9 10 11 23 8 -10 -11 18 17 13 14 -16 16 -18 21 27 20 -22 -23 -24 -25 25 -27 -28 -29 29 -31
leaf_value=-0.010905271610706431 -0.00066019758863545544 -0.0053364289543551512 0.0062303104941918413 0.011287021358206263 0.002507915087389402 -0.0029066692379627903 -0.0064528073352622707 0.0079137658422842108 0.0059362630995464351 0.015247244568793911 0.0014016712806612414 -0.0025056920789447742 0.0011863708344483134 0.0022105113862090704 0.00071193053410987845 0.010882518211620321 0.0041586398798466205 0.00029919883155740624 0.0030100986724245116 0.020540100264609413 0.0098308838868591524 -0.0016910658672125909 0.001029960046174241 -0.0013530216508596854 -0.0085529958272703641 -0.0067238364774942494 -0.0049925331488879544 0.0053750500321800652 -0.0053235995436375786 -0.0027851918421096297
leaf_weight=411616.60597801208 614155.40384674072 621114.25545120239 1745948.0517349243 1418143.4484405518 917879.16875457764 739606.88172912598 2895862.3288440704 989045.26271820068 960379.4938621521 343144.10033416748 314738.44728851318 806117.02491569519 2871090.2561912537 1411836.3923530579 810486.71128082275 135811.94159698486 1164019.3991279602 4831173.5359897614 639086.82065582275 85376.979709625244 1089125.527141571 1179088.5962581635 206051.76370620728 191167.53950881958 2937932.9590816498 1512671.9484233856 2955835.3145332336 4330218.8511734009 563774.66101264954 5261685.3142738342
leaf_count=15614 13748 18171 28992 19502 17866 19068 98166 15968 15882 4019 6200 20598 63818 30869 17824 2760 24983 120796 12329 1256 17262 29927 5745 6088 109535 55702 93814 82300 16545 151035
internal_value=0 -0.00394074 0.00499305 0.00876246 0.00310079 -0.00179303 -0.00673906 0.00757035 0.00831929 0.0120586 0.00450537 -0.00062442 0.00185765 0.00209953 0.00284389 0.0034811 0.00486118 -0.000376786 0.00485235 0.00937709 0.0106094 -9.12498e-05 -0.00312033 -0.00557719 -0.00818307 -0.0079313 -0.00571519 0.0050709 -0.00325299 -0.00303085
internal_weight=0 2.51137e+07 1.98405e+07 6.63116e+06 1.32093e+07 1.42086e+07 1.09051e+07 4.86988e+06 3.12393e+06 1.76129e+06 6.20192e+06 7.55599e+06 7.0074e+06 6.39324e+06 3.52215e+06 2.71167e+06 1.29983e+06 6.81638e+06 5.28404e+06 2.16355e+06 1.1745e+06 6.01026e+06 6.65263e+06 6.04287e+06 4.86222e+06 4.4506e+06 5.8517e+06 4.96931e+06 6.44657e+06 5.82546e+06
