tree
version=v3
num_class=1
num_tree_per_iteration=1
label_index=0
max_feature_idx=7
objective=mape
feature_names=distance sx sy dx dy length estimated_duration time
feature_infos=[593:99866] [5683553:5774547] [4216122:4277464] [5598377:5874583] [4165409:4311325] [12753:195856] [601:6633] [300:417]
tree_sizes=2615 3042 3043 3048 3056 3037 3044 3056 3047 3046 3057 3046 3052 3051 3043 3049 3037 3058 3054 3048 3050 3049 3053 3058 3069 3062 3065 3051 3035 3055 3031 3044 3050 3041 3053 3040 3048 3048 3048 3055 3055 3066 3024 3042 3028 3033 3078 3088 3038 3079 3051 3052 3040 3043 3036 3037 3038 3070 3063 3039 3038 3052 3050 3057 3051 3059 3031 2955 3019 3024 3020 3028 2996 2956 2960 3019 3027 3009 3031 3069 3019 2911 2969 3056 2911 2892 3023 2984 2880 2969 2923 2928 3073 2940 2986 2876 3007 2938 2934 2982 2932 2990 2875 3000 2940 2929 3057 2918 2970 2885 2908 2989 2867 2855 3060 2923 2928 2926 2914 3074 2872 2880 2889 2886 2891 2892 3010 2913 2934 2931 2962 2939 2918 2910 2960 2963 2885 2887 2897 2907 3096 2879 2897 2896 2971 2957 2979 2962 2902 3006 2908 2869 2916 2905 2874 2983 2952 2923 2937 2940 2968 3064 2962 2910 2915 2953 2933 2970 3054 2873 2940 2907 2952 2946 2878 2977 2964 2999 2852 2853 2949 3078 2892 2884 2962 2856 2883 2909 2894 2911 2900 2882 2874 2858

Tree=0
num_leaves=31
num_cat=0
split_feature=6 6 6 6 6 6 6 6 6 6 6 6 6 0 0 6 0 0 6 0 6 6 3 6 2 0 2 6 6 6
split_gain=0.0777318 0.00501083 0.00248568 0.00115611 0.000873311 0.000526877 0.000325574 0.000185697 0.000177121 0.000134226 0.000120402 8.35651e-05 7.59474e-05 7.28786e-05 5.9347e-05 4.53892e-05 3.53243e-05 3.32004e-05 3.27843e-05 3.26023e-05 3.20388e-05 2.4692e-05 2.44925e-05 2.43699e-05 2.33329e-05 2.19875e-05 2.14983e-05 1.88824e-05 1.87265e-05 1.84816e-05
threshold=988.50000000000011 835.50000000000011 1078.5000000000002 2007.5000000000002 722.50000000000011 922.50000000000011 1146.5000000000002 1671.5000000000002 1024.5000000000002 655.50000000000011 2610.5000000000005 756.50000000000011 880.50000000000011 5872.5000000000009 6716.5000000000009 952.50000000000011 12745.500000000002 5073.5000000000009 1121.5000000000002 7018.5000000000009 1048.5000000000002 794.50000000000011 5711937.5000000009 1525.5000000000002 4262093.5000000009 5395.5000000000009 4268844.5000000009 680.50000000000011 1185.5000000000002 2267.5000000000005
decision_type=2 2 2 2 2 2 2 2 2 2 2 2 2 2 2 2 2 2 2 2 2 2 2 2 2 2 2 2 2 2
left_child=1 4 8 6 9 12 18 16 19 -1 29 -6 17 -7 -14 -15 -8 -3 24 22 -10 -13 -2 28 -4 -23 -22 -11 -18 -5
right_child=2 5 3 10 11 13 7 -9 20 27 -12 21 14 15 -16 -17 23 -19 -20 -21 26 25 -24 -25 -26 -27 -28 -29 -30 -31
leaf_value=997.63999999999999 1014.76 1019.64 1036.9200000000001 1129.0799999999999 1006.76 1028.8399999999999 1057.72 1099.72 1031.1600000000001 1001 1223.24 1010.36 1022.6799999999999 1022.92 1019.8 1025.72 1041.0799999999999 1016.6 1038.5999999999999 1027.96 1033.8800000000001 1014.76 1032.8399999999999 1076.5999999999999 1034.76 1013.3200000000001 1030.6800000000001 1003.72 1055.48 1159
leaf_weight=7683 26 362 2147 10022 4344 624 15422 18454 2638 3466 14516 4848 901 3272 4032 3927 1979 5152 2611 3519 2763 571 555 7855 2469 4394 571 5418 18888 9215
leaf_count=7683 26 362 2147 10022 4344 624 15422 18454 2638 3466 14516 4848 901 3272 4032 3927 1979 5152 2611 3519 2763 571 555 7855 2469 4394 571 5418 18888 9215
internal_value=1031 1031 1031 1031 1031 1031 1031 1031 1031 1031 1031 1031 1031 1031 1031 1031 1031 1031 1031 1031 1031 1031 1031 1031 1031 1031 1031 1031 1031 1031
internal_weight=0 48994 113650 103578 30724 18270 69825 62598 10072 16567 33753 14157 10447 7823 4933 7199 44144 5514 7227 4100 5972 9813 581 28722 4616 4965 3334 8884 20867 19237
internal_count=162644 48994 113650 103578 30724 18270 69825 62598 10072 16567 33753 14157 10447 7823 4933 7199 44144 5514 7227 4100 5972 9813 581 28722 4616 4965 3334 8884 20867 19237
is_linear=0
shrinkage=1


Tree=1
num_leaves=31
num_cat=0
split_feature=6 6 6 6 6 6 6 6 6 6 6 6 6 0 6 0 0 0 0 2 6 6 0 0 6 4 5 7 2 2
split_gain=0.0743434 0.00458675 0.00301161 0.000996357 0.000785084 0.000548387 0.000346951 0.000216434 0.000188033 0.000125571 9.66098e-05 8.98888e-05 8.51497e-05 6.64985e-05 5.81852e-05 4.70259e-05 4.58093e-05 4.06197e-05 3.81775e-05 3.42043e-05 3.14109e-05 3.01081e-05 2.93388e-05 2.85328e-05 2.70245e-05 2.30564e-05 2.29752e-05 2.21868e-05 2.11245e-05 1.85016e-05
threshold=976.50000000000011 794.50000000000011 1078.5000000000002 2089.5000000000005 898.50000000000011 705.50000000000011 1160.5000000000002 1024.5000000000002 1681.5000000000002 852.50000000000011 650.50000000000011 2638.5000000000005 934.50000000000011 5872.5000000000009 739.50000000000011 12745.500000000002 5395.5000000000009 14382.500000000002 6566.5000000000009 4265673.5000000009 1006.5000000000001 1199.5000000000002 6638.5000000000009 5784.5000000000009 1048.5000000000002 4239317.5000000009 132793.00000000003 325.50000000000006 4252698.5000000009 4265179.5000000009
decision_type=2 2 2 2 2 2 2 2 2 2 2 2 2 2 2 2 2 2 2 2 2 2 2 2 2 2 2 2 2 2
left_child=1 5 7 6 9 10 17 18 15 16 -1 -5 13 -6 -7 21 -3 19 -2 25 -20 -8 28 -14 -9 -4 -21 -27 -11 -15
right_child=2 4 3 11 12 14 8 24 -10 22 -12 -13 23 29 -16 -17 -18 -19 20 26 -22 -23 -24 -25 -26 27 -28 -29 -30 -31
leaf_value=-30.851199999999999 0.6528000000000066 -14.140799999999999 -2.1376000000000022 108.24000000000001 -4.7743999999999964 -23.500799999999998 10.662399999999998 0.14719999999999345 66.502399999999994 -25.094399999999997 -26.9312 179.50080000000003 -2.3071999999999937 -8.6943999999999964 -19.820799999999998 26.601599999999998 -15.705600000000004 6.1120000000000072 -3.7568000000000028 2.0992000000000006 -1.756800000000003 29.142399999999999 -12.143999999999997 -5.8176000000000023 2.1695999999999915 0.80639999999999423 6.4192000000000009 6.6720000000000077 -9.7280000000000015 -10.063999999999997
leaf_weight=7002 583 780 81 16240 450 4309 1929 2638 21386 38 7431 13931 360 2338 7017 28586 6252 2633 3042 1037 1875 12927 4476 4687 3334 177 769 3882 1021 1433
leaf_count=7002 583 780 81 16240 450 4309 1929 2638 21386 38 7431 13931 360 2338 7017 28586 6252 2633 3042 1037 1875 12927 4476 4687 3334 177 769 3882 1021 1433
internal_value=0 -8.41107e-05 3.47699e-05 3.90774e-05 -5.71361e-05 -0.000106976 4.41077e-05 -4.12215e-06 4.61084e-05 -7.01632e-05 -0.000117316 2.68387e-05 -3.94719e-05 -4.78568e-05 -9.37993e-05 4.91314e-05 -7.7258e-05 2.89889e-05 -1.55723e-05 2.53257e-05 -1.78674e-05 4.54803e-05 -6.11496e-05 -3.24593e-05 6.42303e-06 2.93332e-05 1.6139e-05 3.01766e-05 -4.91753e-05 -5.13255e-05
internal_weight=0 47594 115050 103578 21835 25759 73407 11472 64828 12567 14433 30171 9268 4221 11326 43442 7032 8579 5500 5946 4917 14856 5535 5047 5972 4140 1806 4059 1059 3771
internal_count=162644 47594 115050 103578 21835 25759 73407 11472 64828 12567 14433 30171 9268 4221 11326 43442 7032 8579 5500 5946 4917 14856 5535 5047 5972 4140 1806 4059 1059 3771
is_linear=0
shrinkage=0.08


Tree=2
num_leaves=31
num_cat=0
split_feature=6 6 6 6 6 6 6 6 6 6 6 6 0 6 6 0 0 0 0 2 6 2 0 0 5 6 0 4 6 0
split_gain=0.0707969 0.00449886 0.00320406 0.000876533 0.00072862 0.000542649 0.000310884 0.000287116 0.000158318 0.00010718 0.000101002 8.98888e-05 8.22098e-05 7.33502e-05 5.48881e-05 4.61628e-05 4.02846e-05 3.53451e-05 3.9326e-05 3.6677e-05 3.48579e-05 3.09244e-05 3.06379e-05 2.96034e-05 2.83867e-05 2.81388e-05 2.62518e-05 2.06673e-05 1.95485e-05 1.9185e-05
threshold=970.50000000000011 788.50000000000011 1090.5000000000002 2089.5000000000005 880.50000000000011 705.50000000000011 1199.5000000000002 1024.5000000000002 1681.5000000000002 934.50000000000011 650.50000000000011 2638.5000000000005 7091.5000000000009 835.50000000000011 756.50000000000011 14712.500000000002 13348.500000000002 15223.500000000002 6638.5000000000009 4268844.5000000009 1000.5000000000001 4265673.5000000009 5395.5000000000009 5395.5000000000009 142693.00000000003 1048.5000000000002 5784.5000000000009 4258922.5000000009 1281.5000000000002 6566.5000000000009
decision_type=2 2 2 2 2 2 2 2 2 2 2 2 2 2 2 2 2 2 2 2 2 2 2 2 2 2 2 2 2 2
left_child=1 5 7 6 13 10 15 20 16 12 -1 -5 27 23 -7 21 28 18 -9 25 -2 -4 -15 -3 -23 -20 -11 -6 -8 -22
right_child=2 4 3 11 9 14 8 17 -10 26 -12 -13 -14 22 -16 -17 -18 -19 19 -21 29 24 -24 -25 -26 -27 -28 -29 -30 -31
leaf_value=-28.383104000000003 -3.5921920000000047 -14.289535999999998 7.232639999999992 99.580799999999996 -9.4361599999999992 -20.977536000000001 13.211008000000001 7.5960319999999957 61.182207999999996 -1.9626239999999961 -24.776703999999999 165.140736 -9.1284479999999988 -11.399935999999999 -17.563136000000004 7.1174399999999878 26.313472000000001 2.7974399999999879 -0.50457599999999725 -1.7045759999999974 3.2405760000000008 3.1694080000000033 -12.196480000000001 -15.249152000000004 8.6094080000000037 2.1146880000000055 -5.688191999999999 -6.2361599999999999 32.491008000000001 -1.936255999999994
leaf_weight=7002 3412 681 5411 16240 177 6478 3816 595 21386 314 7431 13931 4947 489 4112 3481 24775 1315 1618 924 279 1603 5025 5020 771 2821 4058 1185 10863 2484
leaf_count=7002 3412 681 5411 16240 177 6478 3816 595 21386 314 7431 13931 4947 489 4112 3481 24775 1315 1618 924 279 1603 5025 5020 771 2821 4058 1185 10863 2484
internal_value=0 -8.30396e-05 3.3461e-05 3.82879e-05 -5.65574e-05 -0.000106212 4.30785e-05 -3.24922e-06 4.5339e-05 -4.16036e-05 -0.000116304 2.68387e-05 -4.82748e-05 -7.07992e-05 -9.24591e-05 3.08714e-05 4.83435e-05 7.52167e-06 4.90161e-06 2.73673e-06 -1.59353e-05 2.74471e-05 -6.42206e-05 -7.7162e-05 1.98349e-05 5.75513e-06 -3.19768e-05 -3.08706e-05 4.50225e-05 -9.25595e-06
internal_weight=0 46919 115725 102277 21896 25023 72106 13448 60840 10681 14433 30171 6309 11215 10590 11266 39454 7273 5958 5363 6175 7785 5514 5701 2374 4439 4372 1362 14679 2763
internal_count=162644 46919 115725 102277 21896 25023 72106 13448 60840 10681 14433 30171 6309 11215 10590 11266 39454 7273 5958 5363 6175 7785 5514 5701 2374 4439 4372 1362 14679 2763
is_linear=0
shrinkage=0.08


Tree=3
num_leaves=31
num_cat=0
split_feature=6 6 6 6 6 6 6 6 6 6 6 6 0 6 6 6 6 0 0 0 0 0 5 2 2 0 6 0 5 7
split_gain=0.0670825 0.00462726 0.00298593 0.000776951 0.00073179 0.000528938 0.000360272 0.000246696 0.000168415 0.000103543 0.000101092 8.50171e-05 7.14775e-05 7.02038e-05 6.91157e-05 4.37416e-05 4.05939e-05 3.56615e-05 3.55576e-05 3.32028e-05 3.04428e-05 2.90979e-05 3.04386e-05 3.77292e-05 2.87082e-05 2.53744e-05 2.37797e-05 2.36875e-05 2.30591e-05 2.28372e-05
threshold=970.50000000000011 782.50000000000011 1090.5000000000002 880.50000000000011 2167.5000000000005 705.50000000000011 1234.5000000000002 1030.5000000000002 1681.5000000000002 934.50000000000011 640.50000000000011 835.50000000000011 6716.5000000000009 1121.5000000000002 2789.5000000000005 739.50000000000011 1006.5000000000001 5395.5000000000009 13348.500000000002 5395.5000000000009 17072.500000000004 15223.500000000002 141767.50000000003 4268844.5000000009 4265673.5000000009 7818.5000000000009 1921.5000000000002 8029.5000000000009 143456.50000000003 328.50000000000006
decision_type=2 2 2 2 2 2 2 2 2 2 2 2 2 2 2 2 2 2 2 2 2 2 2 2 2 2 2 2 2 2
left_child=1 5 7 11 6 10 13 16 18 12 -1 19 -5 -4 -6 -7 25 -13 -8 -3 24 22 23 29 -15 -2 -10 -11 -26 -9
right_child=2 3 4 9 14 15 8 21 26 27 -12 17 -14 20 -16 -17 -18 -19 -20 -21 -22 -23 -24 -25 28 -27 -28 -29 -30 -31
leaf_value=-26.512455680000002 -1.3048166400000083 -13.626373119999998 3.786828800000003 -6.171955200000002 98.889477119999995 -19.94253312 26.531727360000005 -1.9842099199999939 49.88763136 -4.0331366400000022 -22.992455680000003 -10.487941119999997 -8.3622041599999921 8.2536448000000018 165.68947712000002 -17.116933120000002 -1.1413555199999974 -11.220761600000005 25.638794240000006 -14.183203840000006 8.6560768000000099 2.6522367999999914 3.5068569599999866 -2.4116019199999936 4.954127360000002 -3.3896806400000061 69.618831360000001 -5.3131366400000024 9.3541273600000032 1.3468569599999864
leaf_weight=5675 918 774 3315 1139 16129 4309 13008 302 13566 1154 8758 489 5170 6345 11105 5532 2731 5025 23119 5676 2038 1230 1513 573 2104 3188 10757 3218 791 2993
leaf_count=5675 918 774 3315 1139 16129 4309 13008 302 13566 1154 8758 489 5170 6345 11105 5532 2731 5025 23119 5676 2038 1230 1513 573 2104 3188 10757 3218 791 2993
internal_value=0 -8.07912e-05 3.26121e-05 -5.47799e-05 3.72718e-05 -0.000105057 4.13483e-05 -2.82646e-06 4.40718e-05 -3.90967e-05 -0.000114808 -6.87812e-05 -4.56537e-05 3.00666e-05 2.60388e-05 -9.07554e-05 -1.34812e-05 -6.14874e-05 4.75366e-05 -7.50165e-05 3.30749e-05 8.19253e-06 5.65502e-06 1.89191e-06 3.11229e-05 -1.85086e-05 3.89256e-05 -2.96347e-05 2.45213e-05 5.18675e-06
internal_weight=0 46919 115725 22645 102277 24274 75043 13448 60450 10681 14433 11964 6309 14593 27234 9841 6837 5514 36127 6450 11278 6611 5381 3868 9240 4106 24323 4372 2895 3295
internal_count=162644 46919 115725 22645 102277 24274 75043 13448 60450 10681 14433 11964 6309 14593 27234 9841 6837 5514 36127 6450 11278 6611 5381 3868 9240 4106 24323 4372 2895 3295
is_linear=0
shrinkage=0.08


Tree=4
num_leaves=31
num_cat=0
split_feature=6 6 6 6 6 6 6 6 6 6 6 6 6 6 0 0 6 6 0 6 0 0 1 2 6 2 6 1 0 5
split_gain=0.0633982 0.00424317 0.00337697 0.000707314 0.000598741 0.000457443 0.000418079 0.000277859 0.000153173 0.000111513 7.35707e-05 7.08731e-05 6.02551e-05 5.85068e-05 5.72772e-05 5.10892e-05 4.8436e-05 4.7045e-05 4.58195e-05 3.65179e-05 3.52908e-05 2.9851e-05 2.79469e-05 2.47456e-05 2.23862e-05 2.32278e-05 2.22897e-05 2.10844e-05 2.10771e-05 2.78697e-05
threshold=958.50000000000011 771.50000000000011 1090.5000000000002 863.50000000000011 2215.5000000000005 680.50000000000011 1254.5000000000002 1012.5000000000001 1773.5000000000002 910.50000000000011 728.50000000000011 1128.5000000000002 630.50000000000011 2789.5000000000005 5288.5000000000009 4272.5000000000009 1048.5000000000002 829.50000000000011 6483.5000000000009 1316.5000000000002 7471.5000000000009 16959.500000000004 5709958.5000000009 4260950.5000000009 934.50000000000011 4265179.5000000009 1671.5000000000002 5708916.5000000009 15223.500000000002 147383.50000000003
decision_type=2 2 2 2 2 2 2 2 2 2 2 2 2 2 2 2 2 2 2 2 2 2 2 2 2 2 2 2 2 2
left_child=1 5 7 15 6 12 11 20 19 18 -7 -4 -1 -6 -11 -3 -9 -17 22 -8 27 23 -5 -13 25 -16 -21 -2 29 -18
right_child=2 3 4 9 13 10 8 16 -10 14 -12 21 -14 -15 24 17 28 -19 -20 26 -22 -23 -24 -25 -26 -27 -28 -29 -30 -31
leaf_value=-24.791459225600001 -9.7212633087999993 -11.108730470400005 3.7939650559999976 -17.441929830400003 93.538318950399997 -19.223930470400003 12.077290700800004 -0.38095011839999643 59.096620851199987 -0.3597987839999951 -16.548730470400006 8.730505216000001 -22.263971225599999 152.43431895039998 -5.8987958271999927 -13.428730470400005 0.679108403199989 -11.134563532800003 -8.8031006720000011 27.757290700800006 -3.2004313088000074 8.4435906560000156 -6.4363806720000047 6.3549532159999949 -5.1280857087999996 -7.4596278271999932 40.056620851199987 -0.36736163839999791 2.920057855999985 4.4959404031999837
leaf_weight=4263 63 375 4021 65 14374 6167 5754 4005 20447 340 5566 4038 6886 11105 1649 6845 2885 4084 4573 27739 5080 2500 867 6018 2774 1017 6281 1113 901 849
leaf_count=4263 63 375 4021 65 14374 6167 5754 4005 20447 340 5566 4038 6886 11105 1649 6845 2885 4084 4573 27739 5080 2500 867 6018 2774 1017 6281 1113 901 849
internal_value=0 -8.03055e-05 3.09871e-05 -5.57094e-05 3.61702e-05 -0.000104587 3.96958e-05 -4.60008e-06 4.27927e-05 -4.15413e-05 -9.35605e-05 2.84454e-05 -0.00011619 2.55433e-05 -3.37803e-05 -6.98537e-05 4.69726e-06 -7.085e-05 -4.96899e-05 4.56855e-05 -1.74404e-05 3.14056e-05 -3.35229e-05 2.94607e-05 -3.57712e-05 -4.10061e-05 4.66824e-05 -4.95218e-06 1.02652e-05 7.61519e-06
internal_weight=0 45471 117173 22589 102277 22882 76798 14896 60221 11285 11733 16577 11149 25479 5780 11304 8640 10929 5505 39774 6256 12556 932 10056 5440 2666 34020 1176 4635 3734
internal_count=162644 45471 117173 22589 102277 22882 76798 14896 60221 11285 11733 16577 11149 25479 5780 11304 8640 10929 5505 39774 6256 12556 932 10056 5440 2666 34020 1176 4635 3734
is_linear=0
shrinkage=0.08


Tree=5
num_leaves=31
num_cat=0
split_feature=6 6 6 6 6 6 6 6 6 6 6 0 6 0 6 6 6 0 0 0 6 6 0 2 4 2 0 6 3 3
split_gain=0.0598121 0.00436382 0.0031809 0.000592845 0.00056589 0.000558444 0.000346802 0.000332739 0.000120945 0.000101638 9.99695e-05 6.88361e-05 5.6924e-05 5.06375e-05 4.7265e-05 4.48443e-05 4.37915e-05 4.35565e-05 4.28068e-05 3.99822e-05 3.39422e-05 3.23597e-05 3.07406e-05 3.02453e-05 2.77231e-05 2.52424e-05 2.32176e-05 2.26201e-05 2.07636e-05 2.20775e-05
threshold=958.50000000000011 782.50000000000011 1114.5000000000002 705.50000000000011 863.50000000000011 2215.5000000000005 1030.5000000000002 1267.5000000000002 1773.5000000000002 910.50000000000011 640.50000000000011 5073.5000000000009 2789.5000000000005 5500.5000000000009 1000.5000000000001 751.50000000000011 1072.5000000000002 16959.500000000004 7091.5000000000009 15313.500000000002 1368.5000000000002 818.50000000000011 3893.5000000000005 4260871.5000000009 4252297.5000000009 4262093.5000000009 7471.5000000000009 934.50000000000011 5711937.5000000009 5730922.0000000009
decision_type=2 2 2 2 2 2 2 2 2 2 2 2 2 2 2 2 2 2 2 2 2 2 2 2 2 2 2 2 2 2
left_child=1 3 6 10 11 7 14 17 19 18 -1 28 -7 -11 26 22 -8 23 24 20 -9 -13 -5 -4 -6 -18 -2 -15 -3 -30
right_child=2 4 5 15 9 12 16 8 -10 13 -12 21 -14 27 -16 -17 25 -19 -20 -21 -22 -23 -24 -25 -26 -27 -28 -29 29 -31
leaf_value=-22.408142487552006 -1.4582743777279938 -16.391164747776003 7.973148753919995 -16.023680032768006 -24.211714285568007 86.055253434367984 0.74812565094400274 12.711107444736008 54.36889118310399 -1.1341792460800024 -19.451941527551998 -12.540265095168007 140.239573434368 -6.2268921610239891 -1.0941465640959904 -14.024832032768009 3.7813877309439885 7.8456714035200097 -8.1089797734399873 25.20710744473601 31.572091183103986 -10.392335589375998 -16.543232032768 5.7421089587200003 -6.3888883302399977 2.0341877309439953 -3.3424716840959992 -4.7018388520960075 -8.7581407477759967 -14.685498187775993
leaf_weight=5675 932 41 4844 273 29 14374 4615 5180 20447 406 8758 3938 11105 2630 3425 4022 2142 3062 4235 20383 12928 5152 5546 7343 1241 2465 3928 2744 738 43
leaf_count=5675 932 41 4844 273 29 14374 4615 5180 20447 406 8758 3938 11105 2630 3425 4022 2142 3062 4235 20383 12928 5152 5546 7343 1241 2465 3928 2744 738 43
internal_value=0 -7.79368e-05 3.01624e-05 -0.000101096 -5.14158e-05 3.56868e-05 -1.28742e-06 3.91962e-05 4.19214e-05 -3.91655e-05 -0.00011142 -6.53631e-05 2.54685e-05 -3.17561e-05 -1.31667e-05 -8.59552e-05 9.38489e-06 2.86631e-05 -4.6945e-05 4.45628e-05 4.18272e-05 -6.73679e-05 -9.04449e-05 2.652e-05 -3.40627e-05 1.49025e-05 -1.82393e-05 -3.38142e-05 -4.31932e-05 -4.028e-05
internal_weight=0 45471 117173 24274 21197 99666 17507 74187 58938 11285 14433 9912 25479 5780 8285 9841 9222 15249 5505 38491 18108 9090 5819 12187 1270 4607 4860 5374 822 781
internal_count=162644 45471 117173 24274 21197 99666 17507 74187 58938 11285 14433 9912 25479 5780 8285 9841 9222 15249 5505 38491 18108 9090 5819 12187 1270 4607 4860 5374 822 781
is_linear=0
shrinkage=0.08


Tree=6
num_leaves=31
num_cat=0
split_feature=6 6 6 6 6 6 6 6 6 6 6 6 0 6 6 6 6 0 0 0 5 2 6 2 2 0 3 5 0 0
split_gain=0.0562469 0.00441041 0.0029953 0.000752218 0.000472005 0.000400552 0.000352359 0.000325113 0.000109811 9.19178e-05 7.42495e-05 7.40442e-05 6.27164e-05 5.16319e-05 5.15229e-05 4.74092e-05 4.44913e-05 4.04221e-05 3.95083e-05 3.69797e-05 3.42254e-05 3.14342e-05 3.11146e-05 2.84095e-05 2.80663e-05 2.78057e-05 2.36949e-05 2.3351e-05 2.20604e-05 2.35406e-05
threshold=958.50000000000011 761.50000000000011 1121.5000000000002 863.50000000000011 2267.5000000000005 675.50000000000011 1281.5000000000002 1024.5000000000002 1773.5000000000002 916.50000000000011 716.50000000000011 800.50000000000011 5500.5000000000009 630.50000000000011 1066.5000000000002 2898.5000000000005 1368.5000000000002 5288.5000000000009 6566.5000000000009 17072.500000000004 195214.00000000003 4252698.5000000009 1000.5000000000001 4260871.5000000009 4265318.5000000009 3893.5000000000005 5710928.5000000009 143456.50000000003 16356.500000000002 6638.5000000000009
decision_type=2 2 2 2 2 2 2 2 2 2 2 2 2 2 2 2 2 2 2 2 2 2 2 2 2 2 2 2 2 2
left_child=1 5 7 11 6 13 19 22 16 18 -7 20 26 -1 28 -6 -8 -11 21 23 -3 -5 -2 -4 -16 -12 -13 -25 29 -9
right_child=2 3 4 9 15 10 8 14 -10 17 25 12 -14 -15 24 -17 -18 -19 -20 -21 -22 -23 -24 27 -26 -27 -28 -29 -30 -31
leaf_value=-21.015491088547844 -2.7742739493683075 -12.352445470146568 7.7646448984064049 -22.274777142722559 82.69569203961855 -16.667501465763845 11.760138849157119 5.5664221588684812 50.881188528455681 0.30691945840640072 -12.701337630146563 -16.094205007953914 -9.9960207422259195 -19.006698205347838 3.1850542730444795 138.54040755961856 27.510538849157129 -4.8856917439283283 -7.2562293915647933 7.5727671312383977 -2.5828454701465673 -5.4974892638207988 -1.106480848568308 4.6999816372223906 1.2316462730444802 -14.700221470146571 -7.8871249777459163 8.5245601972223994 2.3100758133964701 -0.20858497073153559
leaf_weight=4263 4860 4793 5047 29 14328 5391 7716 399 22195 291 251 36 6861 6205 3901 9403 29483 4753 5154 3192 59 1058 2763 5642 2046 5477 850 1956 475 3767
leaf_count=4263 4860 4793 5047 29 14328 5391 7716 399 22195 291 251 36 6861 6205 3901 9403 29483 4753 5154 3192 59 1058 2763 5642 2046 5477 850 1956 475 3767
internal_value=0 -7.5559e-05 2.9269e-05 -5.18723e-05 3.47559e-05 -0.000101766 3.7859e-05 -5.47956e-07 4.06861e-05 -3.68711e-05 -9.11925e-05 -6.53089e-05 -6.04554e-05 -0.000112997 8.52181e-06 2.49188e-05 4.33432e-05 -2.88399e-05 -4.33619e-05 2.72562e-05 -7.30584e-05 -2.95019e-05 -1.31454e-05 2.5314e-05 1.34517e-05 -8.48504e-05 -4.04249e-05 2.22235e-05 2.20459e-06 3.42164e-07
internal_weight=0 45471 117173 23884 98962 21587 75231 18211 59394 11285 11119 12599 7747 10468 10588 23731 37199 5044 6241 15837 4852 1087 7623 12645 5947 5728 886 7598 4641 4166
internal_count=162644 45471 117173 23884 98962 21587 75231 18211 59394 11285 11119 12599 7747 10468 10588 23731 37199 5044 6241 15837 4852 1087 7623 12645 5947 5728 886 7598 4641 4166
is_linear=0
shrinkage=0.08


Tree=7
num_leaves=31
num_cat=0
split_feature=6 6 6 6 6 6 6 6 6 6 6 0 6 6 6 0 0 6 6 6 0 0 5 0 2 1 3 6 2 0
split_gain=0.0525795 0.00423286 0.00302967 0.000698983 0.000388652 0.0003825 0.000375817 0.000318649 0.000105432 9.12936e-05 6.68376e-05 6.09648e-05 6.04886e-05 5.26719e-05 4.46022e-05 4.37123e-05 4.21194e-05 3.6286e-05 3.50617e-05 3.4303e-05 3.39875e-05 3.23999e-05 3.10787e-05 3.09718e-05 2.94131e-05 2.8686e-05 2.58618e-05 2.49597e-05 2.46847e-05 2.43669e-05
threshold=952.50000000000011 756.50000000000011 1121.5000000000002 863.50000000000011 2358.5000000000005 1288.5000000000002 675.50000000000011 1024.5000000000002 1921.5000000000002 800.50000000000011 910.50000000000011 5500.5000000000009 716.50000000000011 630.50000000000011 1072.5000000000002 5288.5000000000009 16051.500000000002 1178.5000000000002 1406.5000000000002 3019.5000000000005 8372.5000000000018 7541.5000000000009 195214.00000000003 11807.500000000002 4249371.5000000009 5708916.5000000009 5710928.5000000009 1681.5000000000002 4265113.5000000009 3893.5000000000005
decision_type=2 2 2 2 2 2 2 2 2 2 2 2 2 2 2 2 2 2 2 2 2 2 2 2 2 2 2 2 2 2
left_child=1 6 7 9 5 17 13 20 16 22 21 26 -8 -1 -9 -12 18 -4 -7 -6 25 24 -3 -22 -5 -2 -11 -18 -19 -14
right_child=2 3 4 10 19 8 12 14 -10 11 15 -13 29 -15 -16 -17 27 28 -20 -21 23 -23 -24 -25 -26 -27 -28 -29 -30 -31
leaf_value=-19.334251801464017 -8.3241263779283052 -11.477713529942839 4.4546283207393387 -21.629525083304763 81.275177796449057 11.910906211624551 -15.334101348502736 0.53203098865502396 53.829041785379232 -14.806668607317606 0.28236590173389231 -9.1963390828478442 -12.525678619734846 -17.486162348920015 2.5042659312009166 -4.7508364044140583 20.739327741224553 8.0841059862445945 30.400497042155113 139.45717495484908 -3.1779623806828479 -6.8696358850396155 -2.3762178325348398 -1.6467115534188543 -5.6939781227151256 -0.6300705115603068 -7.2561549795262454 32.908884806179216 5.9287174786580543 -13.669739752534843
leaf_weight=4263 120 5467 5903 27 13113 6208 5391 5277 17164 36 306 6861 225 6205 5311 4765 14520 6990 15314 7714 2948 3964 61 3112 1514 2152 850 8476 3560 4827
leaf_count=4263 120 5467 5903 27 13113 6208 5391 5277 17164 36 306 6861 225 6205 5311 4765 14520 6990 15314 7714 2948 3964 61 3112 1514 2152 850 8476 3560 4827
internal_value=0 -7.37456e-05 2.80992e-05 -5.07107e-05 3.3707e-05 3.62953e-05 -0.000100019 -1.23256e-06 3.91862e-05 -6.29347e-05 -3.53671e-05 -5.73305e-05 -8.92814e-05 -0.000110731 7.97731e-06 -2.87408e-05 4.12399e-05 2.54576e-05 3.86963e-05 2.39964e-05 -1.29361e-05 -4.1471e-05 -7.07884e-05 -1.60647e-05 -3.16275e-05 -4.59149e-06 -3.75818e-05 4.36205e-05 2.82678e-05 -8.29919e-05
internal_weight=0 44762 117882 23851 98962 78135 20911 18920 61682 13275 10576 7747 10443 10468 10588 5071 44518 16453 21522 20827 8332 5505 5528 6060 1541 2272 886 22996 10550 5052
internal_count=162644 44762 117882 23851 98962 78135 20911 18920 61682 13275 10576 7747 10443 10468 10588 5071 44518 16453 21522 20827 8332 5505 5528 6060 1541 2272 886 22996 10550 5052
is_linear=0
shrinkage=0.08


Tree=8
num_leaves=31
num_cat=0
split_feature=6 6 6 6 6 6 6 6 6 6 0 6 6 6 0 6 0 2 6 6 6 5 0 6 5 0 2 5 3 6
split_gain=0.0488618 0.00358727 0.00353064 0.000496895 0.000392135 0.00038938 0.000306891 0.000416832 8.92997e-05 6.82148e-05 6.26092e-05 5.72767e-05 5.39282e-05 5.36858e-05 5.02325e-05 4.57303e-05 4.18018e-05 3.81908e-05 3.21207e-05 3.19479e-05 3.11354e-05 2.83634e-05 2.82607e-05 2.77429e-05 2.50352e-05 2.4365e-05 2.33824e-05 2.33473e-05 2.20049e-05 2.14436e-05
threshold=934.50000000000011 756.50000000000011 1121.5000000000002 852.50000000000011 675.50000000000011 1012.5000000000001 2377.5000000000005 1324.5000000000002 1921.5000000000002 800.50000000000011 5500.5000000000009 716.50000000000011 630.50000000000011 1066.5000000000002 5073.5000000000009 1206.5000000000002 16051.500000000002 4265179.5000000009 970.50000000000011 3019.5000000000005 892.50000000000011 195214.00000000003 16356.500000000002 1437.5000000000002 147383.50000000003 4272.5000000000009 4265318.5000000009 195214.00000000003 5705929.5000000009 1681.5000000000002
decision_type=2 2 2 2 2 2 2 2 2 2 2 2 2 2 2 2 2 2 2 2 2 2 2 2 2 2 2 2 2 2
left_child=1 4 5 9 12 18 7 15 16 21 -5 -6 -1 22 -11 -4 23 20 -2 -8 -12 28 -7 -9 26 -13 -15 -16 -3 -18
right_child=2 3 6 10 11 13 19 8 -10 14 17 25 -14 24 27 -17 29 -19 -20 -21 -22 -23 -24 -25 -26 -27 -28 -29 -30 -31
leaf_value=-17.787511657346894 -3.3531694920609425 -12.766032750139411 4.5000132321450295 -3.521117736364149 -14.10737324062252 -0.18928388546021779 75.493163572733138 12.469955749182683 49.824065463348873 -6.8480937363641443 -6.5701921694364316 -12.785960330156049 -16.08726936100641 2.4275628579325166 -8.7216551015486594 7.5345815219265937 20.300149521926578 -6.87378397627469 -1.8365311091453442 128.30060095846116 -4.6172351458783947 -2.1861204059320518 2.319234631280342 29.773441017150674 4.3946571761288213 -12.552096572332058 0.29277329670483598 -2.2534894620120212 -10.356432750139412 30.276174021684874
leaf_weight=4263 4372 476 8644 805 5391 5429 12538 5630 17739 525 2835 373 6205 3166 5757 11057 13341 3309 4808 7714 2807 61 579 13823 1164 4679 1617 70 4991 8476
leaf_count=4263 4372 476 8644 805 5391 5429 12538 5630 17739 525 2835 373 6205 3166 5757 11057 13341 3309 4808 7714 2807 61 579 13823 1164 4679 1617 70 4991 8476
internal_value=0 -7.36031e-05 2.61653e-05 -5.07663e-05 -9.72318e-05 -3.516e-06 3.25043e-05 3.47641e-05 3.8128e-05 -6.17528e-05 -3.73878e-05 -8.62635e-05 -0.000108174 5.9993e-06 -5.60976e-05 2.46885e-05 4.01683e-05 -3.93097e-05 -1.59077e-05 2.37216e-05 -3.53078e-05 -6.8251e-05 6.65595e-07 3.7472e-05 1.13877e-05 -8.01432e-05 8.8271e-06 -5.8233e-05 -6.88563e-05 4.25725e-05
internal_weight=0 42547 120097 21636 20911 21135 98962 78710 59009 11880 9756 10443 10468 11955 6352 19701 41270 8951 9180 20252 5642 5528 6008 19453 5947 5052 4783 5827 5467 21817
internal_count=162644 42547 120097 21636 20911 21135 98962 78710 59009 11880 9756 10443 10468 11955 6352 19701 41270 8951 9180 20252 5642 5528 6008 19453 5947 5052 4783 5827 5467 21817
is_linear=0
shrinkage=0.08


Tree=9
num_leaves=31
num_cat=0
split_feature=6 6 6 6 6 6 6 6 6 6 6 6 0 6 6 6 6 0 0 0 0 2 6 2 0 2 5 0 2 4
split_gain=0.0452666 0.0036361 0.00329052 0.000541699 0.000385197 0.000339341 0.000279431 0.000391442 7.36781e-05 6.75305e-05 6.70182e-05 6.47963e-05 5.62151e-05 4.85371e-05 4.7642e-05 4.5112e-05 4.26987e-05 4.20127e-05 3.81382e-05 3.11174e-05 3.2533e-05 3.88745e-05 2.96051e-05 2.85794e-05 2.62149e-05 2.53564e-05 2.30818e-05 2.27579e-05 2.20973e-05 2.1206e-05
threshold=934.50000000000011 751.50000000000011 1121.5000000000002 846.50000000000011 670.50000000000011 1012.5000000000001 1281.5000000000002 2284.5000000000005 1390.5000000000002 716.50000000000011 800.50000000000011 1773.5000000000002 5500.5000000000009 875.50000000000011 1048.5000000000002 625.50000000000011 2859.5000000000005 4705.5000000000009 16051.500000000002 17996.500000000004 10029.500000000002 4241196.0000000009 970.50000000000011 4266993.5000000009 4272.5000000000009 4266492.5000000009 195214.00000000003 19607.500000000004 4263327.5000000009 4256976.5000000009
decision_type=2 2 2 2 2 2 2 2 2 2 2 2 2 2 2 2 2 2 2 2 2 2 2 2 2 2 2 2 2 2
left_child=1 4 5 10 15 22 19 8 27 -6 26 18 29 -14 -7 -1 -9 -12 -10 20 21 -4 -2 -15 -11 -16 -3 28 -8 -5
right_child=2 3 6 12 9 14 7 16 11 24 17 -13 13 23 25 -17 -18 -19 -20 -21 -22 -23 -24 -25 -26 -27 -28 -29 -30 -31
leaf_value=-16.524510724759146 -3.0849159326960671 -9.8421165475362518 -10.279330017696866 -18.439428317455015 -12.993839385755436 -0.25414117462340075 9.9974150001724595 64.79936936691449 23.128080467810634 -12.047747745919578 -5.7220036774550138 39.889340226280964 -6.573224582665107 -4.8134812581727147 2.2803627462321674 -15.040287812125898 104.83655288178427 -8.1495488204488904 21.546537560172457 6.4498818406925604 3.830331790680193 9.3455019823031407 -1.6896086204137191 -5.7802894513344567 -11.626008846545492 0.45369586077791613 -2.4206553437435652 10.131815000172464 7.1485387843599897 -3.0404824539887798
leaf_weight=3552 4372 6120 21 37 6095 4005 4517 13204 13202 337 319 22761 3219 4675 5682 6212 9961 5308 14388 2398 9567 3851 4808 1698 4056 2268 67 1813 3279 852
leaf_count=3552 4372 6120 21 37 6095 4005 4517 13204 13202 337 319 22761 3219 4675 5682 6212 9961 5308 14388 2398 9567 3851 4808 1698 4056 2268 67 1813 3279 852
internal_value=0 -7.08397e-05 2.51883e-05 -4.855e-05 -9.53779e-05 -3.46603e-06 3.13079e-05 3.31634e-05 3.65756e-05 -8.47324e-05 -6.02954e-05 3.78007e-05 -3.53108e-05 -3.70944e-05 5.41684e-06 -0.000106813 2.43311e-05 -5.39773e-05 4.04074e-05 2.15687e-05 2.00707e-05 2.62579e-05 -1.50341e-05 -3.305e-05 -7.71711e-05 9.00134e-06 -6.60417e-05 3.01563e-05 2.82788e-05 -1.60657e-05
internal_weight=0 42547 120097 22295 20252 21135 98962 83125 59960 10488 11814 50351 10481 9592 11955 9764 23165 5627 27590 15837 13439 3872 9180 6373 4393 7950 6187 9609 7796 889
internal_count=162644 42547 120097 22295 20252 21135 98962 83125 59960 10488 11814 50351 10481 9592 11955 9764 23165 5627 27590 15837 13439 3872 9180 6373 4393 7950 6187 9609 7796 889
is_linear=0
shrinkage=0.08


Tree=10
num_leaves=31
num_cat=0
split_feature=6 6 6 6 6 6 6 6 6 6 0 6 6 6 6 6 6 0 6 0 0 0 0 2 5 2 3 1 0 5
split_gain=0.0419261 0.00352356 0.00302392 0.000450952 0.000445773 0.000370321 0.000222203 0.000349254 7.60712e-05 6.63375e-05 5.34749e-05 5.24044e-05 5.23836e-05 6.23136e-05 5.03908e-05 4.71063e-05 4.23854e-05 4.19171e-05 3.76192e-05 3.60443e-05 2.95169e-05 2.63596e-05 2.62628e-05 2.68271e-05 3.31632e-05 2.61935e-05 2.50429e-05 2.69243e-05 2.44302e-05 2.30647e-05
threshold=934.50000000000011 756.50000000000011 1146.5000000000002 846.50000000000011 670.50000000000011 1030.5000000000002 1331.5000000000002 2284.5000000000005 716.50000000000011 800.50000000000011 5500.5000000000009 625.50000000000011 1437.5000000000002 1681.5000000000002 1000.5000000000001 875.50000000000011 2859.5000000000005 4705.5000000000009 1072.5000000000002 16356.500000000002 7471.5000000000009 3893.5000000000005 19761.500000000004 4260950.5000000009 19095.000000000004 4265179.5000000009 5705929.5000000009 5721465.5000000009 15141.500000000002 186849.00000000003
decision_type=2 2 2 2 2 2 2 2 2 2 2 2 2 2 2 2 2 2 2 2 2 2 2 2 2 2 2 2 2 2
left_child=1 4 5 9 11 14 22 12 -6 26 -5 -1 -8 19 -2 -12 -9 -11 -7 -14 -20 -10 23 24 -4 -17 -3 -28 -22 -29
right_child=2 3 6 10 8 18 7 16 21 17 15 -13 13 -15 -16 25 -18 -19 20 -21 28 -23 -24 -25 -26 -27 27 29 -30 -31
leaf_value=-15.202549866778417 -2.4157226580803761 -10.957380806325355 2.3514241837764893 -3.2341230761439057 -11.954332234895 0.45176768857285426 10.071733355676734 59.615419817561325 -9.6332860199406607 -5.2642433832586084 -6.0473666160518951 -13.837064787155823 21.985935559985791 34.086993008178489 -0.67764123018332612 -4.2833612239505969 96.449628651241511 -7.4975849148129781 7.7159070629159583 21.182814555358654 1.3590754390487201 -10.656376138821861 6.8999082360127613 4.7639438435594279 7.042842817630226 -5.2442662952276988 -8.1747472237333483 -9.3747472237333476 2.6451277001061864 -3.4726169091247083
leaf_weight=3552 7784 483 614 889 6095 4615 8981 13204 225 319 3219 6212 9075 28392 3425 4004 9961 5308 918 8980 5125 4827 1916 9284 5944 2369 2265 2718 1879 62
leaf_count=3552 7784 483 614 889 6095 4615 8981 13204 225 319 3219 6212 9075 28392 3425 4004 9961 5308 918 8980 5125 4827 1916 9284 5944 2369 2265 2718 1879 62
internal_value=0 -6.82676e-05 2.41491e-05 -4.56344e-05 -9.16855e-05 -1.42158e-06 3.04511e-05 3.22772e-05 -8.07536e-05 -5.68297e-05 -3.37193e-05 -0.000104166 3.57249e-05 3.68063e-05 -1.19873e-05 -3.54589e-05 2.40279e-05 -5.07149e-05 8.02491e-06 4.04808e-05 1.13697e-05 -7.34946e-05 2.23688e-05 2.12989e-05 2.52159e-05 -3.14745e-05 -6.30539e-05 -6.13879e-05 9.60178e-06 -6.66631e-05
internal_weight=0 42547 120097 21636 20911 23746 96351 78593 11147 11155 10481 9764 55428 46447 11209 9592 23165 5627 12537 18055 7922 5052 17758 15842 6558 6373 5528 5045 7004 2780
internal_count=162644 42547 120097 21636 20911 23746 96351 78593 11147 11155 10481 9764 55428 46447 11209 9592 23165 5627 12537 18055 7922 5052 17758 15842 6558 6373 5528 5045 7004 2780
is_linear=0
shrinkage=0.08


Tree=11
num_leaves=31
num_cat=0
split_feature=6 6 6 6 6 6 6 6 6 6 6 6 6 0 4 6 6 0 5 6 0 6 2 0 0 3 2 0 0 3
split_gain=0.0384431 0.00344168 0.00276802 0.000563765 0.000342528 0.00032246 0.00023729 0.000278425 9.05337e-05 6.2712e-05 6.23951e-05 5.95795e-05 4.90332e-05 4.30923e-05 4.26709e-05 4.23834e-05 4.05386e-05 3.68786e-05 3.64616e-05 3.62409e-05 3.32622e-05 3.28793e-05 2.99403e-05 2.69313e-05 2.52324e-05 2.4689e-05 2.43481e-05 2.38106e-05 2.76146e-05 2.35859e-05
threshold=934.50000000000011 739.50000000000011 1153.5000000000002 846.50000000000011 1024.5000000000002 670.50000000000011 1338.5000000000002 2284.5000000000005 800.50000000000011 1468.5000000000002 1681.5000000000002 630.50000000000011 875.50000000000011 5500.5000000000009 4246547.5000000009 2859.5000000000005 1072.5000000000002 5959.5000000000009 195214.00000000003 976.50000000000011 21061.500000000004 711.50000000000011 4266993.5000000009 17176.500000000004 5395.5000000000009 5710928.5000000009 4260950.5000000009 7885.5000000000009 17407.500000000004 5709025.5000000009
decision_type=2 2 2 2 2 2 2 2 2 2 2 2 2 2 2 2 2 2 2 2 2 2 2 2 2 2 2 2 2 2
left_child=1 5 4 8 19 11 27 9 24 20 23 -1 -5 25 -7 -9 -6 -14 21 -2 26 -16 -19 -11 29 -10 -8 -4 -29 -3
right_child=2 3 6 12 16 14 7 15 13 10 -12 -13 17 -15 18 -17 -18 22 -20 -21 -22 -23 -24 -25 -26 -27 -28 28 -30 -31
leaf_value=-13.906345877436143 -2.5424648454339422 -17.003368261819332 12.665602398308474 -5.553252252198754 0.36353272168347756 -13.302929651720678 11.278959185586919 54.846186232156434 -12.030097059957971 21.686659414256376 31.360033567524205 -12.62129960418336 -2.3527514812431494 -6.8639863550671816 -11.062929651720678 88.733658359142169 2.0477254840976822 -4.10069232603455 -6.5179856561034013 -1.1834299317686601 11.177789390929957 -10.083418047716105 -4.9715167984477375 20.768189390929965 -8.44386604771611 -5.4302329786340673 7.943006915892056 4.6228283360746723 5.8001541551652007 -8.1601690284266812
leaf_weight=4263 5047 39 1448 3546 5277 500 4024 13204 30 8417 28392 5501 810 4945 5064 9961 8628 4490 100 5500 1810 3314 1635 7082 6472 652 5083 12308 3916 1186
leaf_count=4263 5047 39 1448 3546 5277 500 4024 13204 30 8417 28392 5501 810 4945 5064 9961 8628 4490 100 5500 1810 3314 1635 7082 6472 652 5083 12308 3916 1186
internal_value=0 -6.54728e-05 2.3022e-05 -4.52838e-05 -9.98537e-07 -9.11157e-05 2.91629e-05 3.10599e-05 -5.62029e-05 3.41678e-05 3.55174e-05 -0.000101178 -3.14028e-05 -4.84903e-05 -8.01725e-05 2.37067e-05 7.24778e-06 -2.749e-05 -7.88331e-05 -1.18703e-05 2.87418e-05 -7.94063e-05 -2.96115e-05 3.95999e-05 -6.18413e-05 -2.9639e-05 2.67732e-05 2.07929e-05 1.99156e-05 -5.1313e-05
internal_weight=0 42547 120097 23805 24452 18742 95645 77973 13324 54808 43891 9764 10481 5627 8978 23165 13905 6935 8478 10547 10917 8378 6125 15499 7697 682 9107 17672 16224 1225
internal_count=162644 42547 120097 23805 24452 18742 95645 77973 13324 54808 43891 9764 10481 5627 8978 23165 13905 6935 8478 10547 10917 8378 6125 15499 7697 682 9107 17672 16224 1225
is_linear=0
shrinkage=0.08


Tree=12
num_leaves=31
num_cat=0
split_feature=6 6 6 6 6 6 6 6 6 6 6 6 6 6 0 6 0 0 6 5 0 0 2 3 0 4 6 2 4 5
split_gain=0.0348472 0.00303713 0.00280404 0.000445008 0.000359146 0.000326906 0.00024993 0.000226633 6.9016e-05 6.72204e-05 6.39833e-05 5.86156e-05 5.81226e-05 4.11781e-05 3.9402e-05 3.93828e-05 3.76717e-05 3.73763e-05 3.7168e-05 3.35511e-05 2.92697e-05 2.79887e-05 2.74941e-05 2.70333e-05 2.68954e-05 2.59258e-05 2.57431e-05 2.53224e-05 2.51486e-05 2.45078e-05
threshold=922.50000000000011 739.50000000000011 1153.5000000000002 841.50000000000011 1006.5000000000001 655.50000000000011 1352.5000000000002 2284.5000000000005 794.50000000000011 705.50000000000011 1484.5000000000002 1681.5000000000002 1072.5000000000002 2859.5000000000005 5500.5000000000009 875.50000000000011 21061.500000000004 5872.5000000000009 630.50000000000011 186849.00000000003 13734.500000000002 3893.5000000000005 4264252.5000000009 5710928.5000000009 6868.5000000000009 4250466.5000000009 1227.5000000000002 4259288.5000000009 4245268.0000000009 195214.00000000003
decision_type=2 2 2 2 2 2 2 2 2 2 2 2 2 2 2 2 2 2 2 2 2 2 2 2 2 2 2 2 2 2
left_child=1 5 4 8 17 18 26 10 21 -7 16 -12 -6 -9 23 -5 27 -2 -1 28 22 -3 25 -10 -17 -19 -4 -8 -11 -23
right_child=2 3 6 15 12 9 7 13 14 19 11 -13 -14 -15 -16 24 -18 20 -20 -21 -22 29 -24 -25 -26 -27 -28 -29 -30 -31
leaf_value=-12.793838207241251 0.62075512262628763 -5.5137555061525472 3.8163343253254425 -5.1889920720228568 0.066241771148816048 -10.577895279583027 11.704026432446408 50.458491333583915 -10.436575801197487 -12.253751283965748 20.178606957419269 28.851230882122273 1.8839074453698594 81.634965690410795 -6.4420099408698022 -3.0503067924708649 11.025662540430112 -4.0905717235926842 -11.889483635848691 -6.0419791952278317 -0.8990676577992236 -7.9981234420173859 -3.3088716574115735 -4.8086852743071908 -4.3276142609796624 -1.6288716574115734 6.0652648088644128 7.67123533363314 -9.3913122122861115 -0.95385970941074449
leaf_weight=4263 764 216 7302 4175 7346 6750 3214 13204 28 209 14225 28392 8628 9961 4979 1114 1910 332 3420 106 1742 6737 3065 671 4445 3951 11610 5827 3994 64
leaf_count=4263 764 216 7302 4175 7346 6750 3214 13204 28 209 14225 28392 8628 9961 4979 1114 1910 332 3420 106 1742 6737 3065 671 4445 3951 11610 5827 3994 64
internal_value=0 -6.37148e-05 2.14495e-05 -4.38526e-05 -1.94038e-06 -8.74845e-05 2.77657e-05 2.97959e-05 -5.37199e-05 -7.8678e-05 3.2655e-05 3.40565e-05 5.46896e-06 2.31844e-05 -4.71625e-05 -3.09837e-05 2.72007e-05 -1.39514e-05 -0.000100161 -7.08717e-05 -1.53798e-05 -5.90259e-05 -1.75901e-05 -2.93763e-05 -2.65738e-05 -1.34505e-05 1.95283e-05 2.50441e-05 -7.19928e-05 -5.99263e-05
internal_weight=0 41171 121473 22429 25828 18742 95645 76733 12695 11059 53568 42617 15974 23165 5678 9734 10951 9854 7683 4309 9090 7017 7348 699 5559 4283 18912 9041 4203 6801
internal_count=162644 41171 121473 22429 25828 18742 95645 76733 12695 11059 53568 42617 15974 23165 5678 9734 10951 9854 7683 4309 9090 7017 7348 699 5559 4283 18912 9041 4203 6801
is_linear=0
shrinkage=0.08


Tree=13
num_leaves=31
num_cat=0
split_feature=6 6 6 6 6 6 6 6 6 6 6 6 6 5 0 0 4 0 4 6 6 0 6 7 0 2 4 2 0 5
split_gain=0.031499 0.00279282 0.00261122 0.000340773 0.000316671 0.000311661 0.00030994 0.000206554 7.14613e-05 5.1646e-05 4.94996e-05 4.68571e-05 3.92578e-05 3.83872e-05 3.78487e-05 3.59589e-05 3.51993e-05 3.42447e-05 2.96516e-05 2.92875e-05 6.14381e-05 2.85042e-05 2.83302e-05 2.82975e-05 3.6648e-05 2.94863e-05 2.79588e-05 4.23178e-05 2.9273e-05 2.7438e-05
threshold=910.50000000000011 1134.5000000000002 739.50000000000011 818.50000000000011 1414.5000000000002 1000.5000000000001 645.50000000000011 2284.5000000000005 705.50000000000011 863.50000000000011 1241.5000000000002 1048.5000000000002 2859.5000000000005 195214.00000000003 5073.5000000000009 5872.5000000000009 4249171.0000000009 4272.5000000000009 4245268.0000000009 1500.5000000000002 1681.5000000000002 21061.500000000004 625.50000000000011 322.50000000000006 13734.500000000002 4263970.5000000009 4246547.5000000009 4261545.5000000009 8778.5000000000018 186849.00000000003
decision_type=2 2 2 2 2 2 2 2 2 2 2 2 2 2 2 2 2 2 2 2 2 2 2 2 2 2 2 2 2 2
left_child=2 5 6 13 10 15 16 19 26 14 -3 -7 -9 17 -5 -2 -1 -4 -10 21 -21 -6 -18 -17 25 -25 28 -28 -8 -20
right_child=1 4 3 9 7 11 8 12 18 -11 -12 -13 -14 -15 -16 23 22 -19 29 20 -22 -23 -24 24 -26 -27 27 -29 -30 -31
leaf_value=-13.450331150661951 0.21635415381613712 3.4114702550116274 -6.3787544375047398 -3.8168316041146682 9.7272348034070646 -0.33022352938927724 -13.51416401348205 46.421812026897207 -11.078883572861196 -4.1524377151505361 6.3305709882161683 1.3623392739482916 75.104168435177925 -0.81064669420104107 -5.286630396282944 -3.882327207358867 -11.690331150661951 -7.072690272458158 -8.6400072353032193 19.268239405452878 26.543132411552488 11.801513236421142 -10.900228868180793 -1.7368277990734169 -0.4986463109687429 -3.1943579252062957 -9.1941640134820499 -10.033168087969571 -7.7924636572163859 -5.5586208596096096
leaf_weight=518 890 10657 459 400 5638 5401 319 13204 212 5505 15408 9268 9961 112 5152 731 3253 9321 3994 12975 28392 1409 2584 4176 1457 3386 2700 4902 157 103
leaf_count=518 890 10657 459 400 5638 5401 319 13204 212 5505 15408 9268 9961 112 5152 731 3253 9321 3994 12975 28392 1409 2584 4176 1457 3386 2700 4902 157 103
internal_value=0 1.98019e-05 -6.21656e-05 -4.27571e-05 2.59403e-05 -3.8806e-06 -8.38596e-05 2.86895e-05 -7.64908e-05 -3.31063e-05 1.83905e-05 3.68014e-06 2.24768e-05 -5.35445e-05 -3.85506e-05 -1.43043e-05 -9.82226e-05 -5.40778e-05 -6.81712e-05 3.16622e-05 3.24743e-05 2.68949e-05 -9.6449e-05 -1.57095e-05 -1.44825e-05 -1.67209e-05 -8.09287e-05 -7.9751e-05 -9.97374e-05 -6.66616e-05
internal_weight=0 122953 39691 20949 97644 25309 18742 71579 12387 11057 26065 14669 23165 9892 5552 10640 6355 9780 4309 48414 41367 7047 5837 9750 9019 7562 8078 7602 476 4097
internal_count=162644 122953 39691 20949 97644 25309 18742 71579 12387 11057 26065 14669 23165 9892 5552 10640 6355 9780 4309 48414 41367 7047 5837 9750 9019 7562 8078 7602 476 4097
is_linear=0
shrinkage=0.08


Tree=14
num_leaves=31
num_cat=0
split_feature=6 6 6 6 6 6 6 6 4 2 6 6 6 0 6 0 5 6 2 0 5 6 0 6 6 0 3 0 5 3
split_gain=0.0283419 0.00250946 0.00250935 0.00034739 0.000314043 0.000291231 0.000236821 0.000171934 5.68586e-05 5.18483e-05 4.84226e-05 4.56419e-05 3.68873e-05 3.6335e-05 3.60824e-05 3.60134e-05 3.57684e-05 3.56108e-05 3.49328e-05 3.39472e-05 3.33182e-05 3.10065e-05 3.0768e-05 2.89368e-05 5.33949e-05 2.82563e-05 2.76189e-05 2.6782e-05 2.54254e-05 2.51261e-05
threshold=910.50000000000011 739.50000000000011 1166.5000000000002 1006.5000000000001 818.50000000000011 655.50000000000011 1414.5000000000002 2284.5000000000005 4246547.5000000009 4262516.5000000009 1072.5000000000002 875.50000000000011 615.50000000000011 5872.5000000000009 700.50000000000011 5073.5000000000009 186849.00000000003 2859.5000000000005 4264753.5000000009 7613.5000000000009 195214.00000000003 952.50000000000011 5395.5000000000009 1500.5000000000002 1681.5000000000002 8778.5000000000018 5709025.5000000009 19761.500000000004 19054.000000000004 5711647.5000000009
decision_type=2 2 2 2 2 2 2 2 2 2 2 2 2 2 2 2 2 2 2 2 2 2 2 2 2 2 2 2 2 2
left_child=1 5 3 13 20 12 18 23 25 -10 -5 15 -1 -2 -11 29 -16 -9 -4 -12 22 -15 26 27 -25 -7 -3 -8 -14 -6
right_child=2 4 6 10 11 8 7 17 9 14 19 -13 28 21 16 -17 -18 -19 -20 -21 -22 -23 -24 24 -26 -27 -28 -29 -30 -31
leaf_value=-11.475104658608998 0.36179237593549263 -14.35793148961252 5.6738176644127813 0.016194352961865662 -10.980843155785497 -12.375356887032304 8.911559091580294 42.70806706474545 -7.8602230480916662 -9.169010210178822 7.1094761363864931 -3.6621994896432444 -11.026306635526335 -2.7496412701388637 -8.4970230480916698 -4.6889404370873313 -5.11393119084084 69.095834960363689 3.6573232592864953 1.280532032162264 -0.7457949586649556 -1.4021157670738922 -6.4826916667407755 17.726780253016642 24.419681818628288 -6.9471404954195988 -6.3453874282839298 10.537392177507446 -10.055671497943232 -2.1457729900695903
leaf_weight=2128 935 43 14752 7346 25 399 5229 13204 4315 3386 1171 4079 440 4581 2649 6497 77 9961 8024 8747 112 5818 8320 12975 28392 233 1417 1818 5115 456
leaf_count=2128 935 43 14752 7346 25 399 5229 13204 4315 3386 1171 4079 440 4581 2649 6497 77 9961 8024 8747 112 5818 8320 12975 28392 233 1417 1818 5115 456
internal_value=0 -5.90318e-05 1.87195e-05 -2.0399e-06 -4.00053e-05 -8.02989e-05 2.50115e-05 2.72723e-05 -7.19869e-05 -7.05746e-05 5.10427e-06 -3.07407e-05 -9.22634e-05 -1.29219e-05 -7.53146e-05 -3.46704e-05 -6.8464e-05 2.16041e-05 1.79064e-05 8.75061e-06 -5.0361e-05 -1.42802e-05 -5.08578e-05 2.99844e-05 3.07917e-05 -9.52866e-05 -4.01462e-05 2.52458e-05 -8.88325e-05 -1.35481e-05
internal_weight=0 39691 122953 28598 20949 18742 94355 71579 11059 10427 17264 11057 7683 11334 6112 6978 2726 23165 22776 9918 9892 10399 9780 48414 41367 632 1460 7047 5555 481
internal_count=162644 39691 122953 28598 20949 18742 94355 71579 11059 10427 17264 11057 7683 11334 6112 6978 2726 23165 22776 9918 9892 10399 9780 48414 41367 632 1460 7047 5555 481
is_linear=0
shrinkage=0.08


Tree=15
num_leaves=31
num_cat=0
split_feature=6 6 6 6 6 6 6 6 6 6 0 0 6 4 0 3 0 0 4 4 6 2 4 0 5 2 3 2 1 2
split_gain=0.0252935 0.00237572 0.00220614 0.000318888 0.000283482 0.000266649 0.000199274 0.000142889 7.52182e-05 6.93006e-05 4.09049e-05 4.05991e-05 4.05095e-05 3.90032e-05 3.80256e-05 3.34692e-05 3.28278e-05 3.22376e-05 3.22001e-05 4.03462e-05 3.01904e-05 2.99987e-05 3.11447e-05 2.99035e-05 2.91576e-05 2.96134e-05 2.70034e-05 2.61582e-05 2.57881e-05 2.4944e-05
threshold=910.50000000000011 739.50000000000011 1178.5000000000002 1012.5000000000001 680.50000000000011 800.50000000000011 1414.5000000000002 2638.5000000000005 630.50000000000011 846.50000000000011 9838.5000000000018 18759.500000000004 1078.5000000000002 4246547.5000000009 3893.5000000000005 5711164.5000000009 5500.5000000000009 5872.5000000000009 4246547.5000000009 4263291.5000000009 946.50000000000011 4266197.5000000009 4245268.0000000009 7313.5000000000009 195214.00000000003 4262516.5000000009 5711937.5000000009 4263722.5000000009 5733714.5000000009 4267378.5000000009
decision_type=2 2 2 2 2 2 2 2 2 2 2 2 2 2 2 2 2 2 2 2 2 2 2 2 2 2 2 2 2 2
left_child=1 4 3 17 8 -3 10 -8 28 15 26 27 -5 -6 -15 -7 29 -2 -10 -20 -19 22 -11 -14 25 -16 -4 -12 -1 -17
right_child=2 5 6 12 13 9 7 -9 18 21 11 -13 23 14 24 16 -18 20 19 -21 -22 -23 -24 -25 -26 -27 -28 -29 -30 -31
leaf_value=-9.8370962859202802 0.47122499143601093 -6.0763918191965969 -2.0845171605231916 0.19096162390764221 -9.1571119444570108 -6.6814609847226079 19.179366508518342 56.608168163534572 -11.019748656292386 -7.0573938939670189 4.2056135713412184 5.7300486401853776 7.1915900169102862 -7.1506039590029742 -6.8854212042443308 -2.0525820848278635 -4.7032417357929539 -2.5535657863513737 -8.1888171230436733 -9.4146861329485088 -1.3369236411391467 -4.4885847296133212 -3.1381125466674078 1.3583334159133482 -3.6278973469935045 -7.9292483663314854 10.737192041741219 2.3385049671422893 -11.59709628592028 -7.8274715679771276
leaf_weight=3889 973 7697 122 7339 424 691 57648 13931 422 257 7772 4077 1007 362 2780 477 4287 3915 3068 3396 7148 2364 5004 9512 81 3946 3789 5720 374 172
leaf_count=3889 973 7697 122 7339 424 691 57648 13931 422 257 7772 4077 1007 362 2780 477 4287 3915 3068 3396 7148 2364 5004 9512 81 3946 3789 5720 374 172
internal_value=0 -5.58524e-05 1.75987e-05 -1.3084e-06 -7.6545e-05 -3.73398e-05 2.36723e-05 2.57003e-05 -8.46646e-05 -3.04612e-05 1.69144e-05 1.52673e-05 5.47491e-06 -6.46228e-05 -6.32284e-05 -3.71956e-05 -3.48871e-05 -1.13729e-05 -7.94944e-05 -7.80966e-05 -1.26008e-05 -2.54914e-05 -2.21278e-05 8.65752e-06 -6.4572e-05 -6.51466e-05 2.43137e-05 1.31533e-05 -9.3016e-05 -1.81193e-05
internal_weight=0 39691 122953 29894 18742 20949 93059 71579 11149 13252 21480 17569 17858 7593 7169 5627 4936 12036 6886 6464 11063 7625 5261 10519 6807 6726 3911 13492 4263 649
internal_count=162644 39691 122953 29894 18742 20949 93059 71579 11149 13252 21480 17569 17858 7593 7169 5627 4936 12036 6886 6464 11063 7625 5261 10519 6807 6726 3911 13492 4263 649
is_linear=0
shrinkage=0.08


Tree=16
num_leaves=31
num_cat=0
split_feature=6 6 6 6 6 6 6 6 6 5 6 0 0 4 0 0 0 2 5 1 2 4 4 1 2 5 0 4 7 0
split_gain=0.0226055 0.00215102 0.00202102 0.000290174 0.000275348 0.000224263 0.000215374 0.000134449 7.63203e-05 5.6672e-05 5.88315e-05 4.59625e-05 5.9467e-05 4.02878e-05 4.15685e-05 3.77417e-05 3.52055e-05 3.82939e-05 3.65086e-05 3.3823e-05 3.34842e-05 3.26972e-05 4.43737e-05 3.20412e-05 3.1425e-05 3.13147e-05 3.009e-05 2.94018e-05 2.86368e-05 2.88201e-05
threshold=904.50000000000011 739.50000000000011 1134.5000000000002 1468.5000000000002 680.50000000000011 794.50000000000011 1000.5000000000001 2638.5000000000005 630.50000000000011 195214.00000000003 846.50000000000011 19907.500000000004 9838.5000000000018 4246547.5000000009 3893.5000000000005 6566.5000000000009 15141.500000000002 4265592.5000000009 18011.500000000004 5705858.5000000009 4260950.5000000009 4247410.5000000009 4264872.5000000009 5733714.5000000009 4247826.5000000009 195214.00000000003 9506.5000000000018 4274034.5000000009 316.50000000000006 13507.500000000002
decision_type=2 2 2 2 2 2 2 2 2 2 2 2 2 2 2 2 2 2 2 2 2 2 2 2 2 2 2 2 2 2
left_child=1 4 6 11 8 -3 28 -5 23 10 -7 12 24 26 -15 19 17 18 -17 -8 -14 -10 -23 -1 -4 -16 -6 -12 -2 -30
right_child=2 5 3 7 13 9 15 -9 21 -11 27 -13 20 14 25 16 -18 -19 -20 -21 -22 22 -24 -25 -26 -27 -28 -29 29 -31
leaf_value=-9.0501285830466536 -3.2595151840983636 -5.6748892819690084 -10.81896853229593 19.180916712827656 -9.7499753805131508 -4.5669823969295162 -12.156392570654335 52.079514710451804 -10.185581923216633 1.7848969295730057 -3.4151030704269942 5.8412886407301086 4.202223246544472 -6.578555642282736 -6.9201373349378086 -3.7978299556049753 1.386818535978382 -1.3446668437130211 0.82052239180549802 5.5847386232904688 2.3089444221156739 -7.6428843797866834 -8.7905819482549941 -10.669328583046655 8.7627628662334978 -3.3376655592340287 -4.9207263694489489 -6.5574210530448998 -1.902992614416853 -0.25840341123299371
leaf_weight=3889 532 7017 23 53125 292 6225 26 13931 469 155 6740 4347 8468 362 6726 322 2876 3428 6932 1085 12081 3767 2650 374 5669 81 132 150 8946 1824
leaf_count=3889 532 7017 23 53125 292 6225 26 13931 469 155 6740 4347 8468 362 6726 322 2876 3428 6932 1085 12081 3767 2650 374 5669 81 132 150 8946 1824
internal_value=0 -5.3575e-05 1.62622e-05 2.15376e-05 -7.31148e-05 -3.55234e-05 -3.57217e-06 2.44831e-05 -8.1117e-05 -2.94069e-05 -2.99752e-05 1.50805e-05 1.38183e-05 -6.13648e-05 -5.99477e-05 2.82252e-06 1.66091e-06 -4.5436e-07 2.8384e-06 1.69981e-05 1.1814e-05 -7.59091e-05 -7.44187e-05 -8.95294e-05 2.10544e-05 -6.13525e-05 -8.53265e-05 -2.48823e-05 -1.18719e-05 -1.09769e-05
internal_weight=0 39029 123615 97644 18742 20287 25971 67056 11149 13270 13115 30588 26241 7593 7169 14669 13558 10682 7254 1111 20549 6886 6417 4263 5692 6807 424 6890 11302 10770
internal_count=162644 39029 123615 97644 18742 20287 25971 67056 11149 13270 13115 30588 26241 7593 7169 14669 13558 10682 7254 1111 20549 6886 6417 4263 5692 6807 424 6890 11302 10770
is_linear=0
shrinkage=0.08


Tree=17
num_leaves=31
num_cat=0
split_feature=6 6 6 6 6 6 6 6 4 6 2 0 0 4 5 0 2 2 4 5 3 0 0 6 6 6 2 0 6 4
split_gain=0.0201688 0.00194711 0.00183103 0.000292798 0.000279934 0.000194526 0.000169459 0.000121183 5.51178e-05 5.27054e-05 5.00295e-05 4.34581e-05 6.10339e-05 4.31636e-05 4.29084e-05 4.27722e-05 3.76625e-05 4.58813e-05 3.75745e-05 3.62888e-05 3.5802e-05 3.16895e-05 3.43377e-05 2.91112e-05 4.95168e-05 4.66308e-05 2.75076e-05 2.7246e-05 2.72082e-05 2.611e-05
threshold=892.50000000000011 1178.5000000000002 739.50000000000011 1030.5000000000002 655.50000000000011 1509.5000000000002 794.50000000000011 2638.5000000000005 4246547.5000000009 958.50000000000011 4262516.5000000009 19907.500000000004 10911.500000000002 4248480.0000000009 195214.00000000003 8778.5000000000018 4263846.5000000009 4238356.0000000009 4265864.5000000009 102743.50000000001 5711937.5000000009 7313.5000000000009 15141.500000000002 1681.5000000000002 1817.5000000000002 1566.5000000000002 4260246.5000000009 8778.5000000000018 711.50000000000011 4273755.5000000009
decision_type=2 2 2 2 2 2 2 2 2 2 2 2 2 2 2 2 2 2 2 2 2 2 2 2 2 2 2 2 2 2
left_child=2 3 4 9 13 11 -4 23 15 29 -10 12 20 -1 16 -6 17 27 -15 -20 -3 -5 -23 25 -25 -7 -14 -8 -12 -2
right_child=1 5 6 21 8 7 14 -9 10 -11 28 -13 26 18 -16 -17 -18 -19 19 -21 -22 22 -24 24 -26 -27 -28 -29 -30 -31
leaf_value=-10.02531829640292 -1.9796446891342021 -2.5803208597203957 -5.2208981394114833 4.9190695560907622 -9.7663799695676978 9.2613136454676166 -13.403376409112807 47.913153533615663 -6.0628680091559088 -0.83276450795395252 -7.0875385372629625 5.9388710149222605 4.2624793297387624 -7.6110733260823054 1.4910199936040589 -5.0211764285001479 -4.3616238051751592 -3.1616238051751591 -9.0054314691946011 -8.7596729492561831 9.1564697624701701 0.37936984711273908 1.5664127076927434 10.686443375801446 26.037284615430345 15.704021452676772 2.3451679469573539 -4.5798430541048125 -6.4725103481427775 -4.8240517275359256
leaf_weight=588 7581 231 7017 1670 399 4342 89 13931 4315 8285 4175 4993 6623 4505 140 233 5340 6158 1210 1380 6675 10426 3733 8128 29498 7978 10660 147 1937 257
leaf_count=588 7581 231 7017 1670 399 4342 89 13931 4315 8285 4175 4993 6623 4505 140 233 5340 6158 1210 1380 6675 10426 3733 8128 29498 7978 10660 147 1937 257
internal_value=0 1.4816e-05 -5.19861e-05 -2.22286e-06 -6.97024e-05 2.06664e-05 -3.44096e-05 2.31386e-05 -6.15532e-05 -9.81088e-06 -6.01627e-05 1.52549e-05 1.38523e-05 -8.14325e-05 -2.85849e-05 -8.44935e-05 -2.91102e-05 -2.49682e-05 -7.97063e-05 -8.73845e-05 2.02095e-05 5.5061e-06 4.27678e-06 2.49789e-05 2.38737e-05 2.83541e-05 1.13121e-05 -5.95849e-05 -6.48188e-05 -1.45135e-05
internal_weight=0 125011 37633 31952 18742 93059 18891 63877 11059 16123 10427 29182 24189 7683 11874 632 11734 6394 7095 2590 6906 15829 14159 49946 37626 12320 17283 236 6112 7838
internal_count=162644 125011 37633 31952 18742 93059 18891 63877 11059 16123 10427 29182 24189 7683 11874 632 11734 6394 7095 2590 6906 15829 14159 49946 37626 12320 17283 236 6112 7838
is_linear=0
shrinkage=0.08


Tree=18
num_leaves=31
num_cat=0
split_feature=6 6 6 6 6 6 6 6 4 0 2 6 6 6 2 5 6 6 0 5 0 3 3 0 6 7 2 2 4 0
split_gain=0.0179132 0.00170666 0.00167828 0.000310809 0.000270806 0.00014329 0.00012054 0.000112587 5.10971e-05 4.91266e-05 4.43127e-05 4.38571e-05 4.2925e-05 5.7747e-05 3.90649e-05 3.7203e-05 3.68764e-05 3.5733e-05 3.45405e-05 3.33241e-05 3.30206e-05 3.2571e-05 4.34966e-05 3.95858e-05 3.20393e-05 3.12496e-05 3.20947e-05 3.11355e-05 3.49125e-05 4.74204e-05
threshold=892.50000000000011 1227.5000000000002 739.50000000000011 1030.5000000000002 655.50000000000011 818.50000000000011 1533.5000000000002 2638.5000000000005 4246547.5000000009 8778.5000000000018 4261545.5000000009 952.50000000000011 1681.5000000000002 1873.5000000000002 4263722.5000000009 195214.00000000003 680.50000000000011 615.50000000000011 7885.5000000000009 195214.00000000003 15141.500000000002 5711937.5000000009 5720879.5000000009 5601.5000000000009 1608.5000000000002 322.50000000000006 4270824.5000000009 4264397.5000000009 4249171.0000000009 9116.5000000000018
decision_type=2 2 2 2 2 2 2 2 2 2 2 2 2 2 2 2 2 2 2 2 2 2 2 2 2 2 2 2 2 2
left_child=2 3 4 11 15 19 14 12 9 -6 -10 -2 24 -14 -3 17 -12 -1 -5 27 25 -7 23 -23 -8 -20 -27 28 29 -4
right_child=1 6 5 18 8 21 7 -9 10 -11 16 -13 13 -15 -16 -17 -18 -19 20 -21 -22 22 -24 -25 -26 26 -28 -29 -30 -31
leaf_value=-8.4068964303163369 -1.9813783841620898 5.6545265266291427 -9.2186049748659205 4.2442871927882884 -8.9850695720022848 -4.5473598011960803 10.448108782499657 44.080101250926418 -5.5619310803772803 -4.6194823142201402 -6.8345652201528626 -0.80253063964638383 10.450241719865044 25.518816272623663 3.5294529816007527 -2.9388991133156925 -6.043293128678652 -7.2731362721629464 -2.755792977878027 0.51024168432949413 1.5768399724846678 2.3055534953012105 -3.4279986020545401 -2.6279986020545403 16.404991929253484 0.91793927768809225 -1.892298577592519 -5.3726939007611421 -3.9663019941553466 -3.3632262882585655
leaf_weight=2097 7129 15859 265 2736 399 1201 5479 13931 3693 233 2086 8994 11123 26503 10491 93 4648 5493 485 112 5321 307 5261 2230 4957 10930 1073 4097 5081 337
leaf_count=2097 7129 15859 265 2736 399 1201 5479 13931 3693 233 2086 8994 11123 26503 10491 93 4648 5493 485 112 5321 307 5261 2230 4957 10930 1073 4097 5081 337
internal_value=0 1.37989e-05 -4.91571e-05 -7.09964e-07 -6.61183e-05 -3.23296e-05 1.98209e-05 2.17475e-05 -5.81031e-05 -8.01908e-05 -5.67643e-05 -9.02421e-06 2.3583e-05 2.23239e-05 1.52883e-05 -7.76556e-05 -6.06264e-05 -7.82718e-05 5.81477e-06 -3.89751e-05 4.52907e-06 -2.50247e-05 -2.31359e-05 -1.45319e-05 2.81227e-05 2.28047e-06 3.0849e-06 -3.9472e-05 -3.56394e-05 -5.3856e-05
internal_weight=0 125011 37633 36668 18742 18891 88343 61993 11059 632 10427 16123 48062 37626 26350 7683 6734 7590 20545 9892 17809 8999 7798 2537 10436 12488 12003 9780 5683 602
internal_count=162644 125011 37633 36668 18742 18891 88343 61993 11059 632 10427 16123 48062 37626 26350 7683 6734 7590 20545 9892 17809 8999 7798 2537 10436 12488 12003 9780 5683 602
is_linear=0
shrinkage=0.08


Tree=19
num_leaves=31
num_cat=0
split_feature=6 6 6 6 6 6 6 6 4 0 6 0 0 4 7 4 0 0 6 6 6 3 5 0 6 3 5 2 3 1
split_gain=0.0158175 0.00152089 0.00146513 0.000312495 0.000260216 0.00011934 0.000103212 8.98239e-05 5.6845e-05 4.66437e-05 4.56818e-05 4.49653e-05 4.12635e-05 6.27779e-05 3.94076e-05 3.93273e-05 3.8032e-05 5.4843e-05 3.75935e-05 5.64829e-05 3.60156e-05 3.52853e-05 4.181e-05 3.11919e-05 3.03892e-05 3.03753e-05 3.34004e-05 3.36378e-05 3.01729e-05 3.65723e-05
threshold=892.50000000000011 751.50000000000011 1220.5000000000002 655.50000000000011 1024.5000000000002 1533.5000000000002 2638.5000000000005 818.50000000000011 4246547.5000000009 6137.5000000000009 680.50000000000011 3893.5000000000005 7613.5000000000009 4248480.0000000009 340.50000000000006 4263667.5000000009 10629.500000000002 19041.500000000004 1681.5000000000002 1862.5000000000002 952.50000000000011 5709025.5000000009 195214.00000000003 6941.5000000000009 1608.5000000000002 5709025.5000000009 195214.00000000003 4264397.5000000009 5711937.5000000009 5720448.5000000009
decision_type=2 2 2 2 2 2 2 2 2 2 2 2 2 2 2 2 2 2 2 2 2 2 2 2 2 2 2 2 2 2
left_child=1 3 4 12 20 16 18 25 9 -5 15 -12 13 -1 -15 -10 -4 -18 24 -20 -2 -16 -23 -6 -7 -3 27 -27 -9 -30
right_child=2 7 5 8 23 6 -8 28 10 -11 11 -13 -14 14 21 -17 17 -19 19 -21 -22 22 -24 -25 -26 26 -28 -29 29 -31
leaf_value=-10.494547292220787 -1.8228681134291218 -5.3659221287261332 9.0769419897644195 -12.748813596166073 5.2922035629705899 9.6122600798996789 40.553693150852304 -4.1835710171003937 -5.4732930011670762 -6.4864599317545801 -4.5772789127544007 -5.2852620699970609 -5.4946229123028933 -9.1246807158910279 -9.1373875299475831 -6.5668040770281548 2.8928789383695221 5.1778391821599694 9.4542223822758391 23.166529700450084 -0.74812718336484074 -7.0958753692293435 -1.3221205012510837 0.81561198927782241 15.092592574913198 -3.5317008153334881 1.079044264846607 -4.655251457846898 -1.9043622230098027 -3.2214450322144512
leaf_weight=355 7129 847 5547 122 1560 5479 13931 1201 1601 587 426 8176 2129 544 274 1657 15160 6299 10537 27089 8332 4307 74 18991 4957 4212 90 3233 2933 4865
leaf_count=355 7129 847 5547 122 1560 5479 13931 1201 1601 587 426 8176 2129 544 274 1657 15160 6299 10537 27089 8332 4307 74 18991 4957 4212 90 3233 2933 4865
internal_value=0 -4.6289e-05 1.28699e-05 -6.1188e-05 -7.45307e-07 1.8379e-05 2.03126e-05 -2.89289e-05 -5.34185e-05 -7.54227e-05 -5.21031e-05 -4.90475e-05 -7.38985e-05 -7.75284e-05 -7.53059e-05 -6.01707e-05 1.39406e-05 1.24142e-05 2.207e-05 2.08916e-05 -8.58558e-06 -7.29249e-05 -7.1183e-05 5.15311e-06 2.63183e-05 -3.48879e-05 -3.32732e-05 -3.38589e-05 -2.33785e-05 -2.15606e-05
internal_weight=0 37633 125011 20252 36012 88999 61993 17381 12569 709 11860 8602 7683 5554 5199 3258 27006 21459 48062 37626 15461 4655 4381 20551 10436 8382 7535 7445 8999 7798
internal_count=162644 37633 125011 20252 36012 88999 61993 17381 12569 709 11860 8602 7683 5554 5199 3258 27006 21459 48062 37626 15461 4655 4381 20551 10436 8382 7535 7445 8999 7798
is_linear=0
shrinkage=0.08


Tree=20
num_leaves=31
num_cat=0
split_feature=6 6 6 6 6 6 6 6 3 4 2 0 0 2 4 5 5 2 6 5 0 4 0 0 0 0 6 0 0 5
split_gain=0.0137828 0.00136983 0.00126305 0.000284822 0.000250112 8.42505e-05 8.43113e-05 7.55446e-05 4.41115e-05 4.37825e-05 5.01356e-05 4.4873e-05 4.37326e-05 5.3109e-05 4.25518e-05 4.97163e-05 4.19605e-05 4.02989e-05 3.92513e-05 3.59657e-05 3.40595e-05 3.34756e-05 2.95762e-05 2.88505e-05 2.87753e-05 2.95716e-05 2.78995e-05 2.73074e-05 2.71817e-05 2.69348e-05
threshold=892.50000000000011 751.50000000000011 1248.5000000000002 655.50000000000011 1048.5000000000002 1492.5000000000002 2638.5000000000005 846.50000000000011 5709025.5000000009 4246547.5000000009 4263970.5000000009 5692.5000000000009 8574.5000000000018 4251404.5000000009 4264872.5000000009 25223.000000000004 195214.00000000003 4262093.5000000009 970.50000000000011 145308.50000000003 6137.5000000000009 4243085.5000000009 3893.5000000000005 6941.5000000000009 10911.500000000002 19907.500000000004 711.50000000000011 6716.5000000000009 17407.500000000004 147383.50000000003
decision_type=2 2 2 2 2 2 2 2 2 2 2 2 2 2 2 2 2 2 2 2 2 2 2 2 2 2 2 2 2 2
left_child=1 3 4 12 18 24 -7 8 20 11 22 -5 13 27 -15 -16 17 21 -2 26 -3 -10 -11 -6 -4 -26 -12 -1 -25 -17
right_child=2 7 5 9 23 6 -8 -9 16 10 19 -13 -14 14 15 29 -18 -19 -20 -21 -22 -23 -24 28 25 -27 -28 -29 -30 -31
leaf_value=-9.871177334887717 -1.5596104079419002 -13.042960204871624 8.5600165687637499 -13.924523907440507 5.7606169165108074 14.23917077756605 37.309397698784124 -2.4930960543736727 -7.4250425066918435 -3.5954295610737064 -5.9224556763783855 -6.109702241311652 -4.7154267507866825 -6.0412661518582169 -9.8690025189423078 -7.1335622314578089 1.3651985281712586 -3.8706451533169641 -0.48577694251453069 -5.0372664299127248 -4.4254907424433991 -2.6749576589492792 -4.6452251043972961 0.81070056074708197 2.746352959820979 4.7510494534700776 -5.1252251043972956 -6.235426750786683 2.1533112775475276 -6.5845015643596252
leaf_weight=367 9286 78 4725 80 1392 51229 13931 5567 188 345 2489 629 1219 3351 223 1613 125 6209 8813 1523 1119 4095 5830 16367 12394 4066 1673 257 2808 653
leaf_count=367 9286 78 4725 80 1392 51229 13931 5567 188 345 2489 629 1219 3351 223 1613 125 6209 8813 1523 1119 4095 5830 16367 12394 4066 1673 257 2808 653
internal_value=0 -4.3272e-05 1.1951e-05 -5.74117e-05 -6.55874e-08 1.73321e-05 1.8757e-05 -2.67966e-05 -3.04171e-05 -4.99942e-05 -4.88398e-05 -6.93054e-05 -6.95464e-05 -7.21675e-05 -6.97971e-05 -7.77206e-05 -2.87757e-05 -2.93246e-05 -6.92443e-06 -5.42607e-05 -4.49757e-05 -2.3355e-05 -4.3849e-05 5.97021e-06 1.29494e-05 1.13698e-05 -5.81099e-05 -9.43513e-05 5.16291e-06 -7.41737e-05
internal_weight=0 37633 125011 20252 38666 86345 65160 17381 11814 12569 11860 709 7683 6464 5840 2489 10617 10492 18099 5685 1197 4283 6175 20567 21185 16460 4162 624 19175 2266
internal_count=162644 37633 125011 20252 38666 86345 65160 17381 11814 12569 11860 709 7683 6464 5840 2489 10617 10492 18099 5685 1197 4283 6175 20567 21185 16460 4162 624 19175 2266
is_linear=0
shrinkage=0.08


Tree=21
num_leaves=31
num_cat=0
split_feature=6 6 6 6 6 6 6 3 0 4 7 4 4 0 2 6 6 2 0 2 0 3 4 2 5 0 5 3 5 2
split_gain=0.0120907 0.00119919 0.00116045 0.000209066 0.000155284 0.000153463 0.000108468 5.55923e-05 4.41922e-05 4.95102e-05 4.23185e-05 3.88461e-05 3.97688e-05 3.82941e-05 3.59664e-05 3.58528e-05 4.26386e-05 3.30002e-05 4.74805e-05 3.28684e-05 3.12745e-05 3.4074e-05 3.11622e-05 5.29533e-05 3.07115e-05 3.46539e-05 4.11309e-05 4.30274e-05 4.03449e-05 3.38297e-05
threshold=880.50000000000011 1114.5000000000002 716.50000000000011 1345.5000000000002 777.50000000000011 655.50000000000011 988.50000000000011 5713192.5000000009 8574.5000000000018 4249171.0000000009 340.50000000000006 4273755.5000000009 4235849.5000000009 6048.5000000000009 4272561.5000000009 1558.5000000000002 2638.5000000000005 4252344.5000000009 8029.5000000000009 4261096.5000000009 10029.500000000002 5708034.5000000009 4250466.5000000009 4261178.5000000009 195214.00000000003 12085.500000000002 22716.500000000004 5709025.5000000009 71864.000000000015 4262019.5000000009
decision_type=2 2 2 2 2 2 2 2 2 2 2 2 2 2 2 2 2 2 2 2 2 2 2 2 2 2 2 2 2 2
left_child=2 6 5 20 22 8 -2 -5 9 -1 13 12 -6 -11 17 -9 -17 18 -7 -12 21 -3 -4 -24 25 26 -14 -28 -27 -29
right_child=1 3 4 7 11 14 -8 15 -10 10 19 -13 24 -15 -16 16 -18 -19 -20 -21 -22 -23 23 -25 -26 28 27 29 -30 -31
leaf_value=-8.3614831480966956 -1.4088185666201753 -8.883406012832948 -5.5225376199955551 7.2656549325725068 -7.0168633432359364 -6.8209260620067198 0.074080975124752521 5.3962540111506136 -4.3381926107237447 -10.071404966471091 -5.2418095907581392 -5.3401814313199063 -4.982231834798859 -6.3940560153863775 -6.3676632967556364 16.12034050614475 43.284645882881378 -4.7404545842775949 -3.9384451080417149 -6.1163396932800058 1.4187609517355668 4.7309613401855497 -3.035168137390865 -4.50671773391191 1.7944780026035552 -0.53607279644057604 -4.3417627705652011 -1.9244944012413272 -2.5493001513199034 -3.0291131378414504
leaf_weight=469 12756 43 582 15321 223 466 13984 14345 1219 201 1576 345 953 505 399 37385 10303 6894 417 3713 17150 5119 2273 4918 148 1219 648 3429 497 5144
leaf_count=469 12756 43 582 15321 223 466 13984 14345 1219 201 1576 345 953 505 399 37385 10303 6894 417 3713 17150 5119 2273 4918 148 1219 648 3429 497 5144
internal_value=0 1.07211e-05 -4.16955e-05 1.47572e-05 -2.90666e-05 -5.79239e-05 -4.32216e-06 1.6725e-05 -6.6042e-05 -6.86768e-05 -6.67185e-05 -2.3583e-05 -2.2838e-05 -8.51155e-05 -5.02952e-05 1.77909e-05 1.88457e-05 -4.90933e-05 -6.36546e-05 -6.42628e-05 7.93492e-06 1.33942e-05 -3.79598e-05 -3.65187e-05 -2.22179e-05 -2.26687e-05 -2.44425e-05 -2.28072e-05 -1.21524e-05 -2.13048e-05
internal_weight=0 126406 36238 99666 20379 15859 26740 77354 7683 6464 5995 12606 12261 706 8176 62033 47688 7777 883 5289 22312 5162 7773 7191 12038 11890 10174 9221 1716 8573
internal_count=162644 126406 36238 99666 20379 15859 26740 77354 7683 6464 5995 12606 12261 706 8176 62033 47688 7777 883 5289 22312 5162 7773 7191 12038 11890 10174 9221 1716 8573
is_linear=0
shrinkage=0.08


Tree=22
num_leaves=31
num_cat=0
split_feature=6 6 6 6 6 6 6 3 3 0 3 0 2 2 4 0 7 0 1 5 5 0 3 6 6 0 2 0 7 4
split_gain=0.0105236 0.00104531 0.00100796 0.000155526 0.000152533 0.000116005 0.000105807 4.78328e-05 4.33208e-05 4.14928e-05 4.93487e-05 3.97013e-05 3.85981e-05 3.64746e-05 4.32642e-05 4.89175e-05 3.54908e-05 4.45921e-05 3.52311e-05 3.70827e-05 3.27242e-05 3.25359e-05 4.04548e-05 3.23441e-05 6.19801e-05 4.80644e-05 3.83697e-05 3.18796e-05 3.09369e-05 2.97345e-05
threshold=880.50000000000011 711.50000000000011 1134.5000000000002 756.50000000000011 1338.5000000000002 655.50000000000011 970.50000000000011 5713192.5000000009 5709025.5000000009 8709.5000000000018 5740742.0000000009 6941.5000000000009 4270089.5000000009 4261545.5000000009 4257570.5000000009 8505.5000000000018 340.50000000000006 6137.5000000000009 5701911.5000000009 195214.00000000003 195214.00000000003 8166.5000000000009 5705929.5000000009 1885.5000000000002 2638.5000000000005 11389.500000000002 4259576.5000000009 15141.500000000002 403.50000000000006 4273755.5000000009
decision_type=2 2 2 2 2 2 2 2 2 2 2 2 2 2 2 2 2 2 2 2 2 2 2 2 2 2 2 2 2 2
left_child=1 5 6 -3 -4 9 -2 -6 11 10 16 -5 21 14 15 -10 17 -1 -18 -20 29 22 -8 25 -25 -9 -27 -23 -17 -15
right_child=2 3 4 8 7 -7 12 23 13 -11 -12 -13 -14 20 -16 28 18 -19 19 -21 -22 27 -24 24 -26 26 -28 -29 -30 -31
leaf_value=-8.8834820456312542 -1.4120061059311411 -3.9389223712913193 1.8274198691369929 -10.349588407157089 6.6075069193182205 -4.6267890678646379 -15.586842655097481 13.020241439841776 -4.4771808893343765 -3.9426511249073792 -9.2783216842471674 -3.2799433574800152 -1.380854559213567 -2.8902939052385408 -1.3008975111867858 -0.8532705803334375 -6.7142586702043721 -5.6663683899300032 -5.4187194158876082 -0.80374239353994203 2.3850878245114293 -0.36612629377468692 2.1234814910891053 23.121913265653184 39.821874212250876 7.3708584426455674 4.404776103742825 1.0008426334875731 -4.3123546863995941 -5.1327582351989536
leaf_weight=235 10681 5723 19671 160 15407 7505 41 6006 846 1139 168 1368 2117 8162 3136 926 277 539 5243 82 97 9883 3226 20728 10303 10112 15417 2814 238 394
leaf_count=235 10681 5723 19671 160 15407 7505 41 6006 846 1139 168 1368 2117 8162 3136 926 277 539 5243 82 97 9883 3226 20728 10303 10112 15417 2814 238 394
internal_value=0 -3.90222e-05 9.87976e-06 -2.74808e-05 1.37569e-05 -5.5018e-05 -3.28281e-06 1.53451e-05 -2.32789e-05 -6.19281e-05 -6.43809e-05 -3.60601e-05 4.46531e-07 -2.18636e-05 -1.65302e-05 -2.56926e-05 -6.32532e-05 -7.93106e-05 -6.10346e-05 -5.95877e-05 -2.50355e-05 1.79255e-06 8.91249e-06 1.63283e-05 1.8162e-05 1.4524e-05 1.30091e-05 -3.94455e-08 -1.50528e-05 -2.55593e-05
internal_weight=0 36238 126406 21050 97644 15188 28762 77973 15327 7683 6544 1528 18081 13799 5146 2010 6376 774 5602 5325 8653 15964 3267 62566 31031 31535 25529 12697 1164 8556
internal_count=162644 36238 126406 21050 97644 15188 28762 77973 15327 7683 6544 1528 18081 13799 5146 2010 6376 774 5602 5325 8653 15964 3267 62566 31031 31535 25529 12697 1164 8556
is_linear=0
shrinkage=0.08


Tree=23
num_leaves=31
num_cat=0
split_feature=6 6 6 6 6 6 6 6 2 0 4 6 6 0 0 3 0 3 5 5 0 1 6 0 5 1 2 4 5 0
split_gain=0.00914873 0.00101725 0.000813415 0.000178523 0.000137615 0.000106578 8.36029e-05 5.86543e-05 5.5408e-05 6.19994e-05 4.72583e-05 4.59978e-05 6.76625e-05 4.37797e-05 4.89387e-05 4.60563e-05 4.15734e-05 4.99213e-05 4.89961e-05 3.88296e-05 4.14461e-05 3.49016e-05 3.4662e-05 3.34159e-05 3.29265e-05 3.63243e-05 3.1831e-05 3.94802e-05 3.44491e-05 3.10249e-05
threshold=863.50000000000011 1090.5000000000002 705.50000000000011 1541.5000000000002 756.50000000000011 625.50000000000011 952.50000000000011 2638.5000000000005 4247012.0000000009 6793.5000000000009 4263379.5000000009 1994.5000000000002 1681.5000000000002 9966.5000000000018 18759.500000000004 5710928.5000000009 11876.500000000002 5709025.5000000009 18011.500000000004 145308.50000000003 9966.5000000000018 5739677.5000000009 3304.5000000000005 15497.500000000002 195214.00000000003 5720448.5000000009 4259725.5000000009 4255509.0000000009 19054.000000000004 10767.500000000002
decision_type=2 2 2 2 2 2 2 2 2 2 2 2 2 2 2 2 2 2 2 2 2 2 2 2 2 2 2 2 2 2
left_child=2 6 5 13 -4 21 -2 11 9 -7 -10 12 -5 15 26 -3 17 -6 -19 20 -12 -1 -9 -14 25 -20 27 -15 -29 -11
right_child=1 3 4 7 16 8 -8 22 10 29 19 -13 23 14 -16 -17 -18 18 24 -21 -22 -23 -24 -25 -26 -27 -28 28 -30 -31
leaf_value=-5.1435209791026413 -1.5427183778265954 -7.5470955378378131 -3.6566316199767881 8.829463398020799 -4.6416350836502716 -8.3019614543666567 -0.28165140348724893 14.853718931302028 -3.9090656158703405 -4.3732263739692101 -5.1755128116922702 21.105474630828649 13.223360089616 -0.27781066604973603 3.3544703202176791 5.3794436578363092 -1.2298135760914193 -5.7173522067094114 -2.1568257102918413 -4.4454391827834208 -2.9732535378647116 -8.4011336463677253 70.95612427527081 5.2256985613524742 1.754991563290214 -2.9389568027798667 0.7737536612899385 -0.92834816718508595 3.8662924711252709 -0.32709416100198724
leaf_weight=3424 10576 141 6478 9836 900 230 15605 8991 4854 358 3525 20435 5669 1853 7949 7860 1824 370 3975 1385 460 128 4940 11522 131 6075 16193 757 6131 69
leaf_count=3424 10576 141 6478 9836 900 230 15605 8991 4854 358 3525 20435 5669 1853 7949 7860 1824 370 3975 1385 460 128 4940 11522 131 6075 16193 757 6131 69
internal_value=0 8.72921e-06 -3.78385e-05 1.23311e-05 -2.72901e-05 -5.22749e-05 -5.3416e-06 1.50586e-05 -4.83471e-05 -7.08672e-05 -4.69e-05 1.63983e-05 1.42327e-05 8.23536e-06 6.94403e-06 1.35425e-05 -2.26256e-05 -2.44124e-05 -2.28696e-05 -5.20711e-05 -5.60815e-05 -6.4307e-05 1.04944e-05 1.12049e-05 -2.18304e-05 -2.23498e-05 5.20146e-06 9.09193e-06 1.18806e-05 -5.28308e-05
internal_weight=0 128458 34186 102277 19753 14433 26181 61393 10881 657 10224 47462 27027 40884 32883 8001 13275 11451 10551 5370 3985 3552 13931 17191 10181 10050 24934 8741 6888 427
internal_count=162644 128458 34186 102277 19753 14433 26181 61393 10881 657 10224 47462 27027 40884 32883 8001 13275 11451 10551 5370 3985 3552 13931 17191 10181 10050 24934 8741 6888 427
is_linear=0
shrinkage=0.08


Tree=24
num_leaves=31
num_cat=0
split_feature=6 6 6 6 6 6 6 4 0 3 1 4 4 5 0 4 2 0 3 1 3 2 0 2 7 3 5 2 2 3
split_gain=0.00792309 0.000862167 0.000734132 0.00012719 0.000113104 0.000111215 0.000102551 5.68436e-05 5.59465e-05 6.7695e-05 5.83252e-05 4.01165e-05 5.8106e-05 4.81236e-05 4.52012e-05 4.01027e-05 3.97845e-05 3.80941e-05 3.5082e-05 3.41506e-05 5.62401e-05 4.77629e-05 3.30855e-05 3.25965e-05 3.92029e-05 4.13309e-05 3.17549e-05 3.01351e-05 3.03858e-05 3.00188e-05
threshold=863.50000000000011 1153.5000000000002 705.50000000000011 756.50000000000011 1000.5000000000001 1549.5000000000002 615.50000000000011 4258922.5000000009 9506.5000000000018 5740742.0000000009 5701341.5000000009 4264057.5000000009 4256609.5000000009 145308.50000000003 7613.5000000000009 4235849.5000000009 4261545.5000000009 9838.5000000000018 5711647.5000000009 5716612.5000000009 5721327.5000000009 4264808.5000000009 21797.500000000004 4270089.5000000009 322.50000000000006 5705434.5000000009 117977.50000000001 4269279.5000000009 4268844.5000000009 5731163.5000000009
decision_type=2 2 2 2 2 2 2 2 2 2 2 2 2 2 2 2 2 2 2 2 2 2 2 2 2 2 2 2 2 2
left_child=2 4 6 -4 23 17 -1 -7 9 10 -8 12 14 27 -12 -5 -17 -3 -9 -14 21 -21 -19 24 -2 26 -26 28 -13 -20
right_child=1 5 3 15 -6 7 8 18 -10 -11 11 13 19 -15 -16 16 -18 22 29 20 -22 -23 -24 -25 25 -27 -28 -29 -30 -31
leaf_value=-5.3240761842883879 -2.7051122033414048 6.2080108082302834 -3.3641010903786448 -5.9469739672709059 0.22479348774844765 5.6753701646327501 -6.3983498428365966 7.0104577386900928 -2.6170340671708439 -7.5547779088244535 -5.630588020920368 -4.479212512929335 -4.2717786492020604 -4.0898040481607492 -3.1660991389243374 -1.8053245070568664 -2.6840208627308675 1.6872180928545824 18.126580511600334 -0.44469452923432984 -3.5245263244924447 -5.0170545106388271 4.0485051240099708 -2.4115119829328888 -1.0480195466308577 -0.59418949609344052 -3.9595774998831805 -5.7550620081631223 -2.1219350884796948 7.4349958167978913
leaf_weight=2128 1060 5770 6478 241 16668 13030 513 6426 1537 227 1052 2095 1047 1305 484 5001 8033 25491 36804 658 2135 89 3585 1943 562 12051 529 1004 159 4539
leaf_count=2128 1060 5770 6478 241 16668 13030 513 6426 1537 227 1052 2095 1047 1305 484 5001 8033 25491 36804 658 2135 89 3585 1943 562 12051 529 1004 159 4539
internal_value=0 8.07378e-06 -3.52625e-05 -2.52414e-05 -3.11578e-06 1.19126e-05 -4.89773e-05 1.39778e-05 -4.6173e-05 -4.8211e-05 -4.72802e-05 -4.59342e-05 -4.13107e-05 -5.14718e-05 -5.45039e-05 -2.0757e-05 -2.01591e-05 8.30919e-06 1.52554e-05 -3.6153e-05 -3.16575e-05 -1.27643e-05 7.13087e-06 -7.8881e-06 -6.55851e-06 -5.3648e-06 -2.02754e-05 -5.66714e-05 -5.15364e-05 1.61101e-05
internal_weight=0 128458 34186 19753 32813 95645 14433 60799 12305 10768 10541 10028 5465 4563 1536 13275 13034 34846 47769 3929 2882 747 29076 16145 14202 13142 1091 3258 2254 41343
internal_count=162644 128458 34186 19753 32813 95645 14433 60799 12305 10768 10541 10028 5465 4563 1536 13275 13034 34846 47769 3929 2882 747 29076 16145 14202 13142 1091 3258 2254 41343
is_linear=0
shrinkage=0.08


Tree=25
num_leaves=31
num_cat=0
split_feature=6 6 6 6 6 0 4 3 3 5 6 0 6 4 2 2 1 0 6 5 2 4 1 0 2 2 7 3 7 3
split_gain=0.00681931 0.000806792 0.000611782 0.000174888 9.56741e-05 7.10464e-05 9.47243e-05 5.9873e-05 5.97726e-05 5.65707e-05 5.55512e-05 5.49507e-05 4.68137e-05 4.39088e-05 4.27582e-05 5.16035e-05 4.21229e-05 4.09065e-05 3.97628e-05 3.4899e-05 3.52829e-05 3.4849e-05 2.956e-05 2.9467e-05 2.83722e-05 2.80411e-05 3.05813e-05 3.00598e-05 5.30941e-05 3.72576e-05
threshold=892.50000000000011 751.50000000000011 1248.5000000000002 680.50000000000011 1042.5000000000002 6483.5000000000009 4254638.5000000009 5709025.5000000009 5713192.5000000009 143456.50000000003 1897.5000000000002 12524.500000000002 818.50000000000011 4269125.5000000009 4254045.5000000009 4259183.5000000009 5706750.5000000009 8842.5000000000018 2638.5000000000005 195214.00000000003 4259994.5000000009 4265779.5000000009 5739677.5000000009 7391.5000000000009 4259648.5000000009 4270411.5000000009 322.50000000000006 5710928.5000000009 391.50000000000006 5730101.5000000009
decision_type=2 2 2 2 2 2 2 2 2 2 2 2 2 2 2 2 2 2 2 2 2 2 2 2 2 2 2 2 2 2
left_child=1 3 4 5 25 6 -1 -8 -4 13 11 -10 -3 -9 17 -16 -13 -5 -12 20 -11 -7 -22 -6 -18 26 -2 28 -28 -29
right_child=2 12 8 14 23 21 7 9 10 19 18 16 -14 -15 15 -17 24 -19 -20 -21 22 -23 -24 -25 -26 -27 27 29 -30 -31
leaf_value=-6.8131677111360114 -2.3222725092266594 -2.5631805352530956 4.0584020599146786 -4.7108685089935172 3.7729874154972824 -3.1776224476406698 -8.3248463520182217 -4.3896082871278939 7.8405728310262024 -1.5512597696072954 19.049794491457398 8.7643749830597155 -1.7904031691456295 -6.774225236177454 -1.4949730031483524 -3.3172504069699427 4.2180335027194271 -1.9740055386780022 32.91379714759605 0.65796477101453099 -4.3161166219554072 -3.793250464223811 -12.582551879018128 0.43241805955447488 1.9067812966595374 -2.0436812411599385 0.37472552480699051 0.090345691275133505 -2.9079085254869641 -1.8804843869433807
leaf_weight=629 1150 8382 16858 756 1997 3522 213 2453 11447 324 20235 3119 8999 663 1189 6720 9704 438 10303 85 1413 1825 22 19221 14679 1918 875 10582 978 1945
leaf_count=629 1150 8382 16858 756 1997 3522 213 2453 11447 324 20235 3119 8999 663 1189 6720 9704 438 10303 85 1413 1825 22 19221 14679 1918 875 10582 978 1945
internal_value=0 -3.08574e-05 7.9863e-06 -4.17089e-05 -3.7682e-07 -4.84264e-05 -5.45571e-05 -5.09927e-05 1.17314e-05 -4.92092e-05 1.27681e-05 1.07652e-05 -1.82135e-05 -5.57816e-05 -3.34815e-05 -3.13512e-05 8.82662e-06 -4.75928e-05 1.53227e-05 -3.81031e-05 -4.05224e-05 -4.17741e-05 -4.59061e-05 3.23182e-06 7.70684e-06 -4.76518e-06 -3.6381e-06 -2.63418e-06 -1.21444e-05 -1.22742e-06
internal_weight=0 37633 125011 20252 38666 11149 5802 5173 86345 4960 69487 38949 17381 3116 9103 7909 27502 1194 30538 1844 1759 5347 1435 21218 24383 17448 15530 14380 1853 12527
internal_count=162644 37633 125011 20252 38666 11149 5802 5173 86345 4960 69487 38949 17381 3116 9103 7909 27502 1194 30538 1844 1759 5347 1435 21218 24383 17448 15530 14380 1853 12527
is_linear=0
shrinkage=0.08


Tree=26
num_leaves=31
num_cat=0
split_feature=6 6 6 6 6 0 4 4 4 6 6 0 2 0 5 5 4 2 1 3 0 2 7 2 3 7 0 0 5 3
split_gain=0.00590722 0.000649449 0.000578434 0.000141965 0.000131552 8.16714e-05 9.89213e-05 5.27205e-05 5.14287e-05 4.29378e-05 5.42573e-05 4.71166e-05 4.28137e-05 4.02084e-05 3.97644e-05 3.75044e-05 3.74992e-05 3.89334e-05 3.7158e-05 5.61429e-05 3.6839e-05 3.63749e-05 3.48486e-05 3.3946e-05 3.367e-05 4.97419e-05 3.40145e-05 3.13969e-05 4.5091e-05 3.26951e-05
threshold=863.50000000000011 1302.5000000000002 690.50000000000011 994.50000000000011 756.50000000000011 8641.5000000000018 4250466.5000000009 4264057.5000000009 4256609.5000000009 1957.5000000000002 2638.5000000000005 11460.500000000002 4259576.5000000009 7471.5000000000009 26204.000000000004 195214.00000000003 4235849.5000000009 4261545.5000000009 5717391.5000000009 5721327.5000000009 6483.5000000000009 4272561.5000000009 325.50000000000006 4269731.5000000009 5711647.5000000009 397.50000000000006 6048.5000000000009 13978.500000000002 22054.500000000004 5707091.5000000009
decision_type=2 2 2 2 2 2 2 2 2 2 2 2 2 2 2 2 2 2 2 2 2 2 2 2 2 2 2 2 2 2
left_child=2 3 5 27 21 6 13 18 -3 11 -11 -10 -13 -1 -9 23 -6 -18 20 -20 -8 -4 -21 24 25 -5 -26 28 -2 -30
right_child=1 8 4 15 16 -7 7 14 9 10 -12 12 -14 -15 -16 -17 17 -19 19 22 -22 -23 -24 -25 26 -27 -28 -29 29 -31
leaf_value=-6.3168098515639759 -2.9664574304794771 3.0615506748034207 -2.764001898601264 0.74947198265126647 -5.3279837963575849 -2.5921052479325137 -4.630671156980843 -6.372344237983298 9.3116885973110772 19.318716873690029 28.711765604062165 5.4125515953840297 2.6440840702988133 -3.3739990282740382 -4.242063816878817 7.7348205594035973 -1.4805208243600283 -2.3070270812463787 -1.5349625859719527 -5.6285632212868402 -2.9753847717043755 -4.8810723769619564 -3.2919724444822349 -0.79562749527642151 6.4869258033573356 -2.3833280173487403 0.8112032816614192 0.32098009095659108 -2.8447906140638315 -0.83620600079220819
leaf_weight=585 1266 11956 8015 2447 241 2308 853 371 7682 18664 11853 12235 18833 227 4116 287 5001 8033 761 162 685 415 2413 3928 895 1453 22743 2015 800 11401
leaf_count=585 1266 11956 8015 2447 241 2308 853 371 7682 18664 11853 12235 18833 227 4116 287 5001 8033 761 162 685 415 2413 3928 895 1453 22743 2015 800 11401
internal_value=0 6.86721e-06 -3.05521e-05 -5.91941e-07 -2.2661e-05 -4.42751e-05 -4.73575e-05 -4.50341e-05 1.12051e-05 1.20414e-05 1.42859e-05 1.02738e-05 8.88667e-06 -7.41426e-05 -5.12913e-05 2.47052e-06 -1.76979e-05 -1.71197e-05 -3.92737e-05 -3.45308e-05 -4.95611e-05 -3.04766e-05 -4.01728e-05 2.20794e-06 3.20033e-06 -3.68649e-06 4.33657e-06 -6.87293e-06 -8.26647e-06 -6.77533e-06
internal_weight=0 128458 34186 47235 21705 12481 10173 9361 81223 69267 30517 38750 31068 812 4487 31753 13275 13034 4874 3336 1538 8430 2575 31466 27538 3900 23638 15482 13467 12201
internal_count=162644 128458 34186 47235 21705 12481 10173 9361 81223 69267 30517 38750 31068 812 4487 31753 13275 13034 4874 3336 1538 8430 2575 31466 27538 3900 23638 15482 13467 12201
is_linear=0
shrinkage=0.08


Tree=27
num_leaves=31
num_cat=0
split_feature=6 6 6 6 6 0 4 5 0 3 4 3 3 2 6 0 0 4 6 0 3 5 2 5 7 7 3 2 4 0
split_gain=0.00508552 0.000548877 0.000513031 0.000123115 0.000111137 6.79527e-05 0.000114959 6.57138e-05 6.83524e-05 5.13867e-05 4.5365e-05 4.85779e-05 4.26049e-05 4.00704e-05 3.78631e-05 4.37379e-05 3.657e-05 3.5725e-05 3.3551e-05 3.34442e-05 4.50437e-05 7.32051e-05 7.00224e-05 4.28066e-05 4.00607e-05 3.92913e-05 3.23069e-05 3.16733e-05 3.38765e-05 4.28433e-05
threshold=863.50000000000011 1302.5000000000002 690.50000000000011 1048.5000000000002 761.50000000000011 7613.5000000000009 4250466.5000000009 44584.500000000007 4830.5000000000009 5713192.5000000009 4263379.5000000009 5713192.5000000009 5730720.5000000009 4269498.5000000009 1981.5000000000002 12672.500000000002 11876.500000000002 4256022.5000000009 2638.5000000000005 13978.500000000002 5711470.5000000009 152487.00000000003 4262319.5000000009 156261.50000000003 328.50000000000006 391.50000000000006 5709025.5000000009 4272561.5000000009 4250466.5000000009 5692.5000000000009
decision_type=2 2 2 2 2 2 2 2 2 2 2 2 2 2 2 2 2 2 2 2 2 2 2 2 2 2 2 2 2 2
left_child=2 3 5 19 27 6 -1 8 -8 -3 11 -9 14 17 15 -11 26 -10 -16 20 25 22 24 -23 -22 -2 -6 28 29 -4
right_child=1 9 4 -5 16 -7 7 10 13 12 -12 -13 -14 -15 18 -17 -18 -19 -20 -21 21 23 -24 -25 -26 -27 -28 -29 -30 -31
leaf_value=-5.6990507653910569 -0.94061576248033818 3.5640453880125644 -11.79920176775855 0.71940353268424584 -3.6341793845797383 -2.6179246480397249 -10.214807683293065 -4.6776151074994692 -5.1281951553273215 8.5455131791231906 -3.9671898881597465 -2.5902131572149121 3.2887387765021776 -5.7932614303378704 20.817429310222543 3.5438412944468292 -0.60735284729548766 -3.3959838769029282 32.49482435573718 0.28786416224399547 -2.305604831897599 10.866839049583906 -1.9159831015539659 0.56816565519190587 0.17896268040087307 -3.3958967924758054 -1.9268911654499061 -4.6049394114460664 -2.4575091210985556 -3.0637325584551038
leaf_weight=615 749 15970 53 25689 852 3937 123 420 171 10115 3611 2466 8888 122 14557 23158 1756 1016 8535 3375 686 173 7216 3256 5146 945 9991 440 7949 664
leaf_count=615 749 15970 53 25689 852 3937 123 420 171 10115 3611 2466 8888 122 14557 23158 1756 1016 8535 3375 686 173 7216 3256 5146 945 9991 440 7949 664
internal_value=0 6.33783e-06 -2.83815e-05 -5.19487e-07 -2.095e-05 -4.13054e-05 -4.53124e-05 -4.2728e-05 -5.8241e-05 1.03257e-05 -3.93088e-05 -3.18313e-05 1.13212e-05 -5.28833e-05 1.21329e-05 1.04056e-05 -1.60832e-05 -4.8396e-05 1.46218e-05 -4.97917e-06 -6.33753e-06 -5.0604e-06 -7.79399e-06 5.34143e-06 -1.27506e-06 -1.87598e-05 -1.78177e-05 -2.76835e-05 -2.66204e-05 -4.32747e-05
internal_weight=0 128458 34186 47235 21705 12481 8544 7929 1432 81223 6497 2886 65253 1309 56365 33273 12599 1187 23092 21546 18171 16477 13048 3429 5832 1694 10843 9106 8666 717
internal_count=162644 128458 34186 47235 21705 12481 8544 7929 1432 81223 6497 2886 65253 1309 56365 33273 12599 1187 23092 21546 18171 16477 13048 3429 5832 1694 10843 9106 8666 717
is_linear=0
shrinkage=0.08


Tree=28
num_leaves=31
num_cat=0
split_feature=6 6 6 6 6 0 6 4 1 0 7 4 0 2 0 4 2 5 4 0 6 5 5 0 6 2 0 5 0 5
split_gain=0.00439654 0.000465569 0.000451888 9.15681e-05 8.80799e-05 5.66764e-05 5.52412e-05 5.96458e-05 5.4649e-05 5.08767e-05 5.58523e-05 4.28243e-05 5.83547e-05 5.58455e-05 3.99652e-05 3.87729e-05 3.84781e-05 3.65132e-05 3.27679e-05 3.18467e-05 3.02831e-05 3.02639e-05 2.99726e-05 5.31388e-05 2.92409e-05 2.92237e-05 3.84499e-05 2.82927e-05 2.82621e-05 4.44044e-05
threshold=863.50000000000011 1248.5000000000002 728.50000000000011 670.50000000000011 1012.5000000000001 11876.500000000002 1549.5000000000002 4261569.5000000009 5739677.5000000009 7391.5000000000009 340.50000000000006 4249171.0000000009 9116.5000000000018 4262389.5000000009 4574.5000000000009 4249757.5000000009 4269611.5000000009 195214.00000000003 4263512.5000000009 4956.5000000000009 1681.5000000000002 186849.00000000003 25223.000000000004 8304.5000000000018 761.50000000000011 4247012.0000000009 6137.5000000000009 195214.00000000003 13658.500000000002 22054.500000000004
decision_type=2 2 2 2 2 2 2 2 2 2 2 2 2 2 2 2 2 2 2 2 2 2 2 2 2 2 2 2 2 2
left_child=2 4 3 8 28 11 21 20 9 10 16 12 -4 22 -10 19 -1 18 -17 -12 -8 -3 23 -13 -15 26 -5 -6 29 -2
right_child=1 6 5 25 27 -7 7 -9 14 -11 15 13 -14 24 -16 17 -18 -19 -20 -21 -22 -23 -24 -25 -26 -27 -28 -29 -30 -31
leaf_value=-4.6757270505170982 -2.8062039219238248 1.7930643350828905 -5.6786391555856977 -9.7719249343711372 0.35515366183391961 -0.55876461951184864 5.1813101999134599 12.218875713322888 -11.748532154579161 -2.4036852559917405 -9.1818044906734215 -5.1023774001770743 -1.1336030885446509 -2.8878282219127778 -4.6432229799633475 -2.9461045965831274 -7.5843511895551909 0.53461865814843801 -3.8674745760315457 -3.5128671443289567 4.4044953026453735 11.461872124793336 -1.0594426544836641 -1.714200792240572 -2.2358744585982366 -2.5163963566672285 -2.6395438176076551 7.0584826320365757 0.2342133186593037 -0.82556210118259521
leaf_weight=572 1291 25133 413 68 24346 2057 3541 40044 35 3015 69 309 340 2207 281 2483 53 99 2897 260 17214 413 5038 580 5926 7142 342 226 2789 13461
leaf_count=572 1291 25133 413 68 24346 2057 3541 40044 35 3015 69 309 340 2207 281 2483 53 99 2897 260 17214 413 5038 580 5926 7142 342 226 2789 13461
internal_value=0 5.84133e-06 -2.64406e-05 -3.55191e-05 -1.05491e-06 -1.71221e-05 9.20483e-06 1.05165e-05 -4.06354e-05 -3.95409e-05 -4.35599e-05 -1.885e-05 -3.7437e-05 -1.78546e-05 -7.33615e-05 -4.11146e-05 -6.62835e-05 -3.95128e-05 -4.03988e-05 -6.77889e-05 7.03599e-06 6.08314e-06 -1.19485e-05 -2.54915e-05 -2.21587e-05 -2.89043e-05 -4.96747e-05 2.03629e-06 -5.38516e-06 -6.78141e-06
internal_weight=0 128458 34186 17316 42113 16870 86345 60799 9764 9448 6433 14813 753 14060 316 5808 625 5479 5380 329 20755 25546 5927 889 8133 7552 410 24572 17541 14752
internal_count=162644 128458 34186 17316 42113 16870 86345 60799 9764 9448 6433 14813 753 14060 316 5808 625 5479 5380 329 20755 25546 5927 889 8133 7552 410 24572 17541 14752
is_linear=0
shrinkage=0.08


Tree=29
num_leaves=31
num_cat=0
split_feature=6 6 6 6 6 0 3 4 6 1 2 7 4 0 2 3 3 0 3 7 1 0 5 2 7 3 0 4 5 0
split_gain=0.00372863 0.000459942 0.000332378 9.47612e-05 6.99323e-05 6.77325e-05 7.20305e-05 5.37811e-05 5.13939e-05 4.87627e-05 4.52019e-05 4.16342e-05 3.79894e-05 3.52586e-05 3.44808e-05 3.3549e-05 3.22354e-05 3.1627e-05 3.11886e-05 4.02176e-05 3.23734e-05 2.9803e-05 2.91212e-05 4.33661e-05 3.28644e-05 2.8615e-05 2.82608e-05 3.72727e-05 3.07488e-05 3.07098e-05
threshold=846.50000000000011 1114.5000000000002 690.50000000000011 1574.5000000000002 756.50000000000011 8842.5000000000018 5740742.0000000009 4258761.5000000009 952.50000000000011 5702873.5000000009 4247509.5000000009 325.50000000000006 4264057.5000000009 8842.5000000000018 4272561.5000000009 5711647.5000000009 5731163.5000000009 22607.500000000004 5711470.5000000009 397.50000000000006 5711525.5000000009 4830.5000000000009 152487.00000000003 4259368.5000000009 322.50000000000006 5728289.5000000009 6048.5000000000009 4256609.5000000009 143456.50000000003 4434.5000000000009
decision_type=2 2 2 2 2 2 2 2 2 2 2 2 2 2 2 2 2 2 2 2 2 2 2 2 2 2 2 2 2 2
left_child=2 8 5 13 14 6 9 -5 -2 -1 -11 21 26 -3 -4 -9 -17 18 19 -15 -20 -12 23 24 -22 -14 27 29 -29 -13
right_child=1 3 4 7 -6 -7 -8 15 -10 10 11 12 25 17 -16 16 -18 -19 20 -21 22 -23 -24 -25 -26 -27 -28 28 -30 -31
leaf_value=-4.3007519872437756 -1.0107429819522713 5.0046778668587653 -2.152210511011599 3.2326088030065696 -1.698134842223235 -1.8808609342957061 -5.9304242095707105 4.0272249471284889 -0.11092676509022567 -4.5492555794078724 -12.924909733053628 -7.1026269274910829 -3.4126695497600577 0.83445197716073383 -3.9208797253559444 13.588871012533437 4.2679371401930259 3.3585789993759501 3.4856903980435345 -2.9850056478319495 -1.7475582506603859 -3.7886903583514777 3.1560933469969679 -0.17304667434502335 2.6300266434917465 -2.5128262460156567 -1.8785347806902792 -2.951231800157375 -1.7864679995365531 -4.2060274217684306
leaf_weight=554 12696 4608 8015 12421 11155 2061 233 6323 18216 319 23 111 3145 2215 415 35793 4407 3202 3730 1447 933 532 3578 14066 6943 1095 1860 1372 840 336
leaf_count=554 12696 4608 8015 12421 11155 2061 233 6323 18216 319 23 111 3145 2215 415 35793 4407 3202 3730 1447 933 532 3578 14066 6943 1095 1860 1372 840 336
internal_value=0 5.08867e-06 -2.53571e-05 7.73289e-06 -1.88551e-05 -3.55599e-05 -3.81809e-05 9.78323e-06 -3.43677e-06 -3.7175e-05 -3.58476e-05 -3.48334e-05 -3.34871e-05 4.76507e-06 -2.43541e-05 1.10318e-05 1.18839e-05 3.9242e-06 3.18577e-06 -3.77432e-06 4.05714e-06 -5.60819e-05 3.03964e-06 1.94836e-06 6.70127e-06 -3.89262e-05 -2.83837e-05 -3.3675e-05 -2.94171e-05 -5.4745e-05
internal_weight=0 130578 32066 99666 19585 12481 10420 58944 30912 10187 9633 9314 8759 40722 8430 46523 40200 36114 32912 3662 29250 555 25520 21942 7876 4240 4519 2659 2212 447
internal_count=162644 130578 32066 99666 19585 12481 10420 58944 30912 10187 9633 9314 8759 40722 8430 46523 40200 36114 32912 3662 29250 555 25520 21942 7876 4240 4519 2659 2212 447
is_linear=0
shrinkage=0.08


Tree=30
num_leaves=31
num_cat=0
split_feature=6 6 6 6 6 0 2 6 6 6 5 5 4 2 4 5 5 4 2 4 0 3 0 0 0 3 7 5 3 0
split_gain=0.00316833 0.00039009 0.000293717 8.27177e-05 6.63073e-05 5.92306e-05 6.42207e-05 5.26089e-05 6.01438e-05 4.92102e-05 4.72411e-05 4.42061e-05 4.15383e-05 3.79224e-05 5.6705e-05 3.74967e-05 3.74394e-05 3.77256e-05 3.67042e-05 3.44233e-05 4.40823e-05 4.14736e-05 3.17673e-05 3.16972e-05 3.02007e-05 2.97791e-05 2.8918e-05 3.0605e-05 2.80405e-05 3.04262e-05
threshold=846.50000000000011 1134.5000000000002 685.50000000000011 2033.5000000000002 756.50000000000011 8842.5000000000018 4247509.5000000009 2638.5000000000005 3304.5000000000005 952.50000000000011 17917.500000000004 195214.00000000003 4264057.5000000009 4259288.5000000009 4256609.5000000009 186849.00000000003 25223.000000000004 4264750.5000000009 4272561.5000000009 4256777.5000000009 5073.5000000000009 5711647.5000000009 5872.5000000000009 6793.5000000000009 6048.5000000000009 5754449.5000000009 355.50000000000006 90191.000000000015 5711470.5000000009 10497.500000000002
decision_type=2 2 2 2 2 2 2 2 2 2 2 2 2 2 2 2 2 2 2 2 2 2 2 2 2 2 2 2 2 2
left_child=2 9 5 10 18 6 22 -5 -9 -2 -3 12 19 14 -12 -15 17 -14 25 20 -8 -22 -1 -20 -19 -4 -23 -28 -6 -30
right_child=1 3 4 7 28 -7 11 8 -10 -11 13 -13 16 15 -16 -17 -18 24 23 -21 21 26 -24 -25 -26 -27 27 -29 29 -31
leaf_value=-5.8766918282642751 -0.92988354339609036 -1.2136692145415326 -1.9800336701306698 14.143238318784606 -2.5371726127993317 -1.6716488846369066 -5.3085199608591571 5.9608566547619555 56.955257185660962 -0.061545520810923335 0.45522808730012915 0.59328729453856799 0.30792540047757938 1.4795818671360395 4.4488642954166613 10.58799112799894 -3.1058118587664105 -8.1625839645041012 -6.1672093473274714 -2.2406245525596571 -5.0241667278416298 -3.4976948370613812 -2.9888400084827209 -1.721562171968535 -3.9774805311649288 -4.5845078072529217 0.78460500731871441 -2.2531616147777642 -1.6726327363793281 -0.28958818316878931
leaf_weight=202 12696 3373 8579 18648 1484 1898 238 8991 4940 20238 5004 132 40 37624 18343 721 3954 70 277 3764 106 239 366 173 248 68 161 396 7630 2041
leaf_count=202 12696 3373 8579 18648 1484 1898 238 8991 4940 20238 5004 132 40 37624 18343 721 3954 70 277 3764 106 239 366 173 248 68 161 396 7630 2041
internal_value=0 4.67197e-06 -2.33931e-05 7.2114e-06 -1.75453e-05 -3.34178e-05 -3.5896e-05 1.0502e-05 6.78255e-06 -2.85705e-06 5.56377e-06 -3.4309e-05 -3.49674e-05 6.06781e-06 8.60973e-06 4.52012e-06 -4.06951e-05 -6.54688e-05 -2.26143e-05 -2.99312e-05 -4.21102e-05 -3.40294e-05 -6.20143e-05 -4.48897e-05 -7.46793e-05 -2.14551e-05 -2.77695e-05 -1.77813e-05 -1.34115e-05 -1.18403e-05
internal_weight=0 130578 32066 97644 20252 11814 9916 32579 13931 32934 65065 9348 9216 61692 23347 38345 4312 358 9097 4904 1140 902 568 450 318 8647 796 557 11155 9671
internal_count=162644 130578 32066 97644 20252 11814 9916 32579 13931 32934 65065 9348 9216 61692 23347 38345 4312 358 9097 4904 1140 902 568 450 318 8647 796 557 11155 9671
is_linear=0
shrinkage=0.08


Tree=31
num_leaves=31
num_cat=0
split_feature=6 6 6 6 0 4 5 0 3 5 2 5 1 4 5 0 4 0 2 3 1 0 5 0 4 5 5 2 5 0
split_gain=0.0027295 0.000410084 0.000201292 8.54233e-05 6.13532e-05 7.78232e-05 5.28075e-05 4.84919e-05 6.37144e-05 7.95978e-05 8.70981e-05 5.24325e-05 4.77571e-05 4.57631e-05 4.57557e-05 4.4881e-05 5.57825e-05 5.23201e-05 4.56615e-05 4.19289e-05 4.14705e-05 4.1468e-05 4.1441e-05 4.04459e-05 3.71831e-05 4.64746e-05 3.62613e-05 3.42653e-05 4.59658e-05 3.41921e-05
threshold=818.50000000000011 1090.5000000000002 680.50000000000011 1445.5000000000002 5784.5000000000009 4256609.5000000009 195214.00000000003 13658.500000000002 5711470.5000000009 152487.00000000003 4262241.5000000009 156261.50000000003 5739677.5000000009 4259422.5000000009 195214.00000000003 10497.500000000002 4249757.5000000009 5692.5000000000009 4262452.5000000009 5709025.5000000009 5710875.5000000009 9373.5000000000018 71864.000000000015 4705.5000000000009 4271442.5000000009 139922.50000000003 25223.000000000004 4270411.5000000009 63057.000000000007 10982.500000000002
decision_type=2 2 2 2 2 2 2 2 2 2 2 2 2 2 2 2 2 2 2 2 2 2 2 2 2 2 2 2 2 2
left_child=2 7 4 -3 5 23 12 8 21 10 -10 -11 19 -5 -13 16 17 -4 26 -7 -19 -2 -9 -1 -21 -26 -18 28 29 -12
right_child=1 3 15 13 -6 6 -8 22 9 11 27 14 -14 -15 -16 -17 18 20 -20 24 -22 -23 -24 -25 25 -27 -28 -29 -30 -31
leaf_value=-6.7965688730005605 -4.6634157105421128 0.77297044246231961 -9.4961363728491683 2.4753871570108821 -2.0118067578305547 -6.9372997799908172 2.7433980893668468 0.98096514396213941 -0.086389570224800996 8.9382614494042443 -4.1124864083988273 0.14456180624676562 -9.4199909607167776 7.703624154117624 7.7702496205793885 -0.77155559740689572 -2.8468659964442575 -0.55458630196717429 -2.3016309765202188 -2.8047079412698532 -3.5254099776725343 -1.1493007464345284 -0.845703140467158 -3.8607443326460182 -5.4918769209468152 -3.6252439846211564 -1.1667300339043414 -2.8144887607737656 -0.71114725691852987 -1.5116960758931692
leaf_weight=222 749 33325 76 15993 6657 130 75 3838 8395 253 1298 4469 40 52959 251 2917 836 244 7937 3147 519 1662 1788 372 239 267 4956 2045 5362 1623
leaf_count=222 749 33325 76 15993 6657 130 75 3838 8395 253 1298 4469 40 52959 251 2917 836 244 7937 3147 519 1662 1788 372 239 267 4956 2045 5362 1623
internal_value=0 3.94493e-06 -2.32658e-05 6.40997e-06 -3.16658e-05 -3.88903e-05 -3.47798e-05 -4.00003e-06 -5.45177e-06 -4.19113e-06 -6.58073e-06 4.80553e-06 -3.6084e-05 8.01728e-06 2.90371e-06 -1.79098e-05 -1.97234e-05 -3.97486e-05 -1.84996e-05 -3.51646e-05 -3.34436e-05 -1.78417e-05 2.73668e-06 -6.58648e-05 -3.35758e-05 -5.37042e-05 -1.30988e-05 -1.15001e-05 -9.21048e-06 -1.72849e-05
internal_weight=0 134010 28634 102277 11149 4492 3898 31733 26107 23696 18723 4973 3823 68952 4720 17485 14568 839 13729 3783 763 2411 5626 594 3653 506 5792 10328 8283 2921
internal_count=162644 134010 28634 102277 11149 4492 3898 31733 26107 23696 18723 4973 3823 68952 4720 17485 14568 839 13729 3783 763 2411 5626 594 3653 506 5792 10328 8283 2921
is_linear=0
shrinkage=0.08


Tree=32
num_leaves=31
num_cat=0
split_feature=6 6 6 6 0 4 0 6 0 1 2 4 0 0 3 4 5 7 0 1 1 1 1 0 7 4 2 5 5 0
split_gain=0.00234856 0.000308667 0.000210514 7.19948e-05 5.3831e-05 6.81823e-05 5.43267e-05 5.22568e-05 5.13558e-05 5.11429e-05 4.71927e-05 4.48805e-05 4.3866e-05 4.30322e-05 6.68117e-05 4.18945e-05 3.9218e-05 3.73546e-05 3.48691e-05 3.59214e-05 3.41103e-05 3.05249e-05 3.11013e-05 2.98023e-05 4.574e-05 4.02947e-05 5.09286e-05 3.29561e-05 3.09873e-05 3.05864e-05
threshold=835.50000000000011 1295.5000000000002 680.50000000000011 952.50000000000011 10497.500000000002 4249757.5000000009 5692.5000000000009 2033.5000000000002 12599.500000000002 5738979.5000000009 4262452.5000000009 4261412.5000000009 4574.5000000000009 6941.5000000000009 5709025.5000000009 4248480.0000000009 25223.000000000004 340.50000000000006 6566.5000000000009 5710227.5000000009 5710875.5000000009 5702458.5000000009 5749333.5000000009 15141.500000000002 322.50000000000006 4246547.5000000009 4264252.5000000009 152487.00000000003 96523.000000000015 11389.500000000002
decision_type=2 2 2 2 2 2 2 2 2 2 2 2 2 2 2 2 2 2 2 2 2 2 2 2 2 2 2 2 2 2
left_child=2 3 9 -2 5 6 -4 8 -3 13 16 -9 -11 14 -1 -16 -7 -17 19 -5 -8 -12 -23 24 -20 29 -27 -28 -25 -26
right_child=1 7 4 18 -6 10 20 11 -10 12 21 -13 -14 -15 15 17 -18 -19 23 -21 -22 22 -24 28 25 26 27 -29 -30 -31
